svm_type c_svc
kernel_type rbf
gamma 4.6999999999999993
nr_class 2
total_sv 4801
rho 0.69984906825463489
label 0 1
nr_sv 2409 2392
SV
49.000000000000426 1:0.542574 2:-0.492435 
49.000000000000426 1:0.186743 2:-0.38523 
49.000000000000426 1:0.254768 2:-0.651996 
49.000000000000426 1:-0.106125 2:-0.806331 
49.000000000000426 1:-0.836579 2:-0.939411 
49.000000000000426 1:0.25788 2:0.832257 
49.000000000000426 1:-0.337659 2:0.185658 
49.000000000000426 1:-0.346868 2:0.618424 
49.000000000000426 1:-0.022581 2:-0.30594 
49.000000000000426 1:-0.751555 2:-0.179226 
49.000000000000426 1:0.952928 2:0.837181 
49.000000000000426 1:0.23596 2:-0.16031 
49.000000000000426 1:-0.105575 2:0.724574 
49.000000000000426 1:-0.636534 2:-0.248337 
49.000000000000426 1:-0.02187 2:0.568932 
49.000000000000426 1:0.467272 2:-0.691375 
49.000000000000426 1:-0.658376 2:0.371181 
49.000000000000426 1:-0.536166 2:-0.309856 
49.000000000000426 1:0.237257 2:0.058206 
49.000000000000426 1:-0.754779 2:-0.127806 
49.000000000000426 1:0.721783 2:-0.190941 
49.000000000000426 1:0.86465 2:0.217565 
49.000000000000426 1:-0.251278 2:0.825272 
49.000000000000426 1:0.835824 2:0.157517 
49.000000000000426 1:0.726448 2:0.474528 
49.000000000000426 1:-0.187631 2:-0.242583 
49.000000000000426 1:-0.02815 2:-0.882146 
49.000000000000426 1:-0.18112 2:0.814576 
49.000000000000426 1:-0.794816 2:0.331821 
49.000000000000426 1:0.526983 2:-0.538923 
49.000000000000426 1:-0.203102 2:0.114248 
49.000000000000426 1:-0.564653 2:-0.458 
49.000000000000426 1:-0.621129 2:-0.405179 
32.890275331138639 1:0.050876 2:-0.064663 
49.000000000000426 1:-0.891784 2:-0.834607 
49.000000000000426 1:-0.499102 2:0.582601 
49.000000000000426 1:0.218451 2:0.614835 
49.000000000000426 1:-0.366765 2:-0.641723 
49.000000000000426 1:0.050508 2:-0.821903 
49.000000000000426 1:-0.168045 2:-0.153758 
49.000000000000426 1:-0.825183 2:0.885176 
49.000000000000426 1:0.53296 2:0.616735 
49.000000000000426 1:0.234879 2:-0.825911 
49.000000000000426 1:0.649804 2:0.577073 
49.000000000000426 1:-0.476393 2:0.7625 
49.000000000000426 1:-0.209808 2:-0.353806 
49.000000000000426 1:-0.05235 2:0.233065 
49.000000000000426 1:0.011295 2:0.143292 
49.000000000000426 1:-0.613345 2:0.396996 
49.000000000000426 1:0.2106 2:0.821748 
49.000000000000426 1:-0.767878 2:0.034268 
49.000000000000426 1:-0.743956 2:0.117784 
49.000000000000426 1:0.430377 2:0.773783 
49.000000000000426 1:-0.631133 2:0.313116 
49.000000000000426 1:0.076359 2:0.293169 
49.000000000000426 1:-0.220719 2:-0.734922 
49.000000000000426 1:-0.205501 2:-0.129729 
49.000000000000426 1:-0.622779 2:-0.229001 
49.000000000000426 1:0.888399 2:0.873264 
49.000000000000426 1:-0.631326 2:0.600325 
49.000000000000426 1:-0.084086 2:0.79912 
49.000000000000426 1:-0.320665 2:0.722089 
49.000000000000426 1:-0.537564 2:-0.60256 
49.000000000000426 1:0.203064 2:-0.032413 
49.000000000000426 1:-0.380884 2:-0.766079 
49.000000000000426 1:0.632117 2:-0.46863 
49.000000000000426 1:0.477265 2:0.545774 
49.000000000000426 1:0.81246 2:-0.077983 
49.000000000000426 1:-0.031912 2:0.765222 
49.000000000000426 1:-0.146524 2:-0.33313 
49.000000000000426 1:-0.437838 2:-0.73404 
49.000000000000426 1:-0.829892 2:0.922666 
49.000000000000426 1:-0.329456 2:0.619482 
49.000000000000426 1:0.081681 2:-0.819003 
49.000000000000426 1:-0.523129 2:0.047399 
49.000000000000426 1:-0.521367 2:-0.226299 
49.000000000000426 1:0.236929 2:0.008638 
49.000000000000426 1:0.2951 2:-0.043354 
49.000000000000426 1:0.088418 2:-0.267089 
49.000000000000426 1:-0.115934 2:-0.069255 
49.000000000000426 1:0.886799 2:-0.119188 
49.000000000000426 1:-0.473504 2:0.696685 
49.000000000000426 1:-0.110038 2:0.257201 
38.591818013922975 1:0.992177 2:0.693265 
26.392197429503742 1:-0.350629 2:0.994997 
49.000000000000426 1:0.724621 2:-0.358701 
49.000000000000426 1:-0.023366 2:0.10891 
49.000000000000426 1:-0.163299 2:0.045006 
49.000000000000426 1:0.718458 2:-0.470845 
49.000000000000426 1:0.167998 2:-0.444874 
49.000000000000426 1:0.386197 2:0.738253 
49.000000000000426 1:-0.333182 2:0.142621 
49.000000000000426 1:-0.890043 2:-0.017257 
49.000000000000426 1:-0.621868 2:0.493931 
49.000000000000426 1:0.638602 2:-0.589794 
49.000000000000426 1:-0.079684 2:-0.677283 
49.000000000000426 1:0.37462 2:0.194079 
49.000000000000426 1:-0.727958 2:0.335626 
49.000000000000426 1:-0.874107 2:0.185662 
49.000000000000426 1:-0.202436 2:0.473617 
49.000000000000426 1:-0.182398 2:-0.08721 
49.000000000000426 1:0.857575 2:-0.889815 
49.000000000000426 1:-0.104154 2:0.701784 
49.000000000000426 1:0.432516 2:-0.095125 
49.000000000000426 1:0.656373 2:0.997047 
49.000000000000426 1:0.77282 2:-0.128874 
49.000000000000426 1:0.310124 2:0.779388 
49.000000000000426 1:0.771257 2:0.118925 
49.000000000000426 1:-0.340362 2:-0.626886 
49.000000000000426 1:0.128339 2:0.367551 
49.000000000000426 1:-0.496455 2:0.514033 
49.000000000000426 1:-0.281436 2:0.777822 
49.000000000000426 1:-0.414399 2:-0.692714 
49.000000000000426 1:-0.230679 2:0.849155 
49.000000000000426 1:-0.897605 2:0.066278 
49.000000000000426 1:0.416687 2:0.053704 
49.000000000000426 1:-0.312078 2:-0.690566 
49.000000000000426 1:0.167406 2:0.128988 
49.000000000000426 1:-0.256928 2:0.72292 
49.000000000000426 1:-0.743142 2:-0.042129 
49.000000000000426 1:-0.730672 2:-0.018462 
49.000000000000426 1:0.766376 2:0.361459 
49.000000000000426 1:0.291868 2:-0.064795 
49.000000000000426 1:-0.444043 2:0.578815 
49.000000000000426 1:0.661294 2:-0.557382 
49.000000000000426 1:0.047117 2:0.189103 
49.000000000000426 1:0.386905 2:-0.804755 
49.000000000000426 1:0.190632 2:-0.61914 
49.000000000000426 1:0.615518 2:0.543858 
49.000000000000426 1:0.211782 2:0.795212 
49.000000000000426 1:0.877263 2:-0.903563 
49.000000000000426 1:-0.514196 2:-0.665443 
49.000000000000426 1:-0.616307 2:-0.556795 
49.000000000000426 1:0.770278 2:-0.152109 
49.000000000000426 1:0.047128 2:0.08966 
49.000000000000426 1:0.567931 2:0.007619 
49.000000000000426 1:-0.352359 2:0.773151 
49.000000000000426 1:-0.325904 2:0.738058 
49.000000000000426 1:-0.914346 2:0.071157 
49.000000000000426 1:0.295839 2:0.591342 
49.000000000000426 1:-0.087665 2:-0.695076 
49.000000000000426 1:-0.572325 2:0.567693 
49.000000000000426 1:0.052981 2:0.899172 
49.000000000000426 1:-0.03372 2:0.195713 
49.000000000000426 1:-0.677684 2:-0.081258 
49.000000000000426 1:0.18688 2:-0.164582 
49.000000000000426 1:0.253836 2:-0.776827 
49.000000000000426 1:-0.609904 2:-0.625629 
49.000000000000426 1:-0.568001 2:0.5046 
49.000000000000426 1:0.228966 2:0.608966 
49.000000000000426 1:-0.03176 2:-0.889377 
49.000000000000426 1:0.618732 2:-0.352764 
49.000000000000426 1:-0.173455 2:0.70275 
49.000000000000426 1:0.578812 2:0.489915 
49.000000000000426 1:0.385332 2:0.797765 
49.000000000000426 1:0.766454 2:-0.326688 
49.000000000000426 1:0.451991 2:-0.497967 
49.000000000000426 1:-0.730905 2:-0.227304 
49.000000000000426 1:-0.322495 2:-0.585649 
49.000000000000426 1:0.300309 2:-0.468561 
49.000000000000426 1:0.446848 2:-0.674708 
49.000000000000426 1:0.158585 2:-0.308582 
49.000000000000426 1:0.9919 2:0.616957 
31.258678263989029 1:0.78782 2:0.995775 
49.000000000000426 1:0.825388 2:0.096861 
49.000000000000426 1:0.669918 2:-0.207226 
49.000000000000426 1:0.393136 2:-0.804854 
49.000000000000426 1:-0.74363 2:0.269169 
49.000000000000426 1:-0.153663 2:0.795792 
49.000000000000426 1:0.799906 2:-0.357365 
49.000000000000426 1:-0.425559 2:-0.701731 
49.000000000000426 1:0.627374 2:-0.58213 
49.000000000000426 1:0.31538 2:0.564819 
49.000000000000426 1:0.19061 2:0.840722 
49.000000000000426 1:-0.737119 2:-0.313826 
49.000000000000426 1:0.446971 2:-0.084288 
49.000000000000426 1:0.792737 2:-0.353182 
49.000000000000426 1:-0.4558 2:0.638285 
49.000000000000426 1:0.57966 2:0.300246 
49.000000000000426 1:0.237082 2:0.830228 
49.000000000000426 1:-0.359049 2:0.619148 
49.000000000000426 1:-0.634512 2:0.299062 
49.000000000000426 1:-0.885285 2:-0.184394 
49.000000000000426 1:0.852275 2:0.118629 
49.000000000000426 1:0.451199 2:-0.775171 
49.000000000000426 1:-0.079097 2:-0.09724 
49.000000000000426 1:-0.900897 2:0.193824 
49.000000000000426 1:0.717958 2:-0.386569 
49.000000000000426 1:0.657995 2:0.083476 
49.000000000000426 1:-0.076307 2:0.618818 
49.000000000000426 1:0.67347 2:0.137905 
49.000000000000426 1:0.565512 2:0.194879 
49.000000000000426 1:0.758926 2:0.445567 
49.000000000000426 1:0.130672 2:-0.091562 
49.000000000000426 1:-0.014834 2:-0.695195 
49.000000000000426 1:-0.123285 2:0.307385 
49.000000000000426 1:0.809274 2:0.260869 
49.000000000000426 1:0.120582 2:0.024017 
49.000000000000426 1:0.632162 2:0.320251 
49.000000000000426 1:0.847836 2:-0.040591 
49.000000000000426 1:0.526948 2:0.66383 
49.000000000000426 1:0.512387 2:-0.551439 
49.000000000000426 1:0.193219 2:0.680012 
49.000000000000426 1:0.838402 2:-0.19411 
49.000000000000426 1:-0.228359 2:0.82978 
49.000000000000426 1:0.121075 2:-0.672956 
49.000000000000426 1:-0.723803 2:0.470026 
49.000000000000426 1:-0.479529 2:0.712969 
49.000000000000426 1:-0.715153 2:0.511035 
49.000000000000426 1:0.102495 2:-0.874765 
49.000000000000426 1:-0.420336 2:0.737242 
49.000000000000426 1:-0.958182 2:0.719591 
49.000000000000426 1:0.044696 2:-0.697082 
49.000000000000426 1:-0.262936 2:0.78612 
49.000000000000426 1:0.44718 2:0.116762 
49.000000000000426 1:0.870031 2:0.922087 
49.000000000000426 1:-0.409991 2:-0.145378 
49.000000000000426 1:0.292054 2:0.793869 
49.000000000000426 1:-0.063093 2:0.298227 
49.000000000000426 1:0.366249 2:0.812849 
49.000000000000426 1:-0.694616 2:-0.457099 
49.000000000000426 1:-0.335329 2:-0.431341 
49.000000000000426 1:-0.238474 2:0.592121 
49.000000000000426 1:0.761198 2:0.075575 
49.000000000000426 1:-0.33256 2:0.763909 
49.000000000000426 1:0.204059 2:0.870473 
49.000000000000426 1:0.016642 2:-0.313406 
49.000000000000426 1:0.472896 2:0.48876 
49.000000000000426 1:-0.261169 2:-0.161691 
49.000000000000426 1:0.65567 2:0.499203 
49.000000000000426 1:0.22362 2:-0.702837 
49.000000000000426 1:-0.196251 2:0.134113 
42.976963436326663 1:0.745066 2:-0.987444 
49.000000000000426 1:0.412011 2:-0.731995 
49.000000000000426 1:0.194326 2:-0.743295 
49.000000000000426 1:0.484079 2:0.56875 
49.000000000000426 1:-0.187071 2:0.281924 
49.000000000000426 1:-0.723111 2:-0.100377 
49.000000000000426 1:-0.29396 2:-0.770808 
49.000000000000426 1:-0.456525 2:-0.40546 
49.000000000000426 1:-0.189944 2:0.197843 
49.000000000000426 1:-0.651984 2:0.482527 
49.000000000000426 1:0.142359 2:-0.39112 
49.000000000000426 1:-0.717843 2:0.047219 
49.000000000000426 1:0.747571 2:-0.307063 
49.000000000000426 1:-0.994643 2:-0.620899 
49.000000000000426 1:0.806283 2:0.038148 
49.000000000000426 1:0.681906 2:0.094984 
49.000000000000426 1:0.464773 2:0.286463 
49.000000000000426 1:0.157468 2:-0.873304 
49.000000000000426 1:0.873577 2:0.050637 
49.000000000000426 1:0.195593 2:0.216851 
49.000000000000426 1:0.629674 2:-0.288267 
49.000000000000426 1:-0.256715 2:0.02782 
49.000000000000426 1:0.509661 2:-0.32982 
49.000000000000426 1:-0.220343 2:0.733789 
49.000000000000426 1:0.759589 2:-0.231583 
49.000000000000426 1:-0.224845 2:-0.621632 
49.000000000000426 1:0.568776 2:-0.620552 
49.000000000000426 1:0.232411 2:-0.185019 
49.000000000000426 1:-0.852518 2:0.94909 
49.000000000000426 1:-0.760801 2:-0.045183 
49.000000000000426 1:-0.087745 2:-0.150556 
49.000000000000426 1:0.069241 2:-0.813253 
49.000000000000426 1:-0.777996 2:-0.289634 
49.000000000000426 1:-0.212279 2:0.796925 
49.000000000000426 1:0.134982 2:-0.851727 
49.000000000000426 1:-0.130015 2:-0.74663 
49.000000000000426 1:-0.462442 2:-0.591957 
49.000000000000426 1:0.023299 2:-0.288159 
49.000000000000426 1:-0.580961 2:0.058194 
49.000000000000426 1:-0.37636 2:0.122233 
49.000000000000426 1:0.645361 2:0.574947 
49.000000000000426 1:-0.192983 2:-0.996375 
49.000000000000426 1:-0.602047 2:0.453633 
49.000000000000426 1:0.807771 2:-0.927387 
49.000000000000426 1:0.744227 2:-0.143663 
49.000000000000426 1:-0.187233 2:0.006372 
49.000000000000426 1:0.953651 2:0.803623 
49.000000000000426 1:-0.334904 2:-0.024769 
49.000000000000426 1:-0.765737 2:0.996994 
49.000000000000426 1:-0.598427 2:0.637034 
49.000000000000426 1:0.475287 2:-0.394221 
49.000000000000426 1:-0.297751 2:-0.269095 
49.000000000000426 1:0.87502 2:0.912839 
49.000000000000426 1:0.348656 2:0.615865 
49.000000000000426 1:-0.888162 2:-0.024854 
49.000000000000426 1:0.154653 2:0.16767 
49.000000000000426 1:-0.618103 2:0.225796 
49.000000000000426 1:0.04443 2:-0.291855 
49.000000000000426 1:-0.428965 2:-0.608905 
49.000000000000426 1:-0.48738 2:0.022427 
49.000000000000426 1:-0.652118 2:-0.218963 
49.000000000000426 1:0.490904 2:0.330078 
49.000000000000426 1:0.424475 2:0.744397 
49.000000000000426 1:0.905804 2:-0.912593 
49.000000000000426 1:-0.543239 2:-0.435469 
49.000000000000426 1:0.157319 2:-0.150233 
49.000000000000426 1:0.406924 2:-0.787761 
49.000000000000426 1:-0.431183 2:-0.553336 
49.000000000000426 1:0.670676 2:-0.512803 
14.915861639158882 1:-0.027821 2:0.096491 
49.000000000000426 1:-0.032292 2:-0.780823 
49.000000000000426 1:-0.787702 2:-0.076308 
49.000000000000426 1:-0.555894 2:0.560651 
49.000000000000426 1:0.245003 2:-0.806302 
49.000000000000426 1:0.164877 2:-0.301151 
49.000000000000426 1:-0.028761 2:0.882578 
49.000000000000426 1:-0.486328 2:0.731449 
49.000000000000426 1:0.823415 2:0.331572 
49.000000000000426 1:0.996097 2:-0.943312 
49.000000000000426 1:-0.181457 2:0.777639 
49.000000000000426 1:-0.823635 2:-0.263795 
49.000000000000426 1:0.033902 2:0.263955 
49.000000000000426 1:0.094356 2:0.089101 
49.000000000000426 1:-0.674791 2:-0.504604 
49.000000000000426 1:-0.83895 2:-0.33738 
49.000000000000426 1:0.701037 2:0.096129 
49.000000000000426 1:0.667243 2:0.211087 
49.000000000000426 1:0.531282 2:-0.402373 
49.000000000000426 1:0.666654 2:-0.315041 
49.000000000000426 1:0.046033 2:-0.289304 
49.000000000000426 1:0.745384 2:0.473656 
49.000000000000426 1:-0.740403 2:0.413902 
49.000000000000426 1:0.101605 2:0.164541 
49.000000000000426 1:0.628565 2:0.481768 
49.000000000000426 1:0.898383 2:0.872161 
49.000000000000426 1:-0.593182 2:0.480578 
49.000000000000426 1:0.284465 2:0.255495 
49.000000000000426 1:0.089245 2:0.184146 
49.000000000000426 1:-0.05149 2:0.135396 
49.000000000000426 1:-0.451039 2:0.767394 
49.000000000000426 1:-0.770657 2:-0.310471 
49.000000000000426 1:-0.549765 2:0.606334 
49.000000000000426 1:0.14458 2:0.823758 
49.000000000000426 1:0.505654 2:-0.606823 
49.000000000000426 1:0.155385 2:0.240634 
49.000000000000426 1:0.346598 2:-0.016111 
49.000000000000426 1:0.094997 2:0.710254 
49.000000000000426 1:0.700193 2:-0.428247 
49.000000000000426 1:0.087374 2:-0.228878 
49.000000000000426 1:-0.574746 2:-0.659904 
49.000000000000426 1:-0.657663 2:0.531274 
49.000000000000426 1:-0.681983 2:0.221166 
49.000000000000426 1:-0.789747 2:-0.146912 
49.000000000000426 1:0.255823 2:0.24122 
49.000000000000426 1:-0.767078 2:0.343775 
49.000000000000426 1:-0.207862 2:-0.828996 
49.000000000000426 1:-0.23402 2:0.769718 
49.000000000000426 1:0.07085 2:0.044042 
49.000000000000426 1:-0.262494 2:-0.704941 
49.000000000000426 1:0.34712 2:-0.114398 
49.000000000000426 1:0.488762 2:-0.359666 
49.000000000000426 1:0.563896 2:-0.460076 
49.000000000000426 1:0.471486 2:0.694862 
49.000000000000426 1:0.751087 2:0.988218 
49.000000000000426 1:0.145088 2:-0.02085 
49.000000000000426 1:0.110945 2:0.892483 
49.000000000000426 1:-0.532874 2:0.397374 
49.000000000000426 1:-0.183088 2:0.59327 
49.000000000000426 1:0.341273 2:0.635062 
49.000000000000426 1:-0.807227 2:-0.303625 
49.000000000000426 1:0.269977 2:0.365596 
49.000000000000426 1:-0.82893 2:0.315779 
49.000000000000426 1:0.50253 2:0.692874 
49.000000000000426 1:0.858666 2:0.149671 
49.000000000000426 1:0.852525 2:0.920141 
49.000000000000426 1:0.474585 2:-0.672011 
49.000000000000426 1:-0.041805 2:-0.903694 
49.000000000000426 1:0.5934 2:-0.53684 
49.000000000000426 1:0.085292 2:0.89572 
49.000000000000426 1:-0.120861 2:0.081352 
49.000000000000426 1:-0.63225 2:-0.295465 
49.000000000000426 1:0.542307 2:-0.464348 
49.000000000000426 1:-0.786745 2:-0.405411 
49.000000000000426 1:-0.59356 2:-0.49526 
49.000000000000426 1:0.720388 2:-0.504389 
49.000000000000426 1:-0.22336 2:-0.783833 
49.000000000000426 1:0.639298 2:-0.357991 
49.000000000000426 1:-0.494769 2:-0.500809 
8.9432771220724891 1:-0.824101 2:0.8822 
1.0022843793944651 1:-0.826749 2:0.971134 
49.000000000000426 1:0.381741 2:0.078138 
49.000000000000426 1:0.27945 2:-0.208822 
49.000000000000426 1:-0.102447 2:-0.814663 
49.000000000000426 1:0.360217 2:0.573169 
49.000000000000426 1:-0.338689 2:-0.805116 
49.000000000000426 1:0.308028 2:-0.143888 
49.000000000000426 1:0.069169 2:-0.024342 
49.000000000000426 1:0.587434 2:0.146924 
49.000000000000426 1:-0.835264 2:-0.136508 
16.348904971545725 1:-0.385782 2:0.813513 
49.000000000000426 1:0.84832 2:-0.109829 
49.000000000000426 1:0.84511 2:0.274523 
49.000000000000426 1:0.048947 2:-0.62672 
49.000000000000426 1:0.818273 2:0.014021 
49.000000000000426 1:0.953655 2:0.818434 
49.000000000000426 1:-0.502809 2:0.452529 
49.000000000000426 1:0.030329 2:0.677983 
49.000000000000426 1:0.210925 2:-0.724469 
49.000000000000426 1:-0.202952 2:0.754882 
49.000000000000426 1:-0.147457 2:-0.06451 
49.000000000000426 1:-0.545809 2:0.463411 
49.000000000000426 1:0.721675 2:-0.042107 
49.000000000000426 1:0.831241 2:0.126342 
49.000000000000426 1:-0.515734 2:-0.442928 
49.000000000000426 1:-0.68048 2:-0.017559 
49.000000000000426 1:0.14565 2:0.132326 
49.000000000000426 1:0.7652 2:0.446556 
49.000000000000426 1:0.038026 2:0.6506 
49.000000000000426 1:0.33558 2:0.551437 
49.000000000000426 1:0.608504 2:0.461005 
49.000000000000426 1:0.200325 2:-0.167404 
49.000000000000426 1:0.594592 2:0.653847 
49.000000000000426 1:-0.48963 2:-0.274131 
49.000000000000426 1:-0.0958 2:-0.877205 
49.000000000000426 1:-0.1651 2:-0.576595 
49.000000000000426 1:0.127607 2:-0.201224 
49.000000000000426 1:0.527428 2:0.128527 
49.000000000000426 1:0.482631 2:-0.70378 
49.000000000000426 1:-0.880684 2:0.234947 
49.000000000000426 1:-0.293474 2:-0.687358 
49.000000000000426 1:-0.195293 2:0.84631 
49.000000000000426 1:0.921865 2:0.839205 
49.000000000000426 1:0.039846 2:0.746539 
49.000000000000426 1:0.531191 2:0.218761 
49.000000000000426 1:0.26059 2:0.662033 
49.000000000000426 1:0.689817 2:-0.444843 
49.000000000000426 1:0.12731 2:-0.175672 
49.000000000000426 1:-0.628235 2:0.402212 
49.000000000000426 1:0.070782 2:-0.269987 
49.000000000000426 1:0.752029 2:-0.092379 
49.000000000000426 1:-0.093089 2:0.826997 
49.000000000000426 1:-0.560635 2:0.580386 
49.000000000000426 1:0.586397 2:0.401445 
49.000000000000426 1:-0.633959 2:0.453127 
49.000000000000426 1:-0.909644 2:0.017531 
49.000000000000426 1:0.836231 2:-0.096938 
49.000000000000426 1:0.656206 2:0.45197 
49.000000000000426 1:-0.523278 2:-0.594065 
49.000000000000426 1:-0.480184 2:0.725036 
49.000000000000426 1:0.578645 2:0.487948 
49.000000000000426 1:-0.113962 2:0.120784 
49.000000000000426 1:-0.000664 2:-0.16756 
49.000000000000426 1:-0.874759 2:-0.056602 
49.000000000000426 1:-0.28026 2:-0.685278 
49.000000000000426 1:-0.315379 2:0.480524 
49.000000000000426 1:0.483491 2:-0.442053 
49.000000000000426 1:-0.489597 2:0.199812 
49.000000000000426 1:-0.018877 2:0.747862 
49.000000000000426 1:-0.509963 2:-0.611451 
49.000000000000426 1:-0.490996 2:-0.477855 
19.832497851791391 1:0.471425 2:0.764761 
49.000000000000426 1:-0.858041 2:0.00776 
49.000000000000426 1:0.544863 2:-0.456997 
49.000000000000426 1:0.887217 2:0.008924 
49.000000000000426 1:-0.495151 2:-0.714791 
49.000000000000426 1:-0.347512 2:0.812399 
49.000000000000426 1:0.910225 2:-0.869338 
49.000000000000426 1:-0.050406 2:-0.186478 
49.000000000000426 1:-0.421504 2:0.515831 
49.000000000000426 1:0.86167 2:-0.237215 
49.000000000000426 1:0.255855 2:0.799425 
27.24304736031371 1:-0.885202 2:0.893444 
49.000000000000426 1:0.668786 2:0.472195 
49.000000000000426 1:-0.648657 2:0.504514 
49.000000000000426 1:0.064869 2:-0.076193 
49.000000000000426 1:-0.698253 2:-0.492785 
49.000000000000426 1:-0.284241 2:0.536909 
49.000000000000426 1:0.206685 2:-0.874468 
49.000000000000426 1:-0.873708 2:0.838234 
49.000000000000426 1:0.106321 2:0.892152 
49.000000000000426 1:-0.704539 2:-0.274516 
49.000000000000426 1:0.613112 2:-0.988337 
49.000000000000426 1:0.549844 2:0.587164 
49.000000000000426 1:0.486848 2:0.72776 
49.000000000000426 1:0.70375 2:-0.381717 
49.000000000000426 1:-0.136186 2:-0.085086 
49.000000000000426 1:-0.357261 2:0.033372 
49.000000000000426 1:0.642129 2:-0.574701 
49.000000000000426 1:-0.025622 2:0.814664 
49.000000000000426 1:-0.166885 2:0.76389 
49.000000000000426 1:-0.072113 2:0.147 
49.000000000000426 1:0.112114 2:0.019306 
49.000000000000426 1:0.098796 2:-0.751288 
49.000000000000426 1:-0.227064 2:-0.128974 
49.000000000000426 1:0.368526 2:0.500969 
49.000000000000426 1:0.64015 2:-0.356422 
49.000000000000426 1:0.707046 2:-0.20875 
49.000000000000426 1:-0.13651 2:0.05994 
49.000000000000426 1:-0.271211 2:0.277751 
49.000000000000426 1:0.381022 2:0.778792 
49.000000000000426 1:-0.156819 2:0.112715 
49.000000000000426 1:-0.691537 2:0.007988 
49.000000000000426 1:-0.309613 2:0.807051 
49.000000000000426 1:0.034834 2:-0.888208 
49.000000000000426 1:0.215902 2:-0.742996 
49.000000000000426 1:-0.808642 2:0.943033 
49.000000000000426 1:-0.047992 2:0.614469 
49.000000000000426 1:-0.192681 2:-0.384978 
49.000000000000426 1:0.651597 2:-0.597722 
49.000000000000426 1:-0.17144 2:0.359993 
49.000000000000426 1:-0.122896 2:-0.778905 
49.000000000000426 1:-0.142794 2:0.091392 
49.000000000000426 1:-0.81304 2:-0.361385 
49.000000000000426 1:0.341848 2:-0.827281 
1.2150380322944889 1:0.837306 2:-0.882246 
49.000000000000426 1:-0.925302 2:-0.018072 
49.000000000000426 1:-0.193058 2:0.114547 
49.000000000000426 1:0.430113 2:0.654544 
49.000000000000426 1:0.673379 2:-0.381524 
49.000000000000426 1:0.496585 2:0.720745 
49.000000000000426 1:-0.152265 2:0.769509 
49.000000000000426 1:-0.24108 2:-0.176546 
49.000000000000426 1:0.931158 2:0.884346 
49.000000000000426 1:-0.851321 2:-0.20012 
49.000000000000426 1:-0.323887 2:-0.50107 
49.000000000000426 1:-0.445778 2:-0.532045 
49.000000000000426 1:0.17517 2:-0.223737 
49.000000000000426 1:0.608271 2:0.183926 
49.000000000000426 1:-0.151269 2:0.860533 
49.000000000000426 1:-0.18361 2:-0.842428 
49.000000000000426 1:-0.497306 2:-0.69901 
49.000000000000426 1:0.614579 2:-0.332724 
49.000000000000426 1:0.619893 2:0.217425 
47.75148329859028 1:0.265927 2:0.861934 
49.000000000000426 1:0.793098 2:-0.391368 
49.000000000000426 1:0.771723 2:-0.423331 
49.000000000000426 1:-0.871198 2:-0.162209 
49.000000000000426 1:-0.255643 2:-0.55123 
49.000000000000426 1:0.210584 2:0.710628 
49.000000000000426 1:0.885152 2:-0.114583 
49.000000000000426 1:0.065528 2:-0.352601 
49.000000000000426 1:-0.305391 2:-0.677123 
49.000000000000426 1:-0.225562 2:0.646834 
49.000000000000426 1:-0.207084 2:-0.779917 
49.000000000000426 1:-0.895907 2:0.803739 
49.000000000000426 1:-0.978056 2:-0.627922 
49.000000000000426 1:-0.091125 2:-0.249714 
49.000000000000426 1:0.406889 2:-0.782305 
49.000000000000426 1:-0.661708 2:-0.312503 
49.000000000000426 1:0.501555 2:-0.371354 
49.000000000000426 1:0.354336 2:-0.778805 
49.000000000000426 1:0.744333 2:0.050245 
49.000000000000426 1:0.224214 2:-0.537297 
49.000000000000426 1:0.759146 2:-0.330568 
49.000000000000426 1:0.460339 2:0.500377 
49.000000000000426 1:0.354895 2:0.648874 
49.000000000000426 1:-0.606309 2:-0.612213 
49.000000000000426 1:0.019501 2:-0.121848 
49.000000000000426 1:-0.316294 2:-0.631244 
49.000000000000426 1:-0.878121 2:0.157533 
49.000000000000426 1:0.723476 2:-0.979889 
49.000000000000426 1:-0.986917 2:-0.728637 
49.000000000000426 1:0.7182 2:0.042495 
49.000000000000426 1:-0.069466 2:-0.104846 
49.000000000000426 1:-0.823479 2:0.08636 
49.000000000000426 1:0.165379 2:-0.850449 
49.000000000000426 1:0.225671 2:-0.264493 
49.000000000000426 1:-0.079524 2:0.5537 
49.000000000000426 1:-0.150323 2:-0.411108 
49.000000000000426 1:0.462428 2:0.023436 
49.000000000000426 1:0.785408 2:-0.016546 
49.000000000000426 1:-0.065083 2:-0.897021 
49.000000000000426 1:-0.09124 2:-0.197496 
49.000000000000426 1:0.537662 2:0.04884 
49.000000000000426 1:-0.165479 2:0.078134 
49.000000000000426 1:0.945199 2:0.797809 
49.000000000000426 1:0.357571 2:0.573539 
49.000000000000426 1:-0.637971 2:-0.383741 
49.000000000000426 1:-0.384924 2:-0.057639 
49.000000000000426 1:-0.112247 2:0.146394 
49.000000000000426 1:-0.02587 2:-0.13947 
49.000000000000426 1:-0.734902 2:0.301184 
49.000000000000426 1:0.788519 2:-0.136816 
49.000000000000426 1:0.575161 2:0.52544 
49.000000000000426 1:0.695582 2:0.476485 
49.000000000000426 1:0.829267 2:0.265941 
49.000000000000426 1:0.49811 2:-0.600123 
49.000000000000426 1:-0.739981 2:-0.446706 
49.000000000000426 1:-0.097268 2:0.799711 
49.000000000000426 1:-0.321041 2:0.021214 
49.000000000000426 1:-0.402879 2:-0.009141 
49.000000000000426 1:0.078059 2:0.760268 
49.000000000000426 1:0.692389 2:0.107817 
49.000000000000426 1:-0.661193 2:-0.339068 
49.000000000000426 1:0.189394 2:0.068729 
49.000000000000426 1:-0.546878 2:-0.096143 
49.000000000000426 1:-0.772268 2:-0.366467 
49.000000000000426 1:0.826358 2:-0.171947 
49.000000000000426 1:0.642013 2:0.590703 
49.000000000000426 1:-0.568339 2:0.080406 
49.000000000000426 1:-0.741255 2:0.427412 
49.000000000000426 1:0.769606 2:0.236411 
49.000000000000426 1:-0.028662 2:-0.895323 
49.000000000000426 1:0.544417 2:-0.31461 
49.000000000000426 1:-0.438454 2:0.650697 
49.000000000000426 1:0.363048 2:0.106138 
49.000000000000426 1:0.170667 2:-0.826921 
49.000000000000426 1:0.736957 2:-0.068078 
49.000000000000426 1:0.462796 2:-0.750309 
49.000000000000426 1:-0.268575 2:0.788142 
49.000000000000426 1:0.90866 2:0.914211 
49.000000000000426 1:0.623907 2:-0.563416 
49.000000000000426 1:0.42147 2:0.397477 
49.000000000000426 1:0.132312 2:-0.006351 
49.000000000000426 1:0.06549 2:-0.84798 
49.000000000000426 1:-0.784918 2:0.029624 
49.000000000000426 1:-0.405803 2:0.680254 
49.000000000000426 1:-0.339776 2:-0.795884 
49.000000000000426 1:-0.076821 2:-0.73654 
49.000000000000426 1:0.820993 2:0.19372 
49.000000000000426 1:0.571914 2:-0.258569 
49.000000000000426 1:0.625242 2:0.302478 
49.000000000000426 1:-0.625803 2:-0.599315 
49.000000000000426 1:-0.881147 2:-0.150199 
49.000000000000426 1:-0.099682 2:-0.248494 
49.000000000000426 1:-0.52671 2:-0.37488 
49.000000000000426 1:-0.240632 2:0.753265 
49.000000000000426 1:-0.062503 2:0.831574 
49.000000000000426 1:-0.043422 2:0.134211 
49.000000000000426 1:0.702297 2:0.288463 
49.000000000000426 1:-0.767926 2:-0.059581 
49.000000000000426 1:-0.697517 2:0.336868 
49.000000000000426 1:-0.683163 2:-0.515268 
49.000000000000426 1:0.634108 2:-0.250447 
49.000000000000426 1:-0.244861 2:0.019849 
49.000000000000426 1:-0.484703 2:0.448562 
49.000000000000426 1:-0.093413 2:0.236503 
49.000000000000426 1:0.419808 2:-0.566975 
49.000000000000426 1:0.06622 2:0.036046 
49.000000000000426 1:0.203441 2:0.231367 
49.000000000000426 1:-0.151624 2:-0.706555 
49.000000000000426 1:-0.42163 2:0.471887 
49.000000000000426 1:-0.226051 2:-0.027792 
49.000000000000426 1:-0.447333 2:0.42644 
49.000000000000426 1:-0.209225 2:0.210869 
49.000000000000426 1:-0.185761 2:-0.799151 
49.000000000000426 1:0.869454 2:0.078994 
49.000000000000426 1:0.284653 2:-0.759216 
49.000000000000426 1:-0.111817 2:0.059196 
49.000000000000426 1:0.667318 2:-0.077824 
49.000000000000426 1:-0.443771 2:0.719431 
49.000000000000426 1:0.683881 2:-0.278298 
49.000000000000426 1:-0.501451 2:0.501107 
49.000000000000426 1:0.023585 2:0.190735 
49.000000000000426 1:-0.083454 2:-0.37533 
49.000000000000426 1:0.382248 2:-0.37317 
49.000000000000426 1:0.154869 2:0.193772 
49.000000000000426 1:0.033892 2:0.72328 
49.000000000000426 1:-0.624837 2:0.520969 
49.000000000000426 1:-0.561912 2:-0.58783 
49.000000000000426 1:0.996165 2:-0.531208 
49.000000000000426 1:-0.832109 2:0.28414 
49.000000000000426 1:0.525348 2:-0.565983 
49.000000000000426 1:0.083974 2:-0.751464 
49.000000000000426 1:-0.65959 2:0.262339 
49.000000000000426 1:0.067127 2:0.035133 
49.000000000000426 1:0.211548 2:0.152425 
49.000000000000426 1:0.775059 2:0.177287 
49.000000000000426 1:0.636292 2:0.003486 
14.178028901825581 1:0.659252 2:0.989101 
49.000000000000426 1:-0.518126 2:-0.679341 
49.000000000000426 1:-0.340496 2:-0.571703 
49.000000000000426 1:0.089047 2:-0.791588 
49.000000000000426 1:-0.159086 2:-0.024104 
49.000000000000426 1:-0.656755 2:0.460763 
49.000000000000426 1:-0.388383 2:-0.710572 
49.000000000000426 1:0.345911 2:-0.122332 
49.000000000000426 1:0.644859 2:0.413478 
49.000000000000426 1:-0.039078 2:-0.126889 
49.000000000000426 1:0.54057 2:0.494496 
49.000000000000426 1:-0.126407 2:0.128147 
49.000000000000426 1:-0.979583 2:0.661524 
49.000000000000426 1:-0.453148 2:-0.345994 
49.000000000000426 1:-0.049866 2:0.858968 
49.000000000000426 1:0.508649 2:-0.379713 
49.000000000000426 1:-0.18424 2:0.155022 
49.000000000000426 1:-0.610811 2:0.470477 
49.000000000000426 1:-0.66787 2:0.537554 
49.000000000000426 1:0.337763 2:0.77849 
49.000000000000426 1:-0.661426 2:0.067264 
49.000000000000426 1:-0.689699 2:0.519249 
49.000000000000426 1:0.674693 2:0.101723 
49.000000000000426 1:-0.549188 2:-0.516424 
49.000000000000426 1:0.693723 2:-0.266706 
49.000000000000426 1:-0.013057 2:-0.326041 
49.000000000000426 1:-0.8254 2:0.288794 
49.000000000000426 1:0.287893 2:0.618616 
49.000000000000426 1:0.672438 2:-0.218894 
49.000000000000426 1:0.760998 2:0.418871 
49.000000000000426 1:0.456938 2:0.531554 
49.000000000000426 1:-0.781322 2:-0.055131 
45.270727609352562 1:-0.168299 2:0.872502 
49.000000000000426 1:-0.220838 2:0.854102 
49.000000000000426 1:0.585243 2:-0.192297 
49.000000000000426 1:0.648106 2:0.560642 
49.000000000000426 1:-0.853871 2:-0.249362 
49.000000000000426 1:0.473305 2:-0.78221 
49.000000000000426 1:0.585129 2:-0.016665 
49.000000000000426 1:0.767023 2:-0.074643 
49.000000000000426 1:-0.461549 2:0.724435 
49.000000000000426 1:-0.308232 2:-0.78967 
49.000000000000426 1:-0.281008 2:0.073366 
49.000000000000426 1:0.773166 2:-0.23617 
49.000000000000426 1:0.433732 2:-0.770046 
5.296017530055094 1:-0.752886 2:-0.470607 
49.000000000000426 1:-0.889488 2:-0.916312 
49.000000000000426 1:0.071592 2:-0.870385 
49.000000000000426 1:0.098536 2:0.790622 
49.000000000000426 1:-0.680616 2:-0.443115 
49.000000000000426 1:-0.551641 2:0.416885 
49.000000000000426 1:-0.167329 2:0.110764 
49.000000000000426 1:-0.887763 2:-0.862794 
49.000000000000426 1:0.082345 2:0.230914 
49.000000000000426 1:0.8284 2:-0.21584 
49.000000000000426 1:-0.826906 2:0.290768 
49.000000000000426 1:-0.602779 2:0.052864 
49.000000000000426 1:-0.369679 2:0.672283 
49.000000000000426 1:-0.087361 2:-0.304674 
49.000000000000426 1:0.772159 2:-0.933176 
49.000000000000426 1:0.671544 2:0.478109 
49.000000000000426 1:0.72989 2:0.996746 
49.000000000000426 1:-0.743871 2:0.320671 
49.000000000000426 1:-0.213261 2:-0.279779 
49.000000000000426 1:-0.612242 2:-0.636428 
49.000000000000426 1:0.702087 2:-0.28224 
49.000000000000426 1:-0.051771 2:-0.355863 
49.000000000000426 1:-0.493806 2:0.668436 
49.000000000000426 1:-0.314928 2:0.719888 
49.000000000000426 1:0.140407 2:-0.707901 
49.000000000000426 1:0.876095 2:-0.039821 
49.000000000000426 1:-0.789684 2:0.390937 
49.000000000000426 1:-0.382886 2:-0.789532 
49.000000000000426 1:0.170677 2:0.659167 
49.000000000000426 1:-0.403401 2:0.577397 
49.000000000000426 1:-0.363893 2:0.563708 
49.000000000000426 1:0.154972 2:0.598789 
49.000000000000426 1:0.032132 2:-0.366634 
49.000000000000426 1:-0.571601 2:0.630987 
49.000000000000426 1:-0.820758 2:0.023986 
49.000000000000426 1:-0.870637 2:-0.07967 
49.000000000000426 1:0.050708 2:-0.718962 
49.000000000000426 1:-0.639763 2:0.531595 
49.000000000000426 1:0.718583 2:-0.364449 
49.000000000000426 1:0.180762 2:-0.779273 
49.000000000000426 1:0.439588 2:-0.784341 
49.000000000000426 1:-0.216937 2:0.84812 
49.000000000000426 1:0.444446 2:-0.55449 
49.000000000000426 1:-0.422081 2:-0.360014 
49.000000000000426 1:0.491895 2:-0.599139 
49.000000000000426 1:-0.317786 2:-0.742696 
49.000000000000426 1:-0.131655 2:-0.242321 
49.000000000000426 1:0.332259 2:0.746373 
37.641241414786016 1:0.998094 2:-0.72843 
49.000000000000426 1:-0.030955 2:-0.845404 
49.000000000000426 1:-0.706221 2:-0.481547 
49.000000000000426 1:-0.37324 2:-0.637329 
49.000000000000426 1:-0.422621 2:-0.661228 
49.000000000000426 1:-0.435734 2:0.579277 
49.000000000000426 1:-0.791569 2:-0.358777 
49.000000000000426 1:0.241554 2:-0.576103 
49.000000000000426 1:0.439903 2:0.701359 
49.000000000000426 1:-0.66604 2:0.255136 
49.000000000000426 1:-0.880082 2:0.052139 
49.000000000000426 1:0.7022 2:-0.503091 
49.000000000000426 1:-0.454753 2:-0.712111 
49.000000000000426 1:0.090396 2:0.864035 
49.000000000000426 1:-0.351021 2:0.640489 
49.000000000000426 1:0.033855 2:-0.380039 
49.000000000000426 1:0.220589 2:-0.112961 
49.000000000000426 1:0.466935 2:0.710406 
49.000000000000426 1:0.296566 2:0.630139 
49.000000000000426 1:-0.578252 2:-0.594696 
49.000000000000426 1:-0.524464 2:0.472812 
49.000000000000426 1:-0.223471 2:0.675954 
49.000000000000426 1:0.284032 2:-0.070895 
49.000000000000426 1:-0.036233 2:-0.387736 
49.000000000000426 1:0.765739 2:-0.090816 
49.000000000000426 1:0.893646 2:-0.874261 
49.000000000000426 1:0.453223 2:-0.402964 
49.000000000000426 1:0.816084 2:-0.152981 
49.000000000000426 1:-0.179516 2:0.204285 
49.000000000000426 1:-0.11408 2:-0.839927 
49.000000000000426 1:-0.092724 2:0.236549 
49.000000000000426 1:0.564017 2:-0.265042 
49.000000000000426 1:0.753623 2:-0.095984 
49.000000000000426 1:-0.372604 2:-0.665976 
49.000000000000426 1:-0.332755 2:0.775084 
49.000000000000426 1:-0.478664 2:-0.623489 
49.000000000000426 1:-0.508742 2:0.568788 
49.000000000000426 1:0.568674 2:0.506732 
49.000000000000426 1:-0.244528 2:-0.805882 
49.000000000000426 1:-0.78842 2:-0.364258 
49.000000000000426 1:0.52387 2:0.597448 
49.000000000000426 1:-0.262389 2:-0.656312 
49.000000000000426 1:0.236053 2:-0.157087 
49.000000000000426 1:0.173432 2:-0.152489 
49.000000000000426 1:0.192947 2:-0.796922 
49.000000000000426 1:0.582029 2:-0.499442 
42.498082328103834 1:0.019088 2:0.904826 
49.000000000000426 1:-0.154376 2:0.681939 
49.000000000000426 1:0.66105 2:0.51288 
49.000000000000426 1:0.028747 2:-0.804472 
49.000000000000426 1:0.831577 2:-0.151189 
49.000000000000426 1:-0.220138 2:-0.174449 
49.000000000000426 1:0.554531 2:-0.628971 
49.000000000000426 1:0.136309 2:0.045887 
49.000000000000426 1:-0.032023 2:0.769761 
49.000000000000426 1:-0.471811 2:0.470655 
49.000000000000426 1:0.329638 2:0.770522 
49.000000000000426 1:-0.287179 2:-0.667963 
49.000000000000426 1:0.713027 2:0.136153 
49.000000000000426 1:0.803373 2:-0.218345 
49.000000000000426 1:0.627414 2:-0.154718 
49.000000000000426 1:-0.16746 2:-0.772278 
49.000000000000426 1:-0.724784 2:0.297203 
49.000000000000426 1:0.180572 2:-0.218617 
49.000000000000426 1:0.361773 2:0.498503 
49.000000000000426 1:0.441007 2:-0.579056 
49.000000000000426 1:-0.134586 2:0.315717 
49.000000000000426 1:0.437365 2:0.488004 
49.000000000000426 1:-0.784146 2:-0.253736 
49.000000000000426 1:-0.424352 2:-0.735482 
49.000000000000426 1:-0.251397 2:0.225958 
49.000000000000426 1:0.478842 2:0.600149 
49.000000000000426 1:-0.874982 2:0.232363 
49.000000000000426 1:-0.384066 2:0.705326 
49.000000000000426 1:-0.300249 2:0.647165 
49.000000000000426 1:0.689566 2:0.488595 
49.000000000000426 1:-0.912145 2:-0.126625 
49.000000000000426 1:0.336694 2:-0.634392 
49.000000000000426 1:-0.69827 2:0.997247 
49.000000000000426 1:0.140579 2:-0.232797 
49.000000000000426 1:-0.713442 2:0.119424 
49.000000000000426 1:0.620294 2:0.074204 
49.000000000000426 1:0.341203 2:-0.649115 
49.000000000000426 1:-0.785254 2:0.123356 
49.000000000000426 1:0.004465 2:-0.123885 
49.000000000000426 1:0.24536 2:-0.735226 
49.000000000000426 1:-0.487344 2:0.995904 
49.000000000000426 1:-0.553388 2:-0.649531 
49.000000000000426 1:-0.154537 2:-0.837879 
49.000000000000426 1:-0.110238 2:0.20613 
49.000000000000426 1:0.561353 2:-0.745925 
49.000000000000426 1:-0.337931 2:0.038159 
49.000000000000426 1:-0.663028 2:-0.382741 
49.000000000000426 1:0.790293 2:0.40287 
18.544421613617441 1:0.98751 2:0.475561 
49.000000000000426 1:0.731142 2:-0.147326 
49.000000000000426 1:0.567125 2:-0.440225 
49.000000000000426 1:0.674877 2:0.001594 
49.000000000000426 1:0.417122 2:-0.671371 
49.000000000000426 1:0.873486 2:0.933333 
49.000000000000426 1:0.02254 2:0.815889 
49.000000000000426 1:-0.923147 2:-0.014033 
49.000000000000426 1:-0.205714 2:0.089755 
49.000000000000426 1:-0.398688 2:-0.443442 
49.000000000000426 1:-0.772833 2:0.1646 
49.000000000000426 1:-0.709653 2:-0.526327 
49.000000000000426 1:-0.58252 2:-0.993364 
49.000000000000426 1:0.351143 2:0.068927 
49.000000000000426 1:0.71103 2:0.154022 
49.000000000000426 1:-0.707126 2:-0.48888 
49.000000000000426 1:-0.707785 2:0.067949 
49.000000000000426 1:-0.784161 2:-0.347681 
49.000000000000426 1:-0.477631 2:-0.73643 
49.000000000000426 1:0.221653 2:-0.833504 
49.000000000000426 1:-0.638927 2:0.552433 
49.000000000000426 1:0.511287 2:0.647242 
49.000000000000426 1:-0.717348 2:-0.507542 
49.000000000000426 1:0.608986 2:0.549458 
49.000000000000426 1:-0.197036 2:0.802383 
49.000000000000426 1:0.044873 2:0.754703 
49.000000000000426 1:0.839787 2:0.186979 
49.000000000000426 1:0.950897 2:0.797574 
49.000000000000426 1:-0.292625 2:-0.263509 
49.000000000000426 1:-0.341774 2:0.747224 
49.000000000000426 1:-0.108532 2:-0.832524 
49.000000000000426 1:0.670198 2:-0.50954 
49.000000000000426 1:-0.600543 2:-0.172923 
49.000000000000426 1:-0.271252 2:-0.64421 
49.000000000000426 1:0.289426 2:-0.105116 
49.000000000000426 1:0.069122 2:0.026986 
49.000000000000426 1:0.182057 2:-0.830735 
49.000000000000426 1:0.71253 2:0.470177 
49.000000000000426 1:-0.385667 2:-0.257372 
49.000000000000426 1:0.244553 2:0.690282 
49.000000000000426 1:0.876582 2:-0.086369 
49.000000000000426 1:0.107124 2:0.008199 
49.000000000000426 1:0.309022 2:-0.185566 
49.000000000000426 1:-0.309031 2:0.60379 
49.000000000000426 1:-0.067661 2:-0.203425 
49.000000000000426 1:0.294612 2:-0.556854 
49.000000000000426 1:-0.651007 2:-0.488132 
49.000000000000426 1:-0.718194 2:0.020524 
49.000000000000426 1:-0.721047 2:-0.345558 
49.000000000000426 1:-0.562668 2:0.694731 
49.000000000000426 1:0.807621 2:0.333086 
49.000000000000426 1:0.723727 2:0.317212 
49.000000000000426 1:0.077275 2:0.014685 
49.000000000000426 1:-0.795916 2:0.186857 
49.000000000000426 1:-0.993332 2:0.664609 
49.000000000000426 1:0.756029 2:0.254138 
49.000000000000426 1:-0.014083 2:-0.325546 
49.000000000000426 1:0.470068 2:-0.716473 
49.000000000000426 1:0.942155 2:0.890522 
49.000000000000426 1:-0.849077 2:-0.944132 
49.000000000000426 1:0.189703 2:0.037508 
49.000000000000426 1:0.716757 2:0.036926 
49.000000000000426 1:0.044769 2:0.350108 
49.000000000000426 1:0.092611 2:0.688108 
49.000000000000426 1:-0.579782 2:-0.639504 
49.000000000000426 1:-0.885285 2:0.118801 
49.000000000000426 1:0.990722 2:-0.589543 
49.000000000000426 1:-0.572496 2:0.405064 
49.000000000000426 1:-0.235657 2:-0.672532 
49.000000000000426 1:0.151414 2:-0.817069 
49.000000000000426 1:0.159367 2:-0.292361 
49.000000000000426 1:-0.073084 2:0.347642 
49.000000000000426 1:-0.817008 2:-0.107052 
49.000000000000426 1:-0.67178 2:-0.020426 
49.000000000000426 1:0.555229 2:-0.647345 
49.000000000000426 1:-0.005439 2:-0.277284 
49.000000000000426 1:0.056633 2:0.093103 
49.000000000000426 1:-0.741472 2:-0.110815 
49.000000000000426 1:-0.612577 2:-0.498772 
49.000000000000426 1:-0.645539 2:-0.364892 
49.000000000000426 1:0.382726 2:-0.642308 
49.000000000000426 1:0.874049 2:0.958304 
49.000000000000426 1:-0.890601 2:0.180233 
49.000000000000426 1:0.129487 2:-0.822453 
49.000000000000426 1:-0.732705 2:0.362395 
49.000000000000426 1:-0.610949 2:-0.06272 
49.000000000000426 1:-0.635312 2:-0.517017 
49.000000000000426 1:-0.762776 2:0.032999 
49.000000000000426 1:-0.408198 2:-0.570317 
49.000000000000426 1:0.115079 2:0.859107 
49.000000000000426 1:-0.16809 2:-0.139135 
49.000000000000426 1:0.216351 2:0.847163 
49.000000000000426 1:0.760886 2:-0.136813 
49.000000000000426 1:-0.377162 2:0.549033 
49.000000000000426 1:0.804991 2:-0.289177 
49.000000000000426 1:-0.287513 2:0.768181 
28.410692588373632 1:-0.312914 2:-0.826589 
49.000000000000426 1:-0.325142 2:-0.720287 
49.000000000000426 1:0.01986 2:0.12316 
49.000000000000426 1:0.199277 2:-0.642863 
49.000000000000426 1:0.411025 2:0.787303 
49.000000000000426 1:-0.326009 2:-0.334673 
49.000000000000426 1:-0.426496 2:0.627691 
49.000000000000426 1:-0.171694 2:-0.164204 
49.000000000000426 1:-0.329909 2:-0.028851 
49.000000000000426 1:0.262114 2:0.663358 
49.000000000000426 1:0.788019 2:0.44705 
49.000000000000426 1:0.441525 2:-0.712988 
49.000000000000426 1:0.11025 2:0.894997 
49.000000000000426 1:0.66637 2:0.605933 
49.000000000000426 1:-0.592531 2:-0.638259 
25.273087560742713 1:0.984108 2:-0.653593 
49.000000000000426 1:0.001881 2:0.45046 
49.000000000000426 1:0.082616 2:-0.127544 
49.000000000000426 1:-0.04924 2:0.271167 
49.000000000000426 1:-0.662325 2:0.545125 
49.000000000000426 1:-0.616183 2:0.454165 
49.000000000000426 1:0.330793 2:-0.800879 
49.000000000000426 1:-0.24344 2:-0.653974 
49.000000000000426 1:-0.207997 2:0.039964 
49.000000000000426 1:0.379868 2:-0.789617 
49.000000000000426 1:0.334961 2:0.644385 
49.000000000000426 1:0.080524 2:-0.05902 
49.000000000000426 1:-0.12199 2:-0.209376 
49.000000000000426 1:0.736438 2:-0.168171 
49.000000000000426 1:-0.215623 2:0.168167 
49.000000000000426 1:-0.592788 2:0.041414 
49.000000000000426 1:0.736222 2:-0.045314 
49.000000000000426 1:0.306151 2:0.638527 
49.000000000000426 1:-0.6117 2:-0.334821 
49.000000000000426 1:0.838785 2:0.162874 
49.000000000000426 1:0.516384 2:0.70124 
49.000000000000426 1:0.600873 2:-0.627895 
49.000000000000426 1:-0.669162 2:0.236423 
49.000000000000426 1:-0.984001 2:-0.750808 
49.000000000000426 1:0.363019 2:0.794938 
49.000000000000426 1:0.749154 2:0.431991 
49.000000000000426 1:0.881268 2:-0.050405 
49.000000000000426 1:0.698243 2:0.47926 
49.000000000000426 1:-0.333324 2:0.638143 
49.000000000000426 1:0.665536 2:0.459708 
49.000000000000426 1:0.520636 2:0.561392 
49.000000000000426 1:-0.630125 2:0.386303 
49.000000000000426 1:-0.25123 2:-0.16475 
49.000000000000426 1:-0.071101 2:0.142769 
49.000000000000426 1:-0.742714 2:-0.098728 
49.000000000000426 1:-0.62525 2:0.169883 
49.000000000000426 1:-0.000231 2:0.777218 
49.000000000000426 1:-0.641948 2:-0.365823 
49.000000000000426 1:0.837953 2:0.951347 
49.000000000000426 1:-0.128867 2:-0.132194 
49.000000000000426 1:-0.178589 2:0.027617 
49.000000000000426 1:0.524451 2:0.621447 
49.000000000000426 1:0.62469 2:-0.203161 
49.000000000000426 1:-0.433193 2:0.353772 
49.000000000000426 1:-0.270105 2:-0.033706 
49.000000000000426 1:0.651425 2:-0.587423 
49.000000000000426 1:0.556323 2:-0.413102 
49.000000000000426 1:0.022834 2:0.244118 
49.000000000000426 1:-0.717544 2:-0.09095 
49.000000000000426 1:-0.12717 2:0.271888 
49.000000000000426 1:-0.038689 2:-0.107451 
49.000000000000426 1:-0.673263 2:0.22324 
49.000000000000426 1:0.632235 2:-0.019346 
49.000000000000426 1:-0.426755 2:0.792236 
49.000000000000426 1:0.7465 2:-0.945244 
49.000000000000426 1:-0.20128 2:-0.840361 
49.000000000000426 1:0.191452 2:-0.12845 
49.000000000000426 1:-0.652578 2:0.443928 
49.000000000000426 1:0.246946 2:-0.104812 
49.000000000000426 1:0.628199 2:0.493661 
49.000000000000426 1:-0.62139 2:0.506158 
49.000000000000426 1:0.105223 2:-0.715287 
49.000000000000426 1:-0.745196 2:0.204255 
49.000000000000426 1:0.485798 2:0.388356 
29.834473718572415 1:-0.989042 2:0.573063 
49.000000000000426 1:-0.343113 2:0.600698 
49.000000000000426 1:-0.2957 2:-0.549218 
49.000000000000426 1:0.078813 2:0.008758 
49.000000000000426 1:0.085715 2:-0.672772 
49.000000000000426 1:0.823471 2:0.223825 
49.000000000000426 1:-0.63808 2:0.998308 
49.000000000000426 1:-0.129915 2:-0.164421 
49.000000000000426 1:-0.661796 2:-0.070264 
49.000000000000426 1:0.480063 2:-0.39475 
49.000000000000426 1:0.772766 2:-0.395894 
49.000000000000426 1:-0.831995 2:-0.027927 
49.000000000000426 1:-0.693699 2:-0.327693 
49.000000000000426 1:0.724685 2:-0.408456 
49.000000000000426 1:-0.612364 2:0.029764 
49.000000000000426 1:-0.710094 2:0.300391 
49.000000000000426 1:-0.842606 2:-0.086714 
49.000000000000426 1:-0.886345 2:-0.15358 
49.000000000000426 1:0.033884 2:0.176771 
49.000000000000426 1:-0.166226 2:-0.311839 
49.000000000000426 1:0.516496 2:0.546695 
49.000000000000426 1:-0.265733 2:-0.715603 
49.000000000000426 1:0.251439 2:0.127156 
49.000000000000426 1:0.310796 2:-0.47026 
49.000000000000426 1:0.854643 2:-0.228989 
49.000000000000426 1:0.465929 2:-0.663 
49.000000000000426 1:0.366334 2:-0.536042 
49.000000000000426 1:0.562398 2:-0.577179 
49.000000000000426 1:-0.849659 2:0.856258 
49.000000000000426 1:-0.514228 2:-0.459226 
49.000000000000426 1:-0.547864 2:-0.512679 
49.000000000000426 1:-0.506091 2:0.632819 
49.000000000000426 1:0.16845 2:-0.255572 
49.000000000000426 1:-0.544472 2:-0.623281 
49.000000000000426 1:0.490527 2:0.682438 
49.000000000000426 1:0.180767 2:-0.811112 
49.000000000000426 1:0.42111 2:-0.093155 
49.000000000000426 1:0.289518 2:-0.222595 
49.000000000000426 1:-0.426559 2:0.571994 
49.000000000000426 1:0.864707 2:0.899763 
49.000000000000426 1:-0.668716 2:0.547221 
49.000000000000426 1:0.757655 2:-0.063471 
49.000000000000426 1:0.197574 2:0.129714 
49.000000000000426 1:0.295943 2:-0.726669 
49.000000000000426 1:-0.19462 2:0.699764 
49.000000000000426 1:-0.271538 2:-0.150633 
49.000000000000426 1:0.771431 2:0.372175 
49.000000000000426 1:0.581226 2:-0.517897 
49.000000000000426 1:0.81639 2:-0.1765 
49.000000000000426 1:0.182485 2:0.741615 
49.000000000000426 1:0.198731 2:-0.816009 
49.000000000000426 1:0.009415 2:0.765093 
49.000000000000426 1:-0.209116 2:0.267784 
49.000000000000426 1:0.172326 2:0.098897 
49.000000000000426 1:0.36286 2:0.781668 
49.000000000000426 1:0.116931 2:-0.131299 
49.000000000000426 1:0.500365 2:0.46946 
49.000000000000426 1:-0.685361 2:0.117692 
49.000000000000426 1:0.002472 2:0.602963 
49.000000000000426 1:-0.840127 2:-0.200387 
49.000000000000426 1:0.276103 2:-0.69672 
49.000000000000426 1:0.336594 2:0.601726 
49.000000000000426 1:0.430158 2:0.468166 
49.000000000000426 1:-0.893155 2:-0.075186 
49.000000000000426 1:-0.664028 2:-0.997604 
49.000000000000426 1:-0.528484 2:-0.489155 
49.000000000000426 1:0.150499 2:0.204342 
49.000000000000426 1:0.029157 2:-0.906149 
49.000000000000426 1:-0.778745 2:-0.035815 
49.000000000000426 1:0.151599 2:0.316961 
49.000000000000426 1:-0.653518 2:0.399159 
49.000000000000426 1:-0.093504 2:0.877441 
49.000000000000426 1:-0.07982 2:-0.778997 
49.000000000000426 1:-0.080433 2:0.368754 
49.000000000000426 1:0.372167 2:-0.630145 
49.000000000000426 1:-0.09598 2:-0.175076 
49.000000000000426 1:-0.867753 2:0.191394 
49.000000000000426 1:-0.006001 2:0.22053 
49.000000000000426 1:-0.135589 2:0.745932 
49.000000000000426 1:0.016036 2:-0.216075 
49.000000000000426 1:-0.776322 2:0.348601 
49.000000000000426 1:-0.290611 2:-0.735981 
49.000000000000426 1:-0.311271 2:0.203871 
49.000000000000426 1:0.852193 2:-0.214352 
18.538261336460504 1:-0.508213 2:0.747197 
6.4995517056788605 1:-0.933752 2:-0.813083 
49.000000000000426 1:-0.263151 2:0.280578 
49.000000000000426 1:-0.338654 2:-0.769939 
49.000000000000426 1:-0.031083 2:-0.802719 
49.000000000000426 1:0.480477 2:-0.757936 
49.000000000000426 1:0.849892 2:-0.154148 
49.000000000000426 1:-0.543272 2:-0.46509 
49.000000000000426 1:-0.099614 2:0.379897 
49.000000000000426 1:-0.825238 2:0.127783 
49.000000000000426 1:-0.75428 2:-0.017812 
49.000000000000426 1:0.3015 2:0.821459 
49.000000000000426 1:-0.522685 2:0.649238 
49.000000000000426 1:0.168971 2:-0.85163 
49.000000000000426 1:-0.832742 2:-0.169961 
49.000000000000426 1:-0.169272 2:-0.762401 
49.000000000000426 1:0.422546 2:-0.64661 
49.000000000000426 1:-0.208314 2:0.0146 
49.000000000000426 1:0.31892 2:0.506216 
49.000000000000426 1:-0.605927 2:-0.597702 
49.000000000000426 1:0.591156 2:0.202495 
49.000000000000426 1:-0.499708 2:0.65518 
49.000000000000426 1:0.407047 2:0.522469 
49.000000000000426 1:-0.155452 2:-0.005226 
49.000000000000426 1:-0.017139 2:0.790008 
49.000000000000426 1:-0.031136 2:-0.729693 
49.000000000000426 1:-0.007876 2:-0.318666 
49.000000000000426 1:-0.698831 2:-0.138384 
49.000000000000426 1:0.856262 2:-0.258556 
49.000000000000426 1:-0.444826 2:-0.100059 
49.000000000000426 1:-0.558312 2:-0.252572 
49.000000000000426 1:0.079939 2:-0.082259 
49.000000000000426 1:0.43776 2:-0.711921 
49.000000000000426 1:0.213794 2:-0.31286 
49.000000000000426 1:0.495016 2:0.498278 
49.000000000000426 1:0.753477 2:0.456934 
49.000000000000426 1:0.956258 2:0.755924 
49.000000000000426 1:-0.658057 2:-0.416811 
49.000000000000426 1:-0.820483 2:-0.271902 
49.000000000000426 1:0.620646 2:-0.271408 
49.000000000000426 1:0.796981 2:-0.341432 
49.000000000000426 1:0.02751 2:-0.904095 
49.000000000000426 1:-0.709361 2:-0.359127 
49.000000000000426 1:-0.051511 2:0.147587 
49.000000000000426 1:-0.075613 2:-0.264916 
49.000000000000426 1:-0.921334 2:0.788551 
49.000000000000426 1:0.954373 2:0.844628 
49.000000000000426 1:0.802631 2:-0.326076 
49.000000000000426 1:0.010574 2:-0.666537 
49.000000000000426 1:-0.431108 2:0.750931 
49.000000000000426 1:0.462755 2:-0.762295 
49.000000000000426 1:-0.641477 2:-0.511385 
49.000000000000426 1:-0.67495 2:0.284323 
49.000000000000426 1:-0.526452 2:-0.664768 
49.000000000000426 1:0.299228 2:0.086989 
49.000000000000426 1:-0.395517 2:0.741152 
49.000000000000426 1:0.858371 2:0.039268 
49.000000000000426 1:0.893705 2:0.942835 
49.000000000000426 1:-0.974438 2:-0.694672 
49.000000000000426 1:-0.18319 2:0.053812 
49.000000000000426 1:-0.831848 2:-0.141643 
32.10954290532586 1:0.7818 2:-0.916579 
49.000000000000426 1:0.078237 2:0.025458 
49.000000000000426 1:0.853584 2:0.180799 
49.000000000000426 1:-0.736554 2:0.444381 
49.000000000000426 1:0.579208 2:-0.724723 
49.000000000000426 1:0.848695 2:0.0772 
49.000000000000426 1:-0.475958 2:-0.43809 
49.000000000000426 1:-0.00854 2:-0.215343 
49.000000000000426 1:-0.265841 2:-0.559352 
49.000000000000426 1:0.779358 2:0.331676 
49.000000000000426 1:-0.742745 2:-0.453071 
49.000000000000426 1:0.390685 2:0.590662 
49.000000000000426 1:-0.125027 2:-0.191862 
49.000000000000426 1:0.624906 2:-0.600487 
49.000000000000426 1:0.08685 2:-0.243368 
49.000000000000426 1:-0.667864 2:0.510626 
49.000000000000426 1:-0.209732 2:0.38167 
49.000000000000426 1:0.018805 2:0.319028 
49.000000000000426 1:0.335343 2:0.528284 
49.000000000000426 1:-0.812852 2:0.042085 
49.000000000000426 1:-0.889193 2:-0.896171 
49.000000000000426 1:0.182376 2:-0.727462 
49.000000000000426 1:0.370108 2:0.500348 
49.000000000000426 1:0.630407 2:-0.982951 
49.000000000000426 1:-0.192971 2:-0.208556 
49.000000000000426 1:0.171704 2:-0.232001 
49.000000000000426 1:0.213845 2:-0.675202 
49.000000000000426 1:0.718122 2:-0.354872 
49.000000000000426 1:-0.925013 2:0.165909 
49.000000000000426 1:0.567622 2:-0.311522 
49.000000000000426 1:0.880545 2:-0.189666 
49.000000000000426 1:-0.788403 2:-0.20794 
49.000000000000426 1:-0.882649 2:0.133102 
49.000000000000426 1:-0.588197 2:-0.164568 
49.000000000000426 1:0.695846 2:-0.514307 
49.000000000000426 1:0.114649 2:-0.546451 
49.000000000000426 1:-0.42233 2:-0.561121 
49.000000000000426 1:-0.470419 2:-0.752143 
49.000000000000426 1:-0.229051 2:-0.257693 
49.000000000000426 1:0.376592 2:-0.783161 
49.000000000000426 1:-0.061059 2:0.730092 
49.000000000000426 1:0.180357 2:0.788244 
49.000000000000426 1:-0.245025 2:-0.708713 
49.000000000000426 1:0.040892 2:-0.604258 
49.000000000000426 1:-0.403262 2:0.580721 
49.000000000000426 1:0.72591 2:-0.207045 
49.000000000000426 1:0.414903 2:0.635675 
49.000000000000426 1:0.506329 2:0.741663 
49.000000000000426 1:0.91566 2:0.861217 
49.000000000000426 1:0.784767 2:-0.007157 
49.000000000000426 1:0.35378 2:-0.794963 
49.000000000000426 1:0.988341 2:-0.66654 
49.000000000000426 1:0.021074 2:0.089474 
49.000000000000426 1:-0.020298 2:0.10118 
49.000000000000426 1:-0.188709 2:-0.531516 
49.000000000000426 1:0.895652 2:0.951406 
49.000000000000426 1:0.06213 2:-0.094056 
49.000000000000426 1:0.426308 2:-0.781779 
49.000000000000426 1:-0.618892 2:-0.337428 
49.000000000000426 1:-0.832525 2:-0.939992 
49.000000000000426 1:0.378654 2:0.771454 
49.000000000000426 1:-0.138264 2:-0.56951 
49.000000000000426 1:-0.102164 2:0.108087 
49.000000000000426 1:0.064541 2:0.596633 
49.000000000000426 1:-0.565027 2:0.424541 
49.000000000000426 1:0.568494 2:0.32796 
49.000000000000426 1:-0.153823 2:-0.803422 
49.000000000000426 1:0.088562 2:-0.210837 
49.000000000000426 1:0.855498 2:-0.144448 
49.000000000000426 1:-0.837223 2:0.927408 
49.000000000000426 1:-0.979129 2:-0.721348 
49.000000000000426 1:0.813114 2:0.15492 
49.000000000000426 1:-0.189312 2:0.16846 
49.000000000000426 1:0.709981 2:0.470697 
49.000000000000426 1:0.078252 2:0.801449 
49.000000000000426 1:0.654395 2:0.328423 
49.000000000000426 1:0.22255 2:0.609396 
49.000000000000426 1:-0.310747 2:0.69632 
49.000000000000426 1:0.822312 2:0.173212 
49.000000000000426 1:0.42005 2:-0.525904 
49.000000000000426 1:0.625244 2:-0.453923 
49.000000000000426 1:-0.908604 2:0.178593 
49.000000000000426 1:0.501675 2:-0.29301 
49.000000000000426 1:-0.630958 2:-0.182121 
49.000000000000426 1:0.45324 2:0.773756 
49.000000000000426 1:0.560266 2:0.480878 
49.000000000000426 1:-0.099109 2:0.280521 
49.000000000000426 1:0.784569 2:0.169052 
49.000000000000426 1:-0.632095 2:0.632677 
49.000000000000426 1:0.120003 2:0.792933 
49.000000000000426 1:0.769201 2:0.181154 
49.000000000000426 1:0.272892 2:0.819413 
49.000000000000426 1:-0.837219 2:0.857171 
49.000000000000426 1:0.151908 2:-0.023444 
49.000000000000426 1:-0.405392 2:-0.078488 
49.000000000000426 1:0.799726 2:0.099131 
49.000000000000426 1:0.45429 2:-0.37585 
49.000000000000426 1:-0.574403 2:0.535404 
49.000000000000426 1:-0.846974 2:-0.305958 
49.000000000000426 1:0.588189 2:0.237605 
49.000000000000426 1:-0.040112 2:0.658254 
49.000000000000426 1:0.6134 2:0.304075 
49.000000000000426 1:-0.364132 2:0.768385 
49.000000000000426 1:0.756952 2:0.15539 
49.000000000000426 1:0.084102 2:-0.603428 
49.000000000000426 1:0.656954 2:0.061677 
49.000000000000426 1:-0.45601 2:-0.656921 
49.000000000000426 1:0.480179 2:0.430923 
49.000000000000426 1:-0.606771 2:0.145031 
49.000000000000426 1:0.017742 2:0.16083 
49.000000000000426 1:-0.789077 2:0.290016 
49.000000000000426 1:0.132454 2:0.856847 
49.000000000000426 1:-0.692734 2:0.480545 
49.000000000000426 1:-0.672606 2:-0.24686 
49.000000000000426 1:-0.005281 2:0.345823 
49.000000000000426 1:0.383314 2:-0.741104 
46.976359626414897 1:0.661614 2:-0.626313 
49.000000000000426 1:0.502102 2:-0.42297 
49.000000000000426 1:-0.682927 2:-0.308679 
49.000000000000426 1:-0.759276 2:0.321512 
49.000000000000426 1:0.199185 2:-0.127043 
13.654268164677648 1:0.984992 2:-0.935597 
49.000000000000426 1:-0.717878 2:-0.377036 
49.000000000000426 1:0.67683 2:-0.272843 
49.000000000000426 1:-0.703858 2:-0.371899 
49.000000000000426 1:0.841477 2:0.926 
49.000000000000426 1:0.340189 2:-0.566967 
49.000000000000426 1:-0.188018 2:-0.303042 
49.000000000000426 1:-0.539859 2:-0.641956 
49.000000000000426 1:-0.705548 2:-0.298656 
49.000000000000426 1:0.058232 2:0.756429 
49.000000000000426 1:-0.712099 2:0.059511 
49.000000000000426 1:0.822249 2:0.166778 
49.000000000000426 1:0.999469 2:0.408981 
49.000000000000426 1:0.00937 2:0.184412 
49.000000000000426 1:0.695974 2:0.57822 
49.000000000000426 1:0.217827 2:-0.060953 
49.000000000000426 1:0.401058 2:-0.461096 
49.000000000000426 1:-0.65657 2:0.114607 
49.000000000000426 1:0.524419 2:0.4221 
49.000000000000426 1:0.123215 2:-0.065451 
49.000000000000426 1:-0.077042 2:0.721755 
48.730918956720778 1:-0.902491 2:-0.171968 
49.000000000000426 1:-0.695031 2:-0.268793 
49.000000000000426 1:0.217913 2:0.634832 
49.000000000000426 1:-0.814153 2:-0.198172 
49.000000000000426 1:0.735413 2:-0.283723 
49.000000000000426 1:-0.5912 2:0.456015 
49.000000000000426 1:-0.269286 2:-0.773565 
49.000000000000426 1:0.674614 2:-0.409516 
49.000000000000426 1:0.376629 2:-0.660867 
49.000000000000426 1:0.645991 2:0.628635 
49.000000000000426 1:0.509113 2:0.649996 
49.000000000000426 1:-0.378893 2:-0.795839 
49.000000000000426 1:-0.896752 2:0.074454 
49.000000000000426 1:-0.123583 2:-0.694273 
49.000000000000426 1:0.11455 2:-0.213797 
49.000000000000426 1:0.644324 2:-0.56144 
49.000000000000426 1:0.163296 2:0.134278 
49.000000000000426 1:0.80464 2:0.178526 
49.000000000000426 1:0.327023 2:0.603599 
49.000000000000426 1:0.621164 2:0.584754 
49.000000000000426 1:-0.542308 2:-0.481362 
49.000000000000426 1:0.71308 2:-0.467054 
49.000000000000426 1:-0.517506 2:-0.714676 
49.000000000000426 1:0.139365 2:0.128787 
49.000000000000426 1:-0.409086 2:0.569353 
49.000000000000426 1:-0.208468 2:-0.857181 
49.000000000000426 1:0.684257 2:-0.549007 
49.000000000000426 1:0.373506 2:0.713538 
49.000000000000426 1:-0.111097 2:-0.127581 
49.000000000000426 1:0.404553 2:-0.733635 
49.000000000000426 1:-0.596188 2:0.596688 
49.000000000000426 1:-0.007519 2:0.543458 
49.000000000000426 1:-0.551333 2:-0.58455 
49.000000000000426 1:-0.260464 2:-0.721438 
49.000000000000426 1:0.222241 2:-0.22476 
49.000000000000426 1:-0.204246 2:0.671055 
49.000000000000426 1:-0.636663 2:0.46099 
49.000000000000426 1:-0.542745 2:0.698944 
49.000000000000426 1:-0.194175 2:0.63275 
49.000000000000426 1:0.171723 2:-0.767667 
49.000000000000426 1:0.816185 2:-0.169051 
49.000000000000426 1:0.04661 2:0.087727 
49.000000000000426 1:0.602076 2:-0.71215 
49.000000000000426 1:0.345368 2:0.807942 
49.000000000000426 1:0.279179 2:0.640787 
49.000000000000426 1:0.260351 2:-0.09353 
49.000000000000426 1:0.540077 2:0.043231 
49.000000000000426 1:-0.40163 2:-0.458479 
49.000000000000426 1:0.792587 2:-0.070159 
49.000000000000426 1:0.672623 2:-0.366314 
49.000000000000426 1:-0.012306 2:0.19472 
24.366370682534349 1:-0.765267 2:0.992711 
49.000000000000426 1:0.63782 2:0.558503 
49.000000000000426 1:0.15459 2:0.83174 
49.000000000000426 1:0.127975 2:0.313535 
49.000000000000426 1:-0.554455 2:0.7035 
49.000000000000426 1:0.566891 2:-0.394013 
49.000000000000426 1:0.245683 2:0.624553 
49.000000000000426 1:-0.003234 2:-0.190342 
49.000000000000426 1:0.162889 2:-0.286719 
49.000000000000426 1:0.59067 2:-0.487338 
49.000000000000426 1:-0.497955 2:0.751112 
49.000000000000426 1:0.244275 2:-0.110897 
49.000000000000426 1:0.263319 2:-0.708032 
49.000000000000426 1:-0.562492 2:0.576906 
49.000000000000426 1:0.187262 2:0.249628 
49.000000000000426 1:-0.711117 2:0.382355 
49.000000000000426 1:-0.37225 2:0.721149 
49.000000000000426 1:0.263167 2:-0.112344 
49.000000000000426 1:-0.649826 2:-0.60902 
49.000000000000426 1:0.306619 2:0.843218 
49.000000000000426 1:-0.325926 2:0.815062 
49.000000000000426 1:-0.131001 2:0.288636 
49.000000000000426 1:0.079207 2:0.050115 
49.000000000000426 1:0.745423 2:0.312575 
49.000000000000426 1:0.366256 2:0.762316 
49.000000000000426 1:-0.165778 2:-0.159612 
49.000000000000426 1:0.03356 2:0.114937 
49.000000000000426 1:-0.174387 2:0.104872 
49.000000000000426 1:0.790907 2:-0.156449 
49.000000000000426 1:0.124205 2:0.864957 
49.000000000000426 1:0.603295 2:-0.675313 
49.000000000000426 1:-0.396591 2:0.60606 
49.000000000000426 1:0.228642 2:0.102585 
49.000000000000426 1:0.355559 2:-0.73971 
49.000000000000426 1:-0.256591 2:-0.646274 
49.000000000000426 1:0.139459 2:-0.048024 
49.000000000000426 1:-0.198734 2:-0.736429 
49.000000000000426 1:-0.905771 2:0.022896 
49.000000000000426 1:-0.174208 2:0.044667 
49.000000000000426 1:-0.094279 2:-0.714767 
49.000000000000426 1:0.134384 2:-0.109562 
49.000000000000426 1:-0.257184 2:-0.059037 
49.000000000000426 1:-0.543722 2:-0.233274 
31.951861149309753 1:-0.723455 2:-0.993055 
49.000000000000426 1:0.644562 2:-0.188267 
49.000000000000426 1:-0.522382 2:0.723936 
49.000000000000426 1:-0.090514 2:-0.766108 
49.000000000000426 1:0.314501 2:0.00037 
49.000000000000426 1:0.186922 2:0.70235 
49.000000000000426 1:0.184416 2:-0.090799 
49.000000000000426 1:-0.50846 2:0.453046 
49.000000000000426 1:-0.084957 2:0.403101 
49.000000000000426 1:0.268262 2:-0.852506 
49.000000000000426 1:-0.006842 2:0.234363 
49.000000000000426 1:0.519308 2:-0.411691 
49.000000000000426 1:-0.264032 2:0.571682 
49.000000000000426 1:-0.174857 2:0.266275 
49.000000000000426 1:0.445558 2:0.603713 
49.000000000000426 1:-0.836483 2:0.114612 
49.000000000000426 1:0.327186 2:-0.674787 
49.000000000000426 1:0.864606 2:-0.207874 
49.000000000000426 1:0.020106 2:-0.832214 
13.929614242347183 1:0.702896 2:0.583962 
49.000000000000426 1:0.832874 2:0.046135 
49.000000000000426 1:-0.438819 2:-0.672196 
49.000000000000426 1:0.769759 2:0.298206 
49.000000000000426 1:-0.06312 2:-0.774386 
49.000000000000426 1:-0.839025 2:0.127032 
49.000000000000426 1:-0.029148 2:-0.293298 
49.000000000000426 1:0.851589 2:-0.269401 
49.000000000000426 1:-0.365212 2:-0.557487 
49.000000000000426 1:-0.826995 2:0.961027 
49.000000000000426 1:-0.351999 2:0.706063 
49.000000000000426 1:0.292538 2:0.111749 
49.000000000000426 1:-0.769054 2:0.234988 
49.000000000000426 1:0.821526 2:-0.074736 
49.000000000000426 1:-0.536467 2:-0.360044 
18.19179714934943 1:-0.263779 2:-0.995721 
49.000000000000426 1:-0.645995 2:0.550062 
49.000000000000426 1:0.723881 2:-0.179561 
49.000000000000426 1:-0.547384 2:0.575014 
49.000000000000426 1:0.66779 2:-0.484302 
49.000000000000426 1:0.299305 2:0.84766 
49.000000000000426 1:-0.381008 2:0.808316 
49.000000000000426 1:-0.215419 2:0.582343 
37.197498437533575 1:-0.909419 2:0.827827 
49.000000000000426 1:0.729308 2:-0.455643 
49.000000000000426 1:-0.401227 2:-0.756395 
49.000000000000426 1:0.19434 2:-0.182355 
49.000000000000426 1:-0.62239 2:-0.131195 
49.000000000000426 1:-0.310298 2:-0.546371 
49.000000000000426 1:-0.341106 2:0.808198 
49.000000000000426 1:-0.086768 2:0.375314 
49.000000000000426 1:0.085771 2:0.612019 
49.000000000000426 1:-0.216822 2:-0.756554 
49.000000000000426 1:0.535515 2:-0.568141 
49.000000000000426 1:0.757432 2:0.294166 
49.000000000000426 1:-0.200115 2:-0.810599 
49.000000000000426 1:-0.602051 2:-0.994853 
49.000000000000426 1:-0.511254 2:0.359757 
49.000000000000426 1:0.216615 2:0.142701 
49.000000000000426 1:-0.324967 2:0.494944 
49.000000000000426 1:0.097022 2:-0.737558 
49.000000000000426 1:0.640204 2:-0.501744 
49.000000000000426 1:-0.424497 2:0.091629 
9.4886097191639589 1:0.913049 2:0.784665 
49.000000000000426 1:-0.288538 2:0.546202 
49.000000000000426 1:-0.225786 2:-0.320599 
49.000000000000426 1:0.286038 2:-0.064904 
49.000000000000426 1:-0.553599 2:-0.684968 
49.000000000000426 1:0.879332 2:-0.908833 
49.000000000000426 1:-0.671442 2:0.332004 
49.000000000000426 1:-0.616795 2:-0.509976 
49.000000000000426 1:-0.498351 2:0.248855 
49.000000000000426 1:-0.524459 2:0.705812 
49.000000000000426 1:-0.881357 2:0.86816 
49.000000000000426 1:-0.199302 2:0.07382 
49.000000000000426 1:-0.153526 2:-0.006561 
49.000000000000426 1:-0.175726 2:-0.117361 
49.000000000000426 1:-0.24712 2:-0.05947 
49.000000000000426 1:0.853599 2:0.943812 
49.000000000000426 1:0.687727 2:-0.563763 
49.000000000000426 1:-0.610536 2:-0.234875 
49.000000000000426 1:-0.969106 2:0.664922 
49.000000000000426 1:-0.975747 2:-0.754494 
49.000000000000426 1:-0.344852 2:0.771682 
49.000000000000426 1:-0.582145 2:-0.480234 
49.000000000000426 1:-0.082751 2:-0.089196 
49.000000000000426 1:0.772543 2:-0.16004 
49.000000000000426 1:-0.456656 2:-0.442328 
49.000000000000426 1:0.630529 2:0.201246 
49.000000000000426 1:-0.801233 2:-0.393049 
49.000000000000426 1:-0.351478 2:0.263461 
49.000000000000426 1:0.315807 2:0.042963 
49.000000000000426 1:0.692231 2:-0.52897 
49.000000000000426 1:-0.088571 2:-0.103968 
49.000000000000426 1:0.294636 2:0.621539 
49.000000000000426 1:-0.041138 2:0.999465 
49.000000000000426 1:-0.760456 2:0.415931 
49.000000000000426 1:-0.767499 2:-0.417801 
6.4409820460243239 1:-0.681827 2:-0.990778 
49.000000000000426 1:-0.113554 2:0.722084 
49.000000000000426 1:0.389928 2:-0.085626 
49.000000000000426 1:-0.821065 2:0.064768 
49.000000000000426 1:0.466363 2:-0.384701 
49.000000000000426 1:0.655063 2:-0.591361 
49.000000000000426 1:-0.453493 2:0.727135 
49.000000000000426 1:0.446545 2:0.719865 
49.000000000000426 1:-0.628883 2:-0.568453 
49.000000000000426 1:0.494059 2:0.694658 
49.000000000000426 1:0.317817 2:-0.462039 
49.000000000000426 1:-0.436808 2:0.722838 
49.000000000000426 1:0.731188 2:0.197064 
49.000000000000426 1:0.404353 2:-0.808525 
49.000000000000426 1:-0.170963 2:0.066058 
49.000000000000426 1:-0.014901 2:0.832813 
49.000000000000426 1:-0.490004 2:0.595705 
49.000000000000426 1:-0.885563 2:0.812529 
49.000000000000426 1:0.754444 2:-0.117226 
49.000000000000426 1:-0.222751 2:-0.241646 
49.000000000000426 1:0.540735 2:-0.266755 
49.000000000000426 1:0.269376 2:-0.210112 
49.000000000000426 1:-0.07867 2:-0.758916 
49.000000000000426 1:-0.889526 2:0.105273 
49.000000000000426 1:0.849801 2:0.140172 
49.000000000000426 1:0.218662 2:0.639906 
49.000000000000426 1:-0.46787 2:-0.659755 
49.000000000000426 1:0.736584 2:-0.020899 
49.000000000000426 1:-0.885085 2:-0.041746 
49.000000000000426 1:-0.073484 2:-0.859435 
49.000000000000426 1:0.12371 2:0.082513 
49.000000000000426 1:-0.845405 2:0.272566 
49.000000000000426 1:0.63921 2:0.563274 
49.000000000000426 1:-0.13913 2:0.259741 
49.000000000000426 1:-0.664917 2:-0.169785 
49.000000000000426 1:0.077558 2:-0.030806 
49.000000000000426 1:0.638804 2:-0.547031 
49.000000000000426 1:-0.829393 2:0.290663 
49.000000000000426 1:0.563048 2:0.638349 
49.000000000000426 1:-0.163649 2:0.124554 
49.000000000000426 1:0.734242 2:0.129875 
49.000000000000426 1:-0.121898 2:0.317615 
49.000000000000426 1:-0.28441 2:-0.277521 
49.000000000000426 1:0.172982 2:0.83017 
49.000000000000426 1:0.165446 2:-0.864005 
49.000000000000426 1:-0.533483 2:-0.569665 
49.000000000000426 1:0.349078 2:0.805028 
49.000000000000426 1:0.251757 2:-0.593549 
49.000000000000426 1:-0.44918 2:0.625012 
49.000000000000426 1:0.615835 2:-0.993929 
49.000000000000426 1:0.513785 2:-0.624509 
49.000000000000426 1:-0.122037 2:-0.556565 
49.000000000000426 1:-0.344272 2:0.001086 
49.000000000000426 1:-0.989946 2:0.647049 
49.000000000000426 1:-0.214993 2:-0.220313 
49.000000000000426 1:-0.766794 2:0.360865 
49.000000000000426 1:-0.514538 2:-0.251681 
8.9442961693851775 1:0.225963 2:-0.871945 
49.000000000000426 1:0.365386 2:0.42038 
49.000000000000426 1:0.70475 2:0.363199 
49.000000000000426 1:-0.497011 2:0.187685 
49.000000000000426 1:0.257914 2:-0.01042 
49.000000000000426 1:-0.6332 2:-0.417844 
49.000000000000426 1:-0.019562 2:0.616818 
49.000000000000426 1:-0.096834 2:-0.874653 
49.000000000000426 1:-0.867567 2:0.930167 
49.000000000000426 1:0.245341 2:-0.810081 
2.0080923092160825 1:-0.839348 2:-0.887592 
49.000000000000426 1:-0.262749 2:-0.57634 
49.000000000000426 1:-0.532149 2:0.39466 
49.000000000000426 1:0.556495 2:0.391598 
49.000000000000426 1:0.227248 2:-0.684205 
49.000000000000426 1:0.45254 2:0.670438 
49.000000000000426 1:0.134233 2:0.784962 
49.000000000000426 1:0.444653 2:-0.714332 
49.000000000000426 1:-0.621847 2:-0.167309 
36.320535676789206 1:0.642523 2:-0.975169 
49.000000000000426 1:0.041963 2:0.157272 
49.000000000000426 1:-0.650059 2:0.031459 
49.000000000000426 1:0.146108 2:0.672205 
49.000000000000426 1:0.436426 2:0.716002 
49.000000000000426 1:-0.156943 2:0.262764 
49.000000000000426 1:0.615807 2:-0.117191 
49.000000000000426 1:0.576393 2:0.657673 
49.000000000000426 1:0.572122 2:-0.739587 
49.000000000000426 1:0.061077 2:-0.227869 
49.000000000000426 1:-0.193743 2:-0.364113 
49.000000000000426 1:-0.089247 2:-0.703271 
49.000000000000426 1:0.502813 2:-0.774302 
25.666259448399405 1:-0.083487 2:-0.997967 
49.000000000000426 1:-0.797513 2:-0.109461 
49.000000000000426 1:-0.583481 2:0.3676 
49.000000000000426 1:-0.774627 2:0.233414 
49.000000000000426 1:-0.832887 2:0.921818 
49.000000000000426 1:-0.607987 2:0.63737 
49.000000000000426 1:0.887267 2:-0.077746 
49.000000000000426 1:0.627983 2:-0.510178 
49.000000000000426 1:0.218417 2:-0.662151 
49.000000000000426 1:0.019072 2:-0.77342 
49.000000000000426 1:-0.667948 2:0.340485 
49.000000000000426 1:-0.185926 2:0.154067 
49.000000000000426 1:-0.166271 2:-0.275069 
49.000000000000426 1:0.441864 2:-0.54326 
49.000000000000426 1:-0.372926 2:0.754506 
49.000000000000426 1:0.66698 2:-0.257572 
49.000000000000426 1:0.204219 2:0.699431 
49.000000000000426 1:-0.21747 2:-0.706751 
49.000000000000426 1:-0.707743 2:0.027251 
20.659390251795077 1:0.999516 2:-0.489069 
49.000000000000426 1:0.110989 2:0.088738 
49.000000000000426 1:0.453014 2:-0.4338 
49.000000000000426 1:0.283507 2:0.805567 
49.000000000000426 1:0.140677 2:-0.272927 
49.000000000000426 1:0.701267 2:-0.439529 
49.000000000000426 1:0.164638 2:0.194766 
38.375355114949052 1:-0.948399 2:0.977688 
49.000000000000426 1:0.242742 2:0.849262 
49.000000000000426 1:-0.851344 2:-0.309976 
49.000000000000426 1:0.573921 2:-0.565552 
49.000000000000426 1:0.090679 2:0.731236 
49.000000000000426 1:0.033719 2:0.17425 
49.000000000000426 1:0.113642 2:0.859675 
49.000000000000426 1:0.247411 2:0.586134 
49.000000000000426 1:0.664662 2:-0.562864 
49.000000000000426 1:0.765339 2:0.393418 
49.000000000000426 1:0.682525 2:-0.251935 
49.000000000000426 1:0.459083 2:-0.700852 
49.000000000000426 1:-0.801914 2:0.233428 
49.000000000000426 1:-0.542545 2:-0.559951 
49.000000000000426 1:-0.739989 2:0.447306 
49.000000000000426 1:0.490182 2:0.72949 
49.000000000000426 1:0.498528 2:-0.3084 
23.608138031637399 1:0.008543 2:-0.916013 
49.000000000000426 1:-0.547956 2:0.466983 
49.000000000000426 1:-0.126031 2:0.853126 
49.000000000000426 1:0.013217 2:-0.905678 
49.000000000000426 1:0.236041 2:0.113848 
49.000000000000426 1:-0.595174 2:-0.612727 
49.000000000000426 1:-0.725722 2:0.308635 
49.000000000000426 1:0.07988 2:0.714514 
49.000000000000426 1:-0.240208 2:-0.782845 
49.000000000000426 1:0.795136 2:0.271939 
49.000000000000426 1:-0.561898 2:-0.011335 
49.000000000000426 1:0.442962 2:0.738006 
49.000000000000426 1:-0.365438 2:-0.722084 
49.000000000000426 1:-0.607076 2:-0.53423 
49.000000000000426 1:-0.23586 2:0.624593 
49.000000000000426 1:0.789245 2:0.240603 
49.000000000000426 1:0.539839 2:-0.74629 
49.000000000000426 1:-0.403148 2:-0.160232 
49.000000000000426 1:0.216643 2:-0.091004 
49.000000000000426 1:-0.155856 2:0.163843 
49.000000000000426 1:0.113816 2:-0.167348 
49.000000000000426 1:-0.662342 2:0.506309 
49.000000000000426 1:0.270406 2:-0.102014 
49.000000000000426 1:0.344893 2:0.159325 
49.000000000000426 1:0.904128 2:0.839419 
49.000000000000426 1:-0.186573 2:0.102583 
49.000000000000426 1:-0.248324 2:-0.631093 
49.000000000000426 1:-0.806542 2:-0.14344 
49.000000000000426 1:0.732752 2:-0.410521 
49.000000000000426 1:-0.376981 2:0.125665 
49.000000000000426 1:0.733111 2:0.991703 
49.000000000000426 1:0.046712 2:-0.87416 
49.000000000000426 1:0.7165 2:-0.150652 
49.000000000000426 1:0.104869 2:-0.792082 
49.000000000000426 1:0.842586 2:0.120172 
49.000000000000426 1:-0.194456 2:-0.142529 
49.000000000000426 1:0.341401 2:-0.113625 
49.000000000000426 1:0.110983 2:0.70159 
49.000000000000426 1:0.890839 2:-0.904394 
49.000000000000426 1:0.241977 2:-0.054239 
49.000000000000426 1:-0.536135 2:0.715803 
49.000000000000426 1:0.118231 2:0.195778 
49.000000000000426 1:0.713224 2:0.995479 
49.000000000000426 1:-0.160568 2:0.784259 
49.000000000000426 1:-0.069114 2:0.869515 
49.000000000000426 1:0.726442 2:-0.9907 
49.000000000000426 1:0.714331 2:-0.522233 
49.000000000000426 1:-0.537114 2:0.658226 
49.000000000000426 1:0.684931 2:0.166304 
49.000000000000426 1:-0.234364 2:-0.117739 
49.000000000000426 1:-0.137388 2:-0.677638 
49.000000000000426 1:0.572597 2:0.694205 
49.000000000000426 1:-0.352341 2:-0.74027 
49.000000000000426 1:0.477151 2:0.35675 
49.000000000000426 1:0.59783 2:-0.589303 
49.000000000000426 1:-0.576196 2:-0.310244 
49.000000000000426 1:-0.677947 2:-0.568463 
49.000000000000426 1:0.006543 2:-0.702811 
49.000000000000426 1:-0.249453 2:0.008798 
49.000000000000426 1:-0.503964 2:0.457813 
49.000000000000426 1:-0.070379 2:0.240542 
49.000000000000426 1:-0.598443 2:0.336476 
49.000000000000426 1:-0.289198 2:0.213516 
49.000000000000426 1:-0.618508 2:0.444521 
49.000000000000426 1:0.580368 2:0.604456 
49.000000000000426 1:0.213188 2:0.18446 
49.000000000000426 1:-0.155973 2:0.041199 
49.000000000000426 1:-0.253125 2:0.189794 
49.000000000000426 1:0.269545 2:-0.128062 
49.000000000000426 1:-0.646944 2:-0.376655 
49.000000000000426 1:0.290796 2:-0.834589 
49.000000000000426 1:-0.031886 2:0.230775 
49.000000000000426 1:0.207637 2:-0.68302 
49.000000000000426 1:0.550337 2:-0.27155 
49.000000000000426 1:0.570708 2:-0.648278 
49.000000000000426 1:0.099863 2:0.853892 
49.000000000000426 1:0.104555 2:-0.860979 
49.000000000000426 1:-0.060623 2:-0.773996 
49.000000000000426 1:-0.568137 2:-0.510626 
49.000000000000426 1:0.679615 2:0.199402 
49.000000000000426 1:-0.412029 2:0.594738 
49.000000000000426 1:0.353006 2:0.424831 
49.000000000000426 1:0.129671 2:-0.250034 
49.000000000000426 1:0.887057 2:0.066143 
49.000000000000426 1:0.749418 2:-0.326448 
49.000000000000426 1:-0.197977 2:-0.581331 
49.000000000000426 1:0.342947 2:0.024947 
49.000000000000426 1:-0.222624 2:-0.264583 
0.015918175681998752 1:0.90937 2:-0.85509 
49.000000000000426 1:-0.201585 2:-0.633858 
49.000000000000426 1:0.846625 2:0.230559 
49.000000000000426 1:0.581964 2:0.331065 
49.000000000000426 1:-0.125531 2:-0.827463 
49.000000000000426 1:0.182168 2:-0.12514 
49.000000000000426 1:0.420429 2:-0.611562 
49.000000000000426 1:-0.027299 2:-0.895252 
49.000000000000426 1:-0.58132 2:-0.404362 
49.000000000000426 1:0.706299 2:-0.518568 
49.000000000000426 1:0.997912 2:0.499935 
49.000000000000426 1:-0.597102 2:0.458148 
49.000000000000426 1:0.852029 2:0.929987 
49.000000000000426 1:0.049709 2:0.725689 
49.000000000000426 1:-0.69002 2:-0.556321 
49.000000000000426 1:0.231504 2:-0.11689 
49.000000000000426 1:-0.193919 2:0.802173 
49.000000000000426 1:-0.425546 2:0.611968 
49.000000000000426 1:0.217801 2:-0.562768 
49.000000000000426 1:0.581999 2:-0.631108 
49.000000000000426 1:0.175904 2:0.022867 
49.000000000000426 1:-0.699879 2:-0.389593 
49.000000000000426 1:0.236265 2:-0.386098 
49.000000000000426 1:0.192538 2:-0.828032 
49.000000000000426 1:0.860183 2:-0.157888 
49.000000000000426 1:0.143763 2:0.062408 
49.000000000000426 1:-0.639527 2:-0.503369 
49.000000000000426 1:0.065031 2:-0.149213 
49.000000000000426 1:-0.123835 2:0.799559 
49.000000000000426 1:0.788586 2:-0.362546 
49.000000000000426 1:0.495751 2:0.541287 
49.000000000000426 1:0.311198 2:-0.191506 
49.000000000000426 1:0.291533 2:-0.819333 
49.000000000000426 1:0.679713 2:-0.211022 
49.000000000000426 1:0.072576 2:-0.429346 
49.000000000000426 1:0.703922 2:-0.035303 
49.000000000000426 1:0.734527 2:-0.10584 
49.000000000000426 1:0.813397 2:-0.039142 
49.000000000000426 1:-0.247535 2:0.808975 
49.000000000000426 1:-0.077779 2:0.657135 
49.000000000000426 1:-0.838201 2:-0.000304 
49.000000000000426 1:0.393638 2:0.70891 
49.000000000000426 1:-0.881589 2:0.016056 
49.000000000000426 1:0.875071 2:-0.04071 
49.000000000000426 1:-0.548657 2:0.583804 
49.000000000000426 1:0.844388 2:0.133222 
49.000000000000426 1:-0.147452 2:-0.756121 
49.000000000000426 1:0.109553 2:0.110105 
49.000000000000426 1:0.680603 2:0.465042 
49.000000000000426 1:0.353849 2:-0.062306 
49.000000000000426 1:0.285555 2:0.635109 
49.000000000000426 1:0.180385 2:-0.573523 
49.000000000000426 1:-0.839071 2:0.285728 
49.000000000000426 1:0.722929 2:-0.4486 
49.000000000000426 1:0.475523 2:-0.708033 
49.000000000000426 1:-0.718918 2:-0.201585 
49.000000000000426 1:-0.839598 2:-0.004043 
49.000000000000426 1:-0.269032 2:0.230171 
49.000000000000426 1:0.574228 2:0.999453 
49.000000000000426 1:-0.589923 2:0.624414 
49.000000000000426 1:0.181851 2:-0.584985 
49.000000000000426 1:0.012372 2:0.887044 
49.000000000000426 1:-0.646291 2:0.509345 
49.000000000000426 1:0.698538 2:0.522262 
49.000000000000426 1:0.678298 2:-0.381494 
49.000000000000426 1:-0.823017 2:-0.237614 
49.000000000000426 1:0.934574 2:0.864661 
49.000000000000426 1:0.03508 2:-0.650771 
49.000000000000426 1:-0.518802 2:-0.562373 
49.000000000000426 1:-0.773601 2:0.132519 
49.000000000000426 1:0.257608 2:0.802162 
49.000000000000426 1:0.392372 2:0.511358 
49.000000000000426 1:-0.534607 2:0.621863 
49.000000000000426 1:0.586145 2:0.506559 
49.000000000000426 1:0.858809 2:-0.23503 
49.000000000000426 1:-0.242773 2:0.761085 
49.000000000000426 1:-0.818603 2:-0.164474 
49.000000000000426 1:-0.443455 2:0.68519 
49.000000000000426 1:-0.924463 2:0.991022 
49.000000000000426 1:0.33876 2:-0.6659 
49.000000000000426 1:-0.914997 2:-0.10747 
49.000000000000426 1:0.74805 2:0.21722 
49.000000000000426 1:0.129321 2:-0.257308 
49.000000000000426 1:-0.236234 2:0.819743 
49.000000000000426 1:0.777901 2:0.476515 
49.000000000000426 1:0.264166 2:0.793967 
49.000000000000426 1:-0.283798 2:0.683809 
49.000000000000426 1:0.682092 2:0.067919 
49.000000000000426 1:-0.168203 2:0.035015 
49.000000000000426 1:0.468342 2:-0.69576 
49.000000000000426 1:-0.837583 2:0.119363 
49.000000000000426 1:-0.861035 2:0.875552 
49.000000000000426 1:-0.84737 2:0.010742 
49.000000000000426 1:-0.852215 2:-0.891353 
49.000000000000426 1:-0.622308 2:-0.192756 
49.000000000000426 1:0.081645 2:0.175827 
49.000000000000426 1:-0.479479 2:-0.542871 
49.000000000000426 1:-0.443141 2:0.504656 
49.000000000000426 1:0.193723 2:-0.194223 
49.000000000000426 1:-0.24896 2:0.831935 
49.000000000000426 1:0.612617 2:0.995654 
49.000000000000426 1:0.594493 2:0.619711 
49.000000000000426 1:-0.680765 2:-0.379325 
49.000000000000426 1:0.073007 2:-0.119194 
49.000000000000426 1:0.839092 2:0.277428 
49.000000000000426 1:-0.343613 2:0.81753 
49.000000000000426 1:0.130331 2:0.373059 
49.000000000000426 1:0.882093 2:-0.064685 
49.000000000000426 1:0.024659 2:-0.225345 
49.000000000000426 1:-0.301527 2:0.151748 
49.000000000000426 1:0.602672 2:0.011422 
49.000000000000426 1:-0.829528 2:0.276997 
49.000000000000426 1:-0.660792 2:0.518807 
6.8803972490091923 1:-0.082856 2:0.997197 
11.125951885918722 1:-0.826611 2:-0.911156 
49.000000000000426 1:-0.717584 2:-0.461183 
49.000000000000426 1:-0.253037 2:-0.146082 
49.000000000000426 1:0.244157 2:0.298245 
49.000000000000426 1:-0.280555 2:0.52037 
49.000000000000426 1:-0.536597 2:-0.414651 
49.000000000000426 1:0.210508 2:0.837558 
49.000000000000426 1:-0.774757 2:0.333342 
49.000000000000426 1:0.371121 2:-0.583528 
49.000000000000426 1:-0.59185 2:-0.399309 
49.000000000000426 1:0.286967 2:-0.047794 
49.000000000000426 1:-0.297448 2:-0.020544 
49.000000000000426 1:0.79879 2:0.318144 
49.000000000000426 1:-0.086064 2:0.82537 
49.000000000000426 1:0.080128 2:0.378086 
49.000000000000426 1:-0.897544 2:0.823872 
49.000000000000426 1:-0.902222 2:-0.143368 
49.000000000000426 1:-0.076481 2:-0.190856 
49.000000000000426 1:-0.096497 2:-0.130837 
49.000000000000426 1:-0.012351 2:0.232069 
49.000000000000426 1:0.006125 2:-0.879931 
49.000000000000426 1:0.852314 2:0.260165 
15.153313310602796 1:0.892767 2:0.093957 
49.000000000000426 1:-0.301751 2:0.520737 
49.000000000000426 1:-0.864894 2:-0.089085 
49.000000000000426 1:-0.981384 2:0.670217 
49.000000000000426 1:-0.749782 2:0.336096 
49.000000000000426 1:-0.875621 2:-0.088395 
49.000000000000426 1:0.56937 2:0.310228 
9.2757269852009951 1:0.753338 2:-0.935282 
49.000000000000426 1:0.143027 2:0.791826 
49.000000000000426 1:0.127718 2:0.067724 
49.000000000000426 1:-0.554504 2:-0.387678 
49.000000000000426 1:-0.510819 2:0.322472 
49.000000000000426 1:-0.115539 2:0.85574 
49.000000000000426 1:0.600174 2:-0.010804 
49.000000000000426 1:0.618504 2:-0.372409 
49.000000000000426 1:0.232798 2:-0.181465 
49.000000000000426 1:0.404104 2:-0.659608 
49.000000000000426 1:-0.815077 2:-0.138943 
49.000000000000426 1:-0.709717 2:0.28377 
49.000000000000426 1:-0.739787 2:0.294546 
49.000000000000426 1:-0.008943 2:-0.165653 
49.000000000000426 1:-0.045608 2:-0.818998 
49.000000000000426 1:0.197663 2:0.258648 
49.000000000000426 1:-0.4103 2:0.0541 
49.000000000000426 1:0.089294 2:0.885008 
49.000000000000426 1:-0.514329 2:0.148539 
49.000000000000426 1:-0.015266 2:0.86194 
49.000000000000426 1:0.688451 2:0.551318 
49.000000000000426 1:-0.602723 2:0.608858 
49.000000000000426 1:0.392413 2:-0.771915 
49.000000000000426 1:-0.495951 2:0.351695 
49.000000000000426 1:-0.359539 2:-0.791766 
49.000000000000426 1:-0.168087 2:0.296286 
49.000000000000426 1:0.378651 2:0.17801 
49.000000000000426 1:0.676486 2:0.274859 
49.000000000000426 1:0.539529 2:0.20462 
49.000000000000426 1:0.346148 2:-0.14364 
49.000000000000426 1:-0.617067 2:0.471037 
49.000000000000426 1:-0.739816 2:0.120193 
49.000000000000426 1:0.142642 2:-0.242699 
49.000000000000426 1:0.31323 2:0.079767 
49.000000000000426 1:-0.070644 2:0.199382 
49.000000000000426 1:-0.064649 2:0.449991 
49.000000000000426 1:-0.594511 2:0.661956 
49.000000000000426 1:0.177367 2:0.4291 
49.000000000000426 1:-0.506175 2:0.619771 
49.000000000000426 1:0.157407 2:0.747416 
49.000000000000426 1:0.083373 2:-0.36774 
49.000000000000426 1:0.244232 2:0.069002 
49.000000000000426 1:0.277255 2:-0.272031 
49.000000000000426 1:0.828096 2:-0.320056 
49.000000000000426 1:0.801344 2:-0.313149 
49.000000000000426 1:-0.175915 2:0.100413 
49.000000000000426 1:-0.389758 2:-0.668001 
49.000000000000426 1:0.026889 2:-0.771097 
49.000000000000426 1:-0.876799 2:-0.926663 
49.000000000000426 1:0.594057 2:0.107776 
49.000000000000426 1:0.830827 2:-0.090997 
49.000000000000426 1:-0.208771 2:-0.494558 
49.000000000000426 1:0.294943 2:-0.103157 
49.000000000000426 1:0.254012 2:0.555777 
49.000000000000426 1:-0.15412 2:-0.788661 
49.000000000000426 1:-0.448515 2:-0.678334 
49.000000000000426 1:0.491722 2:0.489384 
49.000000000000426 1:0.325096 2:-0.225776 
49.000000000000426 1:0.423988 2:0.574266 
49.000000000000426 1:0.226316 2:-0.034659 
49.000000000000426 1:-0.894815 2:-0.113152 
49.000000000000426 1:0.261751 2:0.845526 
49.000000000000426 1:0.036728 2:0.280976 
49.000000000000426 1:-0.005639 2:-0.333414 
49.000000000000426 1:-0.598623 2:-0.622594 
49.000000000000426 1:0.884323 2:0.878901 
49.000000000000426 1:-0.682245 2:-0.329723 
49.000000000000426 1:-0.165204 2:-0.645531 
49.000000000000426 1:-0.0068 2:0.315755 
49.000000000000426 1:-0.271742 2:0.027644 
49.000000000000426 1:0.066643 2:-0.171365 
49.000000000000426 1:0.261982 2:-0.632215 
49.000000000000426 1:-0.152406 2:-0.220648 
49.000000000000426 1:-0.062956 2:-0.202206 
49.000000000000426 1:-0.827431 2:-0.165594 
49.000000000000426 1:0.006173 2:0.41899 
49.000000000000426 1:-0.752822 2:-0.163831 
49.000000000000426 1:0.223943 2:-0.795607 
49.000000000000426 1:-0.383766 2:0.035132 
49.000000000000426 1:-0.583251 2:0.652419 
13.917855972351848 1:-0.826961 2:-0.36315 
49.000000000000426 1:0.144959 2:-0.821058 
49.000000000000426 1:0.810268 2:-0.93735 
49.000000000000426 1:-0.002575 2:0.806999 
49.000000000000426 1:0.240606 2:-0.729607 
49.000000000000426 1:0.682329 2:0.148955 
49.000000000000426 1:0.512221 2:-0.706282 
49.000000000000426 1:0.57979 2:0.374922 
49.000000000000426 1:0.284607 2:-0.046457 
49.000000000000426 1:0.265299 2:0.002801 
49.000000000000426 1:0.648067 2:-0.396135 
49.000000000000426 1:0.279024 2:0.691434 
49.000000000000426 1:0.121285 2:0.884714 
49.000000000000426 1:0.16894 2:0.290766 
49.000000000000426 1:-0.729973 2:-0.060086 
49.000000000000426 1:0.266013 2:-0.220349 
49.000000000000426 1:0.35091 2:-0.600054 
49.000000000000426 1:0.086989 2:-0.394134 
49.000000000000426 1:-0.99746 2:0.702882 
49.000000000000426 1:0.25575 2:-0.356867 
49.000000000000426 1:-0.200945 2:-0.704189 
49.000000000000426 1:0.751831 2:-0.195583 
49.000000000000426 1:0.555775 2:-0.652145 
49.000000000000426 1:0.581202 2:-0.297164 
49.000000000000426 1:-0.099438 2:0.323031 
49.000000000000426 1:0.018768 2:-0.687763 
49.000000000000426 1:0.220572 2:0.207577 
49.000000000000426 1:0.226261 2:0.623029 
49.000000000000426 1:-0.229036 2:-0.522877 
49.000000000000426 1:0.013255 2:0.803358 
49.000000000000426 1:0.025998 2:-0.0939 
49.000000000000426 1:-0.011347 2:0.416092 
49.000000000000426 1:0.725733 2:0.367968 
49.000000000000426 1:-0.159319 2:-0.840029 
49.000000000000426 1:0.105131 2:-0.037206 
49.000000000000426 1:-0.925804 2:0.14588 
49.000000000000426 1:-0.912144 2:0.105294 
49.000000000000426 1:-0.85249 2:0.013552 
49.000000000000426 1:-0.617048 2:-0.54361 
49.000000000000426 1:0.60983 2:0.571247 
49.000000000000426 1:-0.772389 2:0.120741 
49.000000000000426 1:-0.209979 2:-0.03932 
49.000000000000426 1:0.688085 2:-0.358096 
49.000000000000426 1:-0.079293 2:0.602385 
49.000000000000426 1:-0.140487 2:0.865509 
49.000000000000426 1:0.78432 2:-0.24759 
49.000000000000426 1:0.207197 2:0.758844 
49.000000000000426 1:0.766372 2:0.41425 
49.000000000000426 1:0.895614 2:-0.906978 
16.264772286633384 1:-0.998254 2:-0.748267 
49.000000000000426 1:0.566868 2:-0.557133 
49.000000000000426 1:0.180182 2:-0.556364 
49.000000000000426 1:0.458285 2:0.478839 
49.000000000000426 1:0.107014 2:-0.071999 
49.000000000000426 1:-0.262971 2:-0.609005 
49.000000000000426 1:0.654611 2:-0.557474 
49.000000000000426 1:-0.254147 2:-0.077919 
49.000000000000426 1:-0.718764 2:-0.172129 
49.000000000000426 1:0.53061 2:0.511217 
49.000000000000426 1:-0.427196 2:-0.996804 
49.000000000000426 1:-0.869463 2:-0.866548 
49.000000000000426 1:-0.693534 2:0.530201 
49.000000000000426 1:-0.322821 2:-0.194775 
49.000000000000426 1:-0.083342 2:-0.220606 
49.000000000000426 1:0.778368 2:0.234253 
49.000000000000426 1:0.739915 2:-0.019358 
49.000000000000426 1:0.733321 2:-0.439071 
49.000000000000426 1:-0.114873 2:0.198683 
49.000000000000426 1:-0.076979 2:0.680969 
49.000000000000426 1:-0.127432 2:-0.277903 
49.000000000000426 1:0.071894 2:-0.013352 
49.000000000000426 1:0.813195 2:0.294138 
49.000000000000426 1:0.389342 2:-0.079122 
49.000000000000426 1:0.40995 2:-0.558001 
49.000000000000426 1:0.239829 2:0.851069 
49.000000000000426 1:-0.139728 2:0.064499 
49.000000000000426 1:-0.714224 2:0.340353 
49.000000000000426 1:-0.750061 2:0.349834 
49.000000000000426 1:-0.249069 2:-0.152544 
49.000000000000426 1:-0.01795 2:-0.871905 
49.000000000000426 1:0.275797 2:-0.231796 
49.000000000000426 1:0.300134 2:0.154509 
49.000000000000426 1:-0.01872 2:0.194226 
49.000000000000426 1:-0.919202 2:-0.086357 
49.000000000000426 1:0.340361 2:-0.833335 
49.000000000000426 1:-0.142534 2:-0.655501 
49.000000000000426 1:-0.892134 2:-0.029469 
49.000000000000426 1:-0.74223 2:-0.038398 
49.000000000000426 1:-0.464016 2:0.742313 
11.41508006776637 1:-0.126445 2:-0.005424 
49.000000000000426 1:0.083589 2:-0.614795 
49.000000000000426 1:0.733505 2:-0.131797 
49.000000000000426 1:-0.387665 2:0.521005 
49.000000000000426 1:-0.356541 2:0.738948 
49.000000000000426 1:-0.228642 2:-0.172998 
49.000000000000426 1:0.217775 2:-0.778027 
49.000000000000426 1:-0.375968 2:0.722461 
49.000000000000426 1:-0.50647 2:-0.509337 
49.000000000000426 1:-0.996887 2:-0.745675 
49.000000000000426 1:0.743097 2:-0.160984 
49.000000000000426 1:-0.340912 2:-0.808504 
49.000000000000426 1:-0.191036 2:0.027676 
49.000000000000426 1:-0.870187 2:-0.274196 
49.000000000000426 1:0.658807 2:-0.383312 
49.000000000000426 1:-0.417098 2:-0.618823 
49.000000000000426 1:-0.558947 2:0.997592 
49.000000000000426 1:-0.570217 2:0.269026 
49.000000000000426 1:0.769773 2:0.423778 
49.000000000000426 1:0.254871 2:0.718441 
22.772422879769969 1:0.648679 2:0.635213 
49.000000000000426 1:-0.770071 2:-0.441968 
49.000000000000426 1:-0.399438 2:0.762207 
49.000000000000426 1:-0.092461 2:-0.21577 
49.000000000000426 1:0.164259 2:-0.833252 
49.000000000000426 1:-0.466867 2:-0.653907 
49.000000000000426 1:-0.494928 2:-0.598944 
49.000000000000426 1:0.706673 2:0.237717 
49.000000000000426 1:-0.770541 2:0.390517 
49.000000000000426 1:0.406626 2:-0.560922 
49.000000000000426 1:0.164857 2:-0.64499 
49.000000000000426 1:-0.417793 2:-0.561472 
49.000000000000426 1:-0.754386 2:-0.205199 
49.000000000000426 1:-0.551452 2:0.265704 
49.000000000000426 1:-0.836213 2:-0.059652 
49.000000000000426 1:0.308855 2:-0.157039 
49.000000000000426 1:-0.345596 2:-0.710985 
49.000000000000426 1:0.596241 2:0.276636 
49.000000000000426 1:-0.446727 2:-0.313375 
49.000000000000426 1:0.988803 2:-0.675452 
49.000000000000426 1:-0.320653 2:-0.638679 
49.000000000000426 1:-0.221543 2:0.357992 
49.000000000000426 1:0.598899 2:0.41156 
49.000000000000426 1:0.169568 2:0.766221 
49.000000000000426 1:-0.534658 2:0.470273 
49.000000000000426 1:0.005368 2:0.751651 
49.000000000000426 1:0.641994 2:-0.637763 
49.000000000000426 1:0.091478 2:0.091292 
49.000000000000426 1:0.648322 2:-0.460067 
49.000000000000426 1:0.707429 2:-0.209359 
49.000000000000426 1:0.097723 2:0.258377 
49.000000000000426 1:-0.768348 2:0.266024 
49.000000000000426 1:0.836742 2:0.051189 
49.000000000000426 1:-0.425558 2:0.6866 
49.000000000000426 1:-0.530938 2:0.381115 
49.000000000000426 1:-0.722193 2:-0.316313 
49.000000000000426 1:-0.885044 2:0.860549 
49.000000000000426 1:-0.935511 2:0.749013 
49.000000000000426 1:0.457885 2:0.734302 
49.000000000000426 1:-0.573197 2:-0.524271 
49.000000000000426 1:0.115499 2:0.626782 
49.000000000000426 1:0.649238 2:0.62978 
49.000000000000426 1:0.683372 2:0.047226 
49.000000000000426 1:0.270594 2:0.063213 
49.000000000000426 1:0.291256 2:-0.603593 
49.000000000000426 1:0.387003 2:0.614915 
49.000000000000426 1:-0.106749 2:0.832339 
49.000000000000426 1:-0.630666 2:-0.098505 
49.000000000000426 1:-0.18269 2:-0.014672 
49.000000000000426 1:-0.092513 2:0.764249 
49.000000000000426 1:0.731936 2:0.474952 
49.000000000000426 1:0.675529 2:-0.465079 
49.000000000000426 1:0.9954 2:-0.669815 
49.000000000000426 1:-0.328495 2:0.132895 
49.000000000000426 1:0.499559 2:0.707232 
49.000000000000426 1:-0.156351 2:0.146221 
49.000000000000426 1:0.795687 2:-0.320059 
49.000000000000426 1:0.549093 2:0.500613 
49.000000000000426 1:-0.863935 2:-0.91054 
49.000000000000426 1:-0.476706 2:-0.521963 
49.000000000000426 1:-0.994354 2:0.99655 
49.000000000000426 1:-0.718464 2:-0.239188 
49.000000000000426 1:-0.40209 2:-0.099369 
49.000000000000426 1:0.231496 2:0.219861 
49.000000000000426 1:-0.377907 2:0.809455 
49.000000000000426 1:-0.228837 2:0.69336 
49.000000000000426 1:0.981767 2:0.602367 
48.515826600291462 1:0.926542 2:0.938914 
49.000000000000426 1:0.38408 2:-0.431234 
30.091779359529905 1:0.900322 2:-0.010125 
49.000000000000426 1:-0.7465 2:-0.076378 
49.000000000000426 1:0.377611 2:0.37074 
49.000000000000426 1:0.733902 2:0.12893 
49.000000000000426 1:0.497002 2:-0.579723 
49.000000000000426 1:-0.121595 2:-0.130146 
49.000000000000426 1:0.168974 2:-0.189438 
49.000000000000426 1:-0.248245 2:-0.770771 
49.000000000000426 1:0.522166 2:0.697646 
49.000000000000426 1:0.821091 2:0.308868 
49.000000000000426 1:-0.319034 2:-0.042967 
49.000000000000426 1:-0.493788 2:-0.392078 
49.000000000000426 1:0.515667 2:0.528878 
49.000000000000426 1:-0.005292 2:-0.199854 
49.000000000000426 1:0.392757 2:-0.697951 
49.000000000000426 1:0.798996 2:-0.948589 
49.000000000000426 1:0.689031 2:-0.572179 
49.000000000000426 1:0.127174 2:-0.366604 
49.000000000000426 1:-0.090073 2:0.71013 
49.000000000000426 1:-0.205912 2:0.026819 
49.000000000000426 1:0.346628 2:0.762694 
49.000000000000426 1:-0.458478 2:-0.006078 
49.000000000000426 1:-0.675516 2:0.048623 
49.000000000000426 1:0.112565 2:-0.800763 
49.000000000000426 1:0.099082 2:0.736991 
49.000000000000426 1:-0.883605 2:-0.132381 
49.000000000000426 1:0.77424 2:0.227976 
49.000000000000426 1:-0.726107 2:0.448609 
49.000000000000426 1:-0.522195 2:0.644 
49.000000000000426 1:0.142501 2:0.701996 
49.000000000000426 1:0.04573 2:0.26386 
49.000000000000426 1:0.150353 2:0.87476 
49.000000000000426 1:-0.214066 2:0.710283 
49.000000000000426 1:-0.353746 2:0.470888 
49.000000000000426 1:-0.567165 2:0.519458 
49.000000000000426 1:-0.716361 2:0.252272 
49.000000000000426 1:0.566968 2:0.265529 
49.000000000000426 1:-0.511342 2:-0.335142 
49.000000000000426 1:0.043216 2:0.644407 
49.000000000000426 1:-0.887162 2:-0.221314 
49.000000000000426 1:-0.042238 2:-0.781669 
3.7642936056730099 1:0.830849 2:-0.337938 
49.000000000000426 1:0.28202 2:0.676915 
49.000000000000426 1:0.615119 2:-0.686109 
49.000000000000426 1:0.794635 2:0.220258 
49.000000000000426 1:0.203302 2:-0.046721 
49.000000000000426 1:-0.137665 2:0.051758 
49.000000000000426 1:0.390886 2:0.530905 
49.000000000000426 1:0.282949 2:-0.734586 
49.000000000000426 1:-0.084736 2:0.345778 
49.000000000000426 1:-0.840165 2:0.066644 
49.000000000000426 1:-0.067141 2:-0.799682 
49.000000000000426 1:-0.845707 2:-0.14188 
49.000000000000426 1:-0.270752 2:0.781813 
49.000000000000426 1:0.799953 2:0.039969 
49.000000000000426 1:0.38039 2:0.808067 
49.000000000000426 1:-0.250357 2:-0.83459 
49.000000000000426 1:0.780758 2:-0.214665 
49.000000000000426 1:-0.669119 2:-0.447811 
49.000000000000426 1:0.715712 2:-0.073139 
49.000000000000426 1:0.13131 2:0.236523 
49.000000000000426 1:-0.821692 2:0.911615 
49.000000000000426 1:0.263834 2:0.035084 
49.000000000000426 1:0.33693 2:-0.739663 
49.000000000000426 1:-0.56396 2:-0.398796 
49.000000000000426 1:0.077853 2:-0.122984 
49.000000000000426 1:0.438681 2:0.738704 
49.000000000000426 1:-0.370573 2:0.59815 
49.000000000000426 1:-0.215776 2:-0.59686 
49.000000000000426 1:0.058314 2:-0.112197 
49.000000000000426 1:0.143112 2:-0.275918 
49.000000000000426 1:-0.878784 2:-0.869775 
49.000000000000426 1:0.032177 2:-0.852867 
49.000000000000426 1:-0.670632 2:-0.430423 
49.000000000000426 1:-0.599749 2:-0.504886 
49.000000000000426 1:0.820186 2:0.30484 
49.000000000000426 1:0.41725 2:0.591542 
49.000000000000426 1:0.483766 2:-0.604824 
49.000000000000426 1:-0.606516 2:-0.622106 
49.000000000000426 1:0.543426 2:-0.340095 
49.000000000000426 1:0.257001 2:-0.0337 
49.000000000000426 1:0.788815 2:-0.20082 
49.000000000000426 1:-0.291284 2:0.166119 
49.000000000000426 1:0.918743 2:0.941798 
49.000000000000426 1:0.659425 2:-0.49531 
49.000000000000426 1:-0.57554 2:-0.649662 
49.000000000000426 1:-0.066311 2:0.825448 
49.000000000000426 1:-0.360379 2:-0.588504 
49.000000000000426 1:0.897365 2:-0.883053 
49.000000000000426 1:-0.896724 2:-0.928941 
49.000000000000426 1:-0.184145 2:0.550365 
49.000000000000426 1:-0.119154 2:0.820931 
49.000000000000426 1:-0.612777 2:-0.135731 
49.000000000000426 1:-0.394799 2:-0.547679 
49.000000000000426 1:0.003592 2:-0.432449 
49.000000000000426 1:0.708677 2:-0.374922 
49.000000000000426 1:-0.326797 2:-0.095528 
49.000000000000426 1:-0.868008 2:0.23179 
49.000000000000426 1:0.553027 2:-0.231429 
49.000000000000426 1:-0.505287 2:0.582733 
49.000000000000426 1:-0.485921 2:0.548823 
49.000000000000426 1:0.18744 2:-0.090888 
49.000000000000426 1:0.769566 2:0.414688 
49.000000000000426 1:0.24292 2:0.802496 
49.000000000000426 1:0.208882 2:-0.096047 
49.000000000000426 1:-0.189607 2:-0.248843 
49.000000000000426 1:0.042097 2:0.098047 
49.000000000000426 1:0.991263 2:-0.701407 
49.000000000000426 1:-0.863858 2:-0.056941 
49.000000000000426 1:-0.20012 2:0.859142 
49.000000000000426 1:-0.094977 2:0.737234 
49.000000000000426 1:0.675769 2:-0.357175 
49.000000000000426 1:0.662385 2:0.007782 
49.000000000000426 1:-0.880249 2:0.879063 
49.000000000000426 1:0.837736 2:0.162158 
3.2584824648713009 1:-0.91654 2:0.195028 
49.000000000000426 1:-0.149099 2:-0.295523 
49.000000000000426 1:0.711045 2:0.436731 
49.000000000000426 1:-0.754644 2:-0.362582 
49.000000000000426 1:0.590985 2:0.180393 
49.000000000000426 1:-0.171911 2:0.840674 
49.000000000000426 1:0.392325 2:0.802106 
49.000000000000426 1:-0.507825 2:0.390426 
49.000000000000426 1:-0.652622 2:0.161261 
49.000000000000426 1:0.226192 2:0.014533 
49.000000000000426 1:-0.094889 2:0.858996 
49.000000000000426 1:-0.224796 2:0.827092 
49.000000000000426 1:-0.22946 2:0.766496 
49.000000000000426 1:-0.34895 2:-0.678016 
49.000000000000426 1:-0.655601 2:-0.315029 
49.000000000000426 1:0.364624 2:-0.704486 
49.000000000000426 1:-0.64443 2:0.088552 
49.000000000000426 1:-0.431907 2:0.792152 
49.000000000000426 1:-0.367876 2:-0.696602 
49.000000000000426 1:-0.194413 2:0.797019 
49.000000000000426 1:0.072751 2:-0.621264 
49.000000000000426 1:0.865624 2:-0.908056 
49.000000000000426 1:-0.99325 2:-0.646117 
49.000000000000426 1:-0.276191 2:0.650168 
49.000000000000426 1:0.062654 2:-0.88371 
49.000000000000426 1:0.644132 2:0.408888 
49.000000000000426 1:0.772896 2:-0.194904 
49.000000000000426 1:0.259488 2:0.664065 
49.000000000000426 1:-0.258726 2:0.563673 
49.000000000000426 1:0.026828 2:-0.897488 
49.000000000000426 1:-0.32683 2:-0.068527 
49.000000000000426 1:-0.743434 2:0.438925 
49.000000000000426 1:0.651718 2:0.22639 
49.000000000000426 1:0.174281 2:-0.78085 
49.000000000000426 1:0.859151 2:0.160132 
49.000000000000426 1:-0.081456 2:0.3583 
49.000000000000426 1:-0.44089 2:-0.656717 
49.000000000000426 1:0.605486 2:-0.100724 
49.000000000000426 1:-0.403275 2:-0.712465 
49.000000000000426 1:-0.411039 2:0.54595 
49.000000000000426 1:0.225526 2:-0.868549 
49.000000000000426 1:0.599216 2:-0.338719 
49.000000000000426 1:0.238893 2:0.6787 
49.000000000000426 1:0.439502 2:0.619657 
49.000000000000426 1:-0.369722 2:-0.797677 
49.000000000000426 1:-0.873775 2:-0.864107 
49.000000000000426 1:0.395581 2:-0.781875 
43.312380397646933 1:-0.991797 2:-0.991915 
49.000000000000426 1:0.166843 2:0.750635 
49.000000000000426 1:-0.701481 2:0.315986 
49.000000000000426 1:0.696859 2:0.49975 
49.000000000000426 1:-0.042434 2:0.822992 
49.000000000000426 1:0.010473 2:0.662304 
49.000000000000426 1:-0.493911 2:-0.46512 
49.000000000000426 1:-0.500476 2:0.999318 
49.000000000000426 1:0.009835 2:-0.286435 
49.000000000000426 1:0.824917 2:-0.910474 
49.000000000000426 1:-0.524007 2:0.567499 
49.000000000000426 1:-0.150066 2:-0.104323 
49.000000000000426 1:-0.593051 2:-0.250934 
49.000000000000426 1:-0.31074 2:0.739211 
49.000000000000426 1:0.178636 2:0.182688 
49.000000000000426 1:0.650484 2:-0.988731 
49.000000000000426 1:0.989751 2:0.643573 
49.000000000000426 1:0.148315 2:0.261095 
49.000000000000426 1:-0.157348 2:0.648551 
49.000000000000426 1:-0.064286 2:0.783673 
49.000000000000426 1:0.066452 2:-0.79555 
49.000000000000426 1:0.540745 2:-0.62967 
49.000000000000426 1:0.140434 2:-0.071961 
49.000000000000426 1:-0.066621 2:0.091213 
49.000000000000426 1:0.324102 2:-0.530172 
49.000000000000426 1:-0.974753 2:0.639663 
49.000000000000426 1:0.702394 2:0.208566 
49.000000000000426 1:0.408418 2:-0.764447 
49.000000000000426 1:0.618538 2:0.384789 
49.000000000000426 1:0.835995 2:0.19037 
49.000000000000426 1:-0.536578 2:-0.571004 
49.000000000000426 1:0.740621 2:0.481525 
49.000000000000426 1:-0.080148 2:0.84237 
49.000000000000426 1:-0.336616 2:-0.484066 
49.000000000000426 1:0.693172 2:0.233186 
49.000000000000426 1:0.56364 2:0.424716 
49.000000000000426 1:-0.325263 2:-0.724667 
49.000000000000426 1:-0.230582 2:-0.852217 
49.000000000000426 1:-0.512314 2:0.645705 
49.000000000000426 1:0.462924 2:-0.562303 
49.000000000000426 1:0.428604 2:0.403964 
49.000000000000426 1:0.699234 2:0.587509 
49.000000000000426 1:0.695617 2:0.226006 
49.000000000000426 1:-0.023226 2:0.86322 
49.000000000000426 1:0.089551 2:-0.873706 
49.000000000000426 1:-0.43095 2:0.529648 
49.000000000000426 1:-0.0803 2:-0.759326 
49.000000000000426 1:0.100207 2:-0.292218 
49.000000000000426 1:-0.014597 2:0.32347 
49.000000000000426 1:-0.180706 2:-0.711844 
49.000000000000426 1:0.267994 2:0.025065 
