svm_type c_svc
kernel_type polynomial
degree 3
gamma 6.5999999999999925
coef0 0
nr_class 2
total_sv 3124
rho 2.830582644656359e+22
label 0 1
nr_sv 1565 1559
SV
79.799999999999741 1:52 2:4 4:3 6:1 11:1666 12:1 13:999 16:1.1 17:93.994 18:-36.4 19:4.857 20:5191 
79.799999999999741 1:45 2:1 4:1 5:1 6:1 11:787 12:1 13:999 16:1.1 17:93.994 18:-36.4 19:4.857 20:5191 
79.799999999999741 1:47 2:10 4:6 5:1 11:449 12:1 13:999 16:1.1 17:93.994 18:-36.4 19:4.857 20:5191 
79.799999999999741 1:51 2:3 4:3 6:1 11:812 12:1 13:999 16:1.1 17:93.994 18:-36.4 19:4.857 20:5191 
79.799999999999741 1:39 2:1 3:2 4:1 5:1 11:2033 12:1 13:999 16:1.1 17:93.994 18:-36.4 19:4.857 20:5191 
79.799999999999741 1:48 2:3 6:1 11:717 12:1 13:999 16:1.1 17:93.994 18:-36.4 19:4.857 20:5191 
79.799999999999741 1:40 2:2 4:3 5:1 6:1 11:683 12:2 13:999 16:1.1 17:93.994 18:-36.4 19:4.857 20:5191 
79.799999999999741 1:54 2:6 3:2 4:6 11:611 12:2 13:999 16:1.1 17:93.994 18:-36.4 19:4.857 20:5191 
79.799999999999741 1:34 2:1 4:1 11:962 12:1 13:999 16:1.1 17:93.994 18:-36.4 19:4.857 20:5191 
79.799999999999741 1:58 2:3 3:2 6:1 11:254 12:2 13:999 16:1.1 17:93.994 18:-36.4 19:4.857 20:5191 
79.799999999999741 1:50 2:1 3:2 4:4 11:680 12:2 13:999 16:1.1 17:93.994 18:-36.4 19:4.857 20:5191 
79.799999999999741 1:38 2:1 4:1 6:1 11:347 12:3 13:999 16:1.1 17:93.994 18:-36.4 19:4.857 20:5191 
79.799999999999741 1:36 2:4 4:4 10:1 11:769 12:2 13:999 16:1.1 17:93.994 18:-36.4 19:4.857 20:5191 
79.799999999999741 1:52 2:8 4:6 6:1 10:1 11:678 12:1 13:999 16:1.1 17:93.994 18:-36.4 19:4.857 20:5191 
79.799999999999741 1:51 2:2 4:2 5:1 6:1 10:1 11:531 12:1 13:999 16:1.1 17:93.994 18:-36.4 19:4.857 20:5191 
79.799999999999741 1:51 2:1 3:2 4:1 5:1 6:1 10:1 11:568 12:1 13:999 16:1.1 17:93.994 18:-36.4 19:4.857 20:5191 
79.799999999999741 1:40 2:6 4:3 5:1 6:2 7:2 10:1 11:427 12:1 13:999 16:1.1 17:93.994 18:-36.4 19:4.857 20:5191 
79.799999999999741 1:33 2:8 4:6 10:1 11:792 12:1 13:999 16:1.1 17:93.994 18:-36.4 19:4.857 20:5191 
79.799999999999741 1:57 2:5 4:6 6:1 10:1 11:383 12:1 13:999 16:1.1 17:93.994 18:-36.4 19:4.857 20:5191 
79.799999999999741 1:32 2:4 4:4 10:1 11:1906 12:3 13:999 16:1.1 17:93.994 18:-36.4 19:4.857 20:5191 
79.799999999999741 1:32 2:3 4:3 6:1 10:1 11:477 12:1 13:999 16:1.1 17:93.994 18:-36.4 19:4.857 20:5191 
79.799999999999741 1:46 2:6 4:6 6:1 10:1 11:716 12:2 13:999 16:1.1 17:93.994 18:-36.4 19:4.857 20:5191 
79.799999999999741 1:40 2:4 4:3 10:1 11:631 12:2 13:999 16:1.1 17:93.994 18:-36.4 19:4.857 20:5191 
79.799999999999741 1:34 2:3 10:1 11:800 12:4 13:999 16:1.1 17:93.994 18:-36.4 19:4.857 20:5191 
79.799999999999741 1:38 2:4 4:4 10:2 11:479 12:2 13:999 16:1.1 17:93.994 18:-36.4 19:4.856 20:5191 
79.799999999999741 1:50 2:8 4:6 10:2 11:312 12:1 13:999 16:1.1 17:93.994 18:-36.4 19:4.856 20:5191 
79.799999999999741 1:36 2:1 3:1 4:5 6:1 10:2 11:852 12:1 13:999 16:1.1 17:93.994 18:-36.4 19:4.856 20:5191 
79.799999999999741 1:39 2:2 3:1 4:5 6:1 10:2 11:1521 12:1 13:999 16:1.1 17:93.994 18:-36.4 19:4.856 20:5191 
79.799999999999741 1:55 2:3 5:1 10:2 11:1581 12:2 13:999 16:1.1 17:93.994 18:-36.4 19:4.856 20:5191 
79.799999999999741 1:55 2:3 6:1 7:1 10:2 11:1101 12:1 13:999 16:1.1 17:93.994 18:-36.4 19:4.856 20:5191 
79.799999999999741 1:35 2:2 3:1 5:1 10:2 11:803 12:1 13:999 16:1.1 17:93.994 18:-36.4 19:4.856 20:5191 
79.799999999999741 1:51 2:3 6:1 10:2 11:1009 12:3 13:999 16:1.1 17:93.994 18:-36.4 19:4.856 20:5191 
79.799999999999741 1:47 2:6 4:6 10:2 11:550 12:3 13:999 16:1.1 17:93.994 18:-36.4 19:4.856 20:5191 
79.799999999999741 1:34 2:6 4:6 10:2 11:984 12:1 13:999 16:1.1 17:93.994 18:-36.4 19:4.856 20:5191 
79.799999999999741 1:49 2:4 4:4 5:1 6:2 7:2 10:2 11:865 12:2 13:999 16:1.1 17:93.994 18:-36.4 19:4.856 20:5191 
79.799999999999741 1:51 2:1 4:5 6:1 10:3 11:151 12:1 13:999 16:1.1 17:93.994 18:-36.4 19:4.855 20:5191 
79.799999999999741 1:31 2:2 4:1 10:3 11:784 12:1 13:999 16:1.1 17:93.994 18:-36.4 19:4.855 20:5191 
79.799999999999741 1:39 2:6 4:6 10:3 11:1007 12:1 13:999 16:1.1 17:93.994 18:-36.4 19:4.855 20:5191 
79.799999999999741 1:33 2:1 3:1 4:1 6:1 10:3 11:789 12:1 13:999 16:1.1 17:93.994 18:-36.4 19:4.855 20:5191 
79.799999999999741 1:30 2:3 4:3 5:1 6:1 10:3 11:180 12:1 13:999 16:1.1 17:93.994 18:-36.4 19:4.855 20:5191 
79.799999999999741 1:45 2:6 4:6 6:1 7:1 10:3 11:807 12:2 13:999 16:1.1 17:93.994 18:-36.4 19:4.855 20:5191 
79.799999999999741 1:36 2:2 4:1 6:1 10:3 11:389 12:2 13:999 16:1.1 17:93.994 18:-36.4 19:4.855 20:5191 
79.799999999999741 1:49 2:2 4:1 7:1 10:3 11:627 12:3 13:999 16:1.1 17:93.994 18:-36.4 19:4.855 20:5191 
79.799999999999741 1:44 2:8 4:4 10:3 11:626 12:6 13:999 16:1.1 17:93.994 18:-36.4 19:4.855 20:5191 
79.799999999999741 1:39 2:1 3:2 4:1 6:1 10:3 11:956 12:2 13:999 16:1.1 17:93.994 18:-36.4 19:4.855 20:5191 
79.799999999999741 1:31 2:3 3:1 4:3 10:3 11:732 12:2 13:999 16:1.1 17:93.994 18:-36.4 19:4.855 20:5191 
79.799999999999741 1:54 2:2 4:6 10:4 11:847 12:1 13:999 16:1.1 17:93.994 18:-36.4 19:4.855 20:5191 
79.799999999999741 1:59 2:6 4:6 10:4 11:659 12:2 13:999 16:1.1 17:93.994 18:-36.4 19:4.855 20:5191 
79.799999999999741 1:25 2:2 4:1 10:4 11:498 12:1 13:999 16:1.1 17:93.994 18:-36.4 19:4.855 20:5191 
79.799999999999741 1:36 2:7 3:2 4:4 5:1 6:1 10:4 11:705 12:1 13:999 16:1.1 17:93.994 18:-36.4 19:4.855 20:5191 
79.799999999999741 1:26 2:2 4:1 6:1 7:1 10:4 11:2462 12:1 13:999 16:1.1 17:93.994 18:-36.4 19:4.855 20:5191 
79.799999999999741 1:58 2:5 3:2 4:6 6:1 10:4 11:825 12:1 13:999 16:1.1 17:93.994 18:-36.4 19:4.855 20:5191 
79.799999999999741 1:35 2:7 4:3 5:1 10:4 11:471 12:2 13:999 16:1.1 17:93.994 18:-36.4 19:4.855 20:5191 
79.799999999999741 1:40 2:2 4:1 6:1 7:1 10:4 11:1087 12:2 13:999 16:1.1 17:93.994 18:-36.4 19:4.855 20:5191 
79.799999999999741 1:34 2:3 4:3 5:1 6:1 10:4 11:1054 12:2 13:999 16:1.1 17:93.994 18:-36.4 19:4.855 20:5191 
79.799999999999741 1:50 2:7 4:3 6:1 10:4 11:1713 12:1 13:999 16:1.1 17:93.994 18:-36.4 19:4.855 20:5191 
79.799999999999741 1:50 2:3 3:2 4:3 10:4 11:878 12:3 13:999 16:1.1 17:93.994 18:-36.4 19:4.855 20:5191 
79.799999999999741 1:37 2:4 4:4 6:1 10:4 11:834 12:9 13:999 16:1.1 17:93.994 18:-36.4 19:4.855 20:5191 
79.799999999999741 1:43 2:3 6:1 10:4 11:1534 12:2 13:999 16:1.1 17:93.994 18:-36.4 19:4.855 20:5191 
79.799999999999741 1:38 2:3 4:2 5:1 6:1 11:836 12:4 13:999 16:1.1 17:93.994 18:-36.4 19:4.857 20:5191 
79.799999999999741 1:29 2:4 3:1 4:6 11:1147 12:2 13:999 16:1.1 17:93.994 18:-36.4 19:4.857 20:5191 
79.799999999999741 1:56 2:10 11:820 12:1 13:999 16:1.1 17:93.994 18:-36.4 19:4.857 20:5191 
79.799999999999741 1:39 2:7 4:6 6:1 11:501 12:2 13:999 16:1.1 17:93.994 18:-36.4 19:4.857 20:5191 
79.799999999999741 1:27 2:2 3:1 4:1 5:1 6:2 7:2 11:1495 12:4 13:999 16:1.1 17:93.994 18:-36.4 19:4.857 20:5191 
79.799999999999741 1:37 2:10 3:1 4:6 6:1 11:744 12:2 13:999 16:1.1 17:93.994 18:-36.4 19:4.857 20:5191 
79.799999999999741 1:33 2:4 4:3 11:493 12:1 13:999 16:1.1 17:93.994 18:-36.4 19:4.857 20:5191 
79.799999999999741 1:34 2:3 3:1 4:2 5:1 6:1 11:891 12:1 13:999 16:1.1 17:93.994 18:-36.4 19:4.857 20:5191 
79.799999999999741 1:57 2:5 3:1 4:1 6:2 7:2 11:1266 12:1 13:999 16:1.1 17:93.994 18:-36.4 19:4.857 20:5191 
79.799999999999741 1:48 2:3 4:3 6:1 10:1 11:723 12:1 13:999 16:1.1 17:93.994 18:-36.4 19:4.856 20:5191 
79.799999999999741 1:51 2:7 4:3 5:1 10:1 11:1386 12:1 13:999 16:1.1 17:93.994 18:-36.4 19:4.856 20:5191 
79.799999999999741 1:34 2:2 4:6 10:1 11:1167 12:1 13:999 16:1.1 17:93.994 18:-36.4 19:4.856 20:5191 
79.799999999999741 1:35 2:1 3:2 4:4 5:1 10:1 11:806 12:1 13:999 16:1.1 17:93.994 18:-36.4 19:4.856 20:5191 
79.799999999999741 1:56 2:2 4:5 5:1 6:1 10:1 11:705 12:1 13:999 16:1.1 17:93.994 18:-36.4 19:4.856 20:5191 
79.799999999999741 1:44 2:6 4:6 5:1 10:1 11:730 12:1 13:999 16:1.1 17:93.994 18:-36.4 19:4.856 20:5191 
79.799999999999741 1:57 2:5 4:6 6:1 10:1 11:768 12:1 13:999 16:1.1 17:93.994 18:-36.4 19:4.856 20:5191 
79.799999999999741 1:59 2:5 4:6 10:1 11:916 12:2 13:999 16:1.1 17:93.994 18:-36.4 19:4.856 20:5191 
79.799999999999741 1:51 2:3 5:1 10:1 11:708 12:2 13:999 16:1.1 17:93.994 18:-36.4 19:4.856 20:5191 
79.799999999999741 1:30 2:6 4:6 10:1 11:851 12:4 13:999 16:1.1 17:93.994 18:-36.4 19:4.856 20:5191 
79.799999999999741 1:29 2:2 3:1 4:1 6:1 10:1 11:1052 12:1 13:999 16:1.1 17:93.994 18:-36.4 19:4.856 20:5191 
79.799999999999741 1:46 2:3 4:5 5:1 6:1 10:1 11:379 12:2 13:999 16:1.1 17:93.994 18:-36.4 19:4.856 20:5191 
79.799999999999741 1:34 2:3 3:1 6:1 7:1 10:1 11:1093 12:3 13:999 16:1.1 17:93.994 18:-36.4 19:4.856 20:5191 
79.799999999999741 1:25 2:3 4:3 10:1 11:816 12:3 13:999 16:1.1 17:93.994 18:-36.4 19:4.856 20:5191 
41.029945990845064 1:34 2:3 4:2 10:1 11:384 12:1 13:999 16:1.1 17:93.994 18:-36.4 19:4.856 20:5191 
79.799999999999741 1:44 2:10 3:2 4:6 6:1 10:1 11:1032 12:1 13:999 16:1.1 17:93.994 18:-36.4 19:4.856 20:5191 
79.799999999999741 1:37 2:6 4:6 6:1 10:2 11:735 12:8 13:999 16:1.1 17:93.994 18:-36.4 19:4.859 20:5191 
79.799999999999741 1:40 2:3 3:1 4:3 5:1 6:1 10:2 11:824 12:2 13:999 16:1.1 17:93.994 18:-36.4 19:4.859 20:5191 
79.799999999999741 1:44 2:3 3:2 5:1 6:1 10:2 11:546 12:1 13:999 16:1.1 17:93.994 18:-36.4 19:4.859 20:5191 
79.799999999999741 1:40 2:4 4:4 10:2 11:568 12:1 13:999 16:1.1 17:93.994 18:-36.4 19:4.859 20:5191 
79.799999999999741 1:29 2:1 3:2 4:1 10:2 11:869 12:1 13:999 16:1.1 17:93.994 18:-36.4 19:4.859 20:5191 
79.799999999999741 1:28 2:1 3:1 4:1 10:2 11:322 12:1 13:999 16:1.1 17:93.994 18:-36.4 19:4.859 20:5191 
79.799999999999741 1:29 2:3 4:4 6:1 10:2 11:749 12:2 13:999 16:1.1 17:93.994 18:-36.4 19:4.859 20:5191 
79.799999999999741 1:24 2:1 3:1 4:1 6:1 10:2 11:977 12:1 13:999 16:1.1 17:93.994 18:-36.4 19:4.859 20:5191 
79.799999999999741 1:54 3:2 5:1 10:2 11:762 12:2 13:999 16:1.1 17:93.994 18:-36.4 19:4.859 20:5191 
79.799999999999741 1:33 2:2 4:1 6:1 7:1 10:2 11:1044 12:2 13:999 16:1.1 17:93.994 18:-36.4 19:4.859 20:5191 
79.799999999999741 1:36 2:10 4:3 10:2 11:668 12:1 13:999 16:1.1 17:93.994 18:-36.4 19:4.859 20:5191 
79.799999999999741 1:27 2:3 3:1 4:2 6:1 10:2 11:634 12:10 13:999 16:1.1 17:93.994 18:-36.4 19:4.859 20:5191 
79.799999999999741 1:43 2:1 3:1 4:1 5:1 6:1 10:2 11:902 12:5 13:999 16:1.1 17:93.994 18:-36.4 19:4.859 20:5191 
79.799999999999741 1:35 2:4 4:4 10:2 11:554 12:1 13:999 16:1.1 17:93.994 18:-36.4 19:4.859 20:5191 
79.799999999999741 1:26 2:11 3:1 4:1 10:2 11:852 12:2 13:999 16:1.1 17:93.994 18:-36.4 19:4.859 20:5191 
79.799999999999741 1:41 2:2 3:1 4:1 10:2 11:594 12:2 13:999 16:1.1 17:93.994 18:-36.4 19:4.859 20:5191 
79.799999999999741 1:26 2:3 3:1 4:3 10:2 11:738 12:2 13:999 16:1.1 17:93.994 18:-36.4 19:4.859 20:5191 
79.799999999999741 1:28 2:3 4:2 6:1 7:1 10:2 11:482 12:2 13:999 16:1.1 17:93.994 18:-36.4 19:4.859 20:5191 
79.799999999999741 1:29 2:4 4:6 6:1 10:2 11:1118 12:2 13:999 16:1.1 17:93.994 18:-36.4 19:4.859 20:5191 
79.799999999999741 1:31 2:3 3:1 4:5 10:3 11:735 12:1 13:999 16:1.1 17:93.994 18:-36.4 19:4.86 20:5191 
79.799999999999741 1:34 2:1 4:2 6:1 7:1 10:3 11:1000 12:1 13:999 16:1.1 17:93.994 18:-36.4 19:4.86 20:5191 
79.799999999999741 1:49 2:1 4:2 5:1 6:1 10:3 11:1165 12:1 13:999 16:1.1 17:93.994 18:-36.4 19:4.86 20:5191 
79.799999999999741 1:36 2:9 3:1 4:2 5:1 10:3 11:1244 12:3 13:999 16:1.1 17:93.994 18:-36.4 19:4.86 20:5191 
79.799999999999741 1:26 2:2 3:1 4:1 6:1 10:3 11:918 12:1 13:999 16:1.1 17:93.994 18:-36.4 19:4.86 20:5191 
79.799999999999741 1:32 2:1 3:1 4:4 6:1 10:3 11:561 12:1 13:999 16:1.1 17:93.994 18:-36.4 19:4.86 20:5191 
79.799999999999741 1:47 2:3 4:4 5:1 7:1 10:3 11:964 12:2 13:999 16:1.1 17:93.994 18:-36.4 19:4.86 20:5191 
79.799999999999741 1:26 2:7 3:1 4:3 7:1 10:3 11:546 12:8 13:999 16:1.1 17:93.994 18:-36.4 19:4.86 20:5191 
79.799999999999741 1:38 2:4 4:6 6:1 10:3 11:770 12:2 13:999 16:1.1 17:93.994 18:-36.4 19:4.86 20:5191 
79.799999999999741 1:50 2:5 5:1 6:1 10:3 11:855 12:4 13:999 16:1.1 17:93.994 18:-36.4 19:4.86 20:5191 
79.799999999999741 1:39 2:3 5:1 7:1 10:3 11:875 12:5 13:999 16:1.1 17:93.994 18:-36.4 19:4.86 20:5191 
79.799999999999741 1:58 2:8 3:2 4:5 6:1 10:3 11:491 12:2 13:999 16:1.1 17:93.994 18:-36.4 19:4.86 20:5191 
79.799999999999741 1:38 2:1 4:1 6:1 10:4 11:512 12:1 13:999 16:1.1 17:93.994 18:-36.4 19:4.859 20:5191 
79.799999999999741 1:53 2:3 4:3 5:1 6:1 10:4 11:225 12:1 13:999 16:1.1 17:93.994 18:-36.4 19:4.859 20:5191 
79.799999999999741 1:33 2:3 3:1 4:3 5:1 6:1 10:4 11:601 12:1 13:999 16:1.1 17:93.994 18:-36.4 19:4.859 20:5191 
79.799999999999741 1:36 2:10 4:6 7:1 10:4 11:679 12:17 13:999 16:1.1 17:93.994 18:-36.4 19:4.859 20:5191 
79.799999999999741 1:36 2:3 5:1 6:1 10:4 11:865 12:1 13:999 16:1.1 17:93.994 18:-36.4 19:4.859 20:5191 
79.799999999999741 1:29 2:1 3:1 4:3 10:4 11:703 12:4 13:999 16:1.1 17:93.994 18:-36.4 19:4.859 20:5191 
79.799999999999741 1:37 2:1 4:1 10:4 11:523 12:3 13:999 16:1.1 17:93.994 18:-36.4 19:4.859 20:5191 
79.799999999999741 1:46 2:4 4:3 6:1 10:4 11:1135 12:2 13:999 16:1.1 17:93.994 18:-36.4 19:4.859 20:5191 
79.799999999999741 1:31 2:4 4:6 10:4 11:1106 12:3 13:999 16:1.1 17:93.994 18:-36.4 19:4.859 20:5191 
79.799999999999741 1:27 2:3 3:2 4:5 6:1 10:4 11:1408 12:2 13:999 16:1.1 17:93.994 18:-36.4 19:4.859 20:5191 
79.799999999999741 1:37 2:2 4:1 7:1 10:4 11:851 12:2 13:999 16:1.1 17:93.994 18:-36.4 19:4.859 20:5191 
79.799999999999741 1:38 2:10 4:3 10:4 11:522 12:5 13:999 16:1.1 17:93.994 18:-36.4 19:4.859 20:5191 
23.226798140617731 1:23 2:1 4:3 10:4 11:1144 12:3 13:999 16:1.1 17:93.994 18:-36.4 19:4.859 20:5191 
79.799999999999741 1:34 2:3 4:3 5:1 7:1 10:4 11:1245 12:19 13:999 16:1.1 17:93.994 18:-36.4 19:4.859 20:5191 
79.799999999999741 1:37 2:4 4:3 10:4 11:1110 12:3 13:999 16:1.1 17:93.994 18:-36.4 19:4.859 20:5191 
79.799999999999741 1:51 2:3 7:1 10:4 11:1187 12:4 13:999 16:1.1 17:93.994 18:-36.4 19:4.859 20:5191 
79.799999999999741 1:48 2:4 4:5 6:1 11:429 12:1 13:999 16:1.1 17:93.994 18:-36.4 19:4.858 20:5191 
79.799999999999741 1:51 2:3 5:1 6:1 11:792 12:4 13:999 16:1.1 17:93.994 18:-36.4 19:4.858 20:5191 
79.799999999999741 1:38 2:6 4:5 11:610 12:1 13:999 16:1.1 17:93.994 18:-36.4 19:4.858 20:5191 
79.799999999999741 1:29 3:1 4:1 11:1203 12:3 13:999 16:1.1 17:93.994 18:-36.4 19:4.858 20:5191 
79.799999999999741 1:33 2:2 4:6 11:643 12:1 13:999 16:1.1 17:93.994 18:-36.4 19:4.858 20:5191 
79.799999999999741 1:41 2:3 3:2 4:3 11:53 12:1 13:999 16:1.1 17:93.994 18:-36.4 19:4.858 20:5191 
79.799999999999741 1:47 2:4 4:4 5:1 6:1 11:197 12:4 13:999 16:1.1 17:93.994 18:-36.4 19:4.858 20:5191 
79.799999999999741 1:37 2:3 3:1 4:6 6:1 11:492 12:9 13:999 16:1.1 17:93.994 18:-36.4 19:4.858 20:5191 
43.411618834135361 1:42 2:6 4:2 5:1 6:1 11:3078 12:4 13:999 16:1.1 17:93.994 18:-36.4 19:4.858 20:5191 
79.799999999999741 1:44 2:3 5:1 10:1 11:1452 12:10 13:999 16:1.1 17:93.994 18:-36.4 19:4.856 20:5191 
79.799999999999741 1:37 2:2 4:6 10:1 11:1376 12:2 13:999 16:1.1 17:93.994 18:-36.4 19:4.856 20:5191 
79.799999999999741 1:45 3:2 4:6 10:1 11:834 12:6 13:999 16:1.1 17:93.994 18:-36.4 19:4.856 20:5191 
79.799999999999741 1:43 2:10 4:6 10:1 11:535 12:1 13:999 16:1.1 17:93.994 18:-36.4 19:4.856 20:5191 
79.799999999999741 1:37 2:2 4:1 6:1 7:1 10:1 11:697 12:2 13:999 16:1.1 17:93.994 18:-36.4 19:4.856 20:5191 
79.799999999999741 1:29 2:11 3:1 4:6 6:1 10:1 11:1042 12:17 13:999 16:1.1 17:93.994 18:-36.4 19:4.856 20:5191 
79.799999999999741 1:33 2:2 4:1 6:1 10:1 11:742 12:2 13:999 16:1.1 17:93.994 18:-36.4 19:4.856 20:5191 
79.799999999999741 1:47 2:3 4:3 10:1 11:625 12:2 13:999 16:1.1 17:93.994 18:-36.4 19:4.856 20:5191 
79.799999999999741 1:50 2:3 4:2 5:1 10:1 11:1446 12:1 13:999 16:1.1 17:93.994 18:-36.4 19:4.856 20:5191 
79.799999999999741 1:43 2:1 4:4 6:1 10:1 11:614 12:2 13:999 16:1.1 17:93.994 18:-36.4 19:4.856 20:5191 
79.799999999999741 1:22 2:3 6:2 7:2 10:1 11:777 12:3 13:999 16:1.1 17:93.994 18:-36.4 19:4.856 20:5191 
79.799999999999741 1:42 2:3 3:2 10:1 11:747 12:5 13:999 16:1.1 17:93.994 18:-36.4 19:4.856 20:5191 
79.799999999999741 1:39 2:1 4:1 7:1 10:1 11:480 12:4 13:999 16:1.1 17:93.994 18:-36.4 19:4.856 20:5191 
79.799999999999741 1:53 2:3 4:3 5:1 10:2 11:872 12:5 13:999 16:1.1 17:93.994 18:-36.4 19:4.858 20:5191 
79.799999999999741 1:35 2:5 4:4 10:2 11:759 12:1 13:999 16:1.1 17:93.994 18:-36.4 19:4.858 20:5191 
79.799999999999741 1:35 2:3 4:4 6:1 7:1 10:2 11:634 12:2 13:999 16:1.1 17:93.994 18:-36.4 19:4.858 20:5191 
79.799999999999741 1:40 2:3 4:3 6:1 7:1 10:2 11:951 12:2 13:999 16:1.1 17:93.994 18:-36.4 19:4.858 20:5191 
79.799999999999741 1:40 2:2 3:2 4:4 10:2 11:509 12:1 13:999 16:1.1 17:93.994 18:-36.4 19:4.858 20:5191 
79.799999999999741 1:40 2:2 3:1 4:1 6:1 10:2 11:738 12:3 13:999 16:1.1 17:93.994 18:-36.4 19:4.858 20:5191 
79.799999999999741 1:44 2:4 3:2 4:4 10:2 11:445 12:1 13:999 16:1.1 17:93.994 18:-36.4 19:4.858 20:5191 
79.799999999999741 1:30 2:2 4:6 10:2 11:573 12:1 13:999 16:1.1 17:93.994 18:-36.4 19:4.858 20:5191 
79.799999999999741 1:57 2:6 4:3 10:2 11:890 12:26 13:999 16:1.1 17:93.994 18:-36.4 19:4.858 20:5191 
79.799999999999741 1:45 2:3 3:2 4:3 10:2 11:1162 12:2 13:999 16:1.1 17:93.994 18:-36.4 19:4.858 20:5191 
79.799999999999741 1:39 2:4 4:4 6:2 7:2 10:2 11:575 12:2 13:999 16:1.1 17:93.994 18:-36.4 19:4.858 20:5191 
79.799999999999741 1:56 2:1 3:2 4:1 5:1 6:1 10:2 11:935 12:1 13:999 16:1.1 17:93.994 18:-36.4 19:4.858 20:5191 
79.799999999999741 1:33 2:8 3:2 4:5 10:2 11:1161 12:4 13:999 16:1.1 17:93.994 18:-36.4 19:4.858 20:5191 
79.799999999999741 1:30 2:4 4:4 10:2 11:700 12:3 13:999 16:1.1 17:93.994 18:-36.4 19:4.858 20:5191 
79.799999999999741 1:39 2:2 4:1 6:1 10:4 11:433 12:3 13:999 16:1.1 17:93.994 18:-36.4 19:4.857 20:5191 
79.799999999999741 1:24 2:1 3:1 4:3 6:1 7:1 10:4 11:816 12:2 13:999 16:1.1 17:93.994 18:-36.4 19:4.857 20:5191 
79.799999999999741 1:50 2:4 4:4 6:1 10:4 11:1003 12:1 13:999 16:1.1 17:93.994 18:-36.4 19:4.857 20:5191 
79.799999999999741 1:30 2:2 4:6 10:4 11:542 12:2 13:999 16:1.1 17:93.994 18:-36.4 19:4.857 20:5191 
79.799999999999741 1:58 2:6 4:6 5:1 10:4 11:472 12:1 13:999 16:1.1 17:93.994 18:-36.4 19:4.857 20:5191 
79.799999999999741 1:32 2:3 5:1 6:1 10:4 11:926 12:1 13:999 16:1.1 17:93.994 18:-36.4 19:4.857 20:5191 
79.799999999999741 1:37 2:2 3:1 4:1 6:1 10:4 11:773 12:2 13:999 16:1.1 17:93.994 18:-36.4 19:4.857 20:5191 
79.799999999999741 1:59 2:4 4:4 6:1 10:4 11:1438 12:2 13:999 16:1.1 17:93.994 18:-36.4 19:4.857 20:5191 
79.799999999999741 1:32 2:3 4:3 10:4 11:559 12:3 13:999 16:1.1 17:93.994 18:-36.4 19:4.857 20:5191 
79.799999999999741 1:36 2:1 3:1 4:2 5:1 6:1 10:4 11:1222 12:5 13:999 16:1.1 17:93.994 18:-36.4 19:4.857 20:5191 
79.799999999999741 1:49 2:6 4:6 5:1 6:1 10:4 11:1034 12:9 13:999 16:1.1 17:93.994 18:-36.4 19:4.857 20:5191 
79.799999999999741 1:47 2:3 5:1 6:1 11:897 12:5 13:999 16:1.1 17:93.994 18:-36.4 19:4.857 20:5191 
79.799999999999741 1:45 2:3 5:1 11:702 12:4 13:999 16:1.1 17:93.994 18:-36.4 19:4.857 20:5191 
79.799999999999741 1:54 2:5 4:3 7:1 11:596 12:1 13:999 16:1.1 17:93.994 18:-36.4 19:4.857 20:5191 
79.799999999999741 1:41 2:7 4:6 5:1 11:729 12:2 13:999 16:1.1 17:93.994 18:-36.4 19:4.857 20:5191 
79.799999999999741 1:59 2:5 4:4 5:1 6:1 7:1 11:724 12:1 13:999 16:1.1 17:93.994 18:-36.4 19:4.857 20:5191 
79.799999999999741 1:27 2:3 3:1 4:2 11:603 12:1 13:999 16:1.1 17:93.994 18:-36.4 19:4.857 20:5191 
79.799999999999741 1:31 2:2 3:1 4:6 6:1 11:451 12:2 13:999 16:1.1 17:93.994 18:-36.4 19:4.857 20:5191 
79.799999999999741 1:45 2:3 4:3 5:1 6:1 11:816 12:2 13:999 16:1.1 17:93.994 18:-36.4 19:4.857 20:5191 
79.799999999999741 1:32 2:3 4:3 6:1 10:1 11:955 12:1 13:999 16:1.1 17:93.994 18:-36.4 19:4.857 20:5191 
79.799999999999741 1:33 2:3 3:1 4:2 10:1 11:472 12:1 13:999 16:1.1 17:93.994 18:-36.4 19:4.857 20:5191 
79.799999999999741 1:28 2:1 4:1 6:1 10:1 11:485 12:1 13:999 16:1.1 17:93.994 18:-36.4 19:4.857 20:5191 
79.799999999999741 1:36 2:1 4:1 7:1 10:1 11:1590 12:2 13:999 16:1.1 17:93.994 18:-36.4 19:4.857 20:5191 
79.799999999999741 1:38 2:2 3:1 4:6 10:1 11:574 12:5 13:999 16:1.1 17:93.994 18:-36.4 19:4.857 20:5191 
79.799999999999741 1:31 2:2 4:1 10:1 11:1043 12:2 13:999 16:1.1 17:93.994 18:-36.4 19:4.857 20:5191 
79.799999999999741 1:42 3:1 5:1 6:1 10:1 11:662 12:7 13:999 16:1.1 17:93.994 18:-36.4 19:4.857 20:5191 
79.799999999999741 1:32 2:3 4:3 10:1 11:1224 12:8 13:999 16:1.1 17:93.994 18:-36.4 19:4.857 20:5191 
79.799999999999741 1:32 2:2 3:1 4:6 10:2 11:674 12:2 13:999 16:1.1 17:93.994 18:-36.4 19:4.857 20:5191 
79.799999999999741 1:29 2:2 3:1 4:6 6:1 10:2 11:713 12:1 13:999 16:1.1 17:93.994 18:-36.4 19:4.857 20:5191 
79.799999999999741 1:56 2:4 5:1 7:1 10:2 11:1210 12:1 13:999 16:1.1 17:93.994 18:-36.4 19:4.857 20:5191 
79.799999999999741 1:45 2:3 4:2 5:1 10:2 11:463 12:1 13:999 16:1.1 17:93.994 18:-36.4 19:4.857 20:5191 
79.799999999999741 1:32 2:4 3:1 4:6 6:1 10:2 11:269 12:2 13:999 16:1.1 17:93.994 18:-36.4 19:4.857 20:5191 
79.799999999999741 1:33 2:2 3:2 4:6 6:1 10:2 11:1277 12:2 13:999 16:1.1 17:93.994 18:-36.4 19:4.857 20:5191 
79.799999999999741 1:29 2:3 4:4 10:2 11:223 12:5 13:999 16:1.1 17:93.994 18:-36.4 19:4.857 20:5191 
79.799999999999741 1:56 2:6 4:6 10:3 11:750 12:2 13:999 16:1.1 17:93.994 18:-36.4 19:4.86 20:5191 
79.799999999999741 1:28 2:3 10:3 11:932 12:3 13:999 16:1.1 17:93.994 18:-36.4 19:4.86 20:5191 
79.799999999999741 1:38 2:6 4:1 5:1 10:3 11:879 12:2 13:999 16:1.1 17:93.994 18:-36.4 19:4.86 20:5191 
79.799999999999741 1:45 2:3 4:3 5:1 10:3 11:726 12:1 13:999 16:1.1 17:93.994 18:-36.4 19:4.86 20:5191 
79.799999999999741 1:36 2:6 4:6 5:1 6:1 10:3 11:488 12:1 13:999 16:1.1 17:93.994 18:-36.4 19:4.86 20:5191 
79.799999999999741 1:45 2:2 4:3 6:1 10:3 11:1611 12:2 13:999 16:1.1 17:93.994 18:-36.4 19:4.86 20:5191 
79.799999999999741 1:29 2:1 3:1 6:1 10:3 11:382 12:3 13:999 16:1.1 17:93.994 18:-36.4 19:4.86 20:5191 
79.799999999999741 1:53 2:1 4:1 5:1 10:3 11:2260 12:2 13:999 16:1.1 17:93.994 18:-36.4 19:4.86 20:5191 
79.799999999999741 1:28 2:3 3:1 4:3 10:4 11:521 12:2 13:999 16:1.1 17:93.994 18:-36.4 19:4.864 20:5191 
79.799999999999741 1:27 2:11 3:1 4:6 5:1 10:4 11:867 12:3 13:999 16:1.1 17:93.994 18:-36.4 19:4.864 20:5191 
79.799999999999741 1:58 5:1 6:1 10:4 11:652 12:2 13:999 16:1.1 17:93.994 18:-36.4 19:4.864 20:5191 
79.799999999999741 1:33 2:2 4:6 10:4 11:724 12:1 13:999 16:1.1 17:93.994 18:-36.4 19:4.864 20:5191 
79.799999999999741 1:49 2:8 3:1 4:3 6:1 7:1 10:4 11:827 12:5 13:999 16:1.1 17:93.994 18:-36.4 19:4.864 20:5191 
79.799999999999741 1:25 2:3 3:1 4:1 10:4 11:1212 12:3 13:999 16:1.1 17:93.994 18:-36.4 19:4.864 20:5191 
79.799999999999741 1:53 3:2 6:1 10:4 11:422 12:9 13:999 16:1.1 17:93.994 18:-36.4 19:4.864 20:5191 
79.799999999999741 1:38 2:1 3:2 4:2 10:4 11:825 12:2 13:999 16:1.1 17:93.994 18:-36.4 19:4.864 20:5191 
79.799999999999741 1:37 2:8 4:1 10:4 11:833 12:8 13:999 16:1.1 17:93.994 18:-36.4 19:4.864 20:5191 
79.799999999999741 1:24 2:10 4:6 5:1 10:4 11:1193 12:2 13:999 16:1.1 17:93.994 18:-36.4 19:4.864 20:5191 
79.799999999999741 1:46 2:5 6:1 9:1 11:550 12:3 13:999 16:1.4 17:94.465 18:-41.8 19:4.865 20:5228.1 
79.799999999999741 1:49 2:7 3:2 4:4 9:1 11:464 12:2 13:999 16:1.4 17:94.465 18:-41.8 19:4.865 20:5228.1 
79.799999999999741 1:24 2:1 3:1 4:1 6:1 9:1 11:920 12:2 13:999 16:1.4 17:94.465 18:-41.8 19:4.865 20:5228.1 
79.799999999999741 1:26 2:2 3:1 4:1 7:1 9:1 11:445 12:1 13:999 16:1.4 17:94.465 18:-41.8 19:4.865 20:5228.1 
79.799999999999741 1:45 2:6 3:2 4:6 9:1 11:572 12:4 13:999 16:1.4 17:94.465 18:-41.8 19:4.865 20:5228.1 
79.799999999999741 1:33 2:2 4:1 6:1 9:1 11:966 12:3 13:999 16:1.4 17:94.465 18:-41.8 19:4.865 20:5228.1 
79.799999999999741 1:37 2:3 4:3 9:1 11:430 12:2 13:999 16:1.4 17:94.465 18:-41.8 19:4.865 20:5228.1 
79.799999999999741 1:41 2:3 4:5 9:1 11:424 12:2 13:999 16:1.4 17:94.465 18:-41.8 19:4.865 20:5228.1 
79.799999999999741 1:24 2:2 4:1 7:1 9:1 11:1330 12:6 13:999 16:1.4 17:94.465 18:-41.8 19:4.865 20:5228.1 
79.799999999999741 1:47 2:1 4:1 9:1 11:548 12:8 13:999 16:1.4 17:94.465 18:-41.8 19:4.865 20:5228.1 
79.799999999999741 1:33 2:3 4:2 6:1 9:1 11:685 12:5 13:999 16:1.4 17:94.465 18:-41.8 19:4.865 20:5228.1 
79.799999999999741 1:29 2:10 4:4 6:1 9:1 11:930 12:1 13:999 16:1.4 17:94.465 18:-41.8 19:4.865 20:5228.1 
79.799999999999741 1:56 2:1 5:1 9:1 11:746 12:2 13:999 16:1.4 17:94.465 18:-41.8 19:4.865 20:5228.1 
79.799999999999741 1:34 2:3 4:2 7:1 9:1 11:1576 12:3 13:999 16:1.4 17:94.465 18:-41.8 19:4.865 20:5228.1 
79.799999999999741 1:36 2:11 3:1 4:3 6:1 9:1 10:1 11:771 12:1 13:999 16:1.4 17:94.465 18:-41.8 19:4.864 20:5228.1 
79.799999999999741 1:39 2:3 4:2 9:1 10:1 11:1340 12:1 13:999 16:1.4 17:94.465 18:-41.8 19:4.864 20:5228.1 
79.799999999999741 1:29 2:2 3:1 4:6 5:1 7:1 9:1 10:1 11:816 12:2 13:999 16:1.4 17:94.465 18:-41.8 19:4.864 20:5228.1 
79.799999999999741 1:40 2:3 9:1 10:1 11:1030 12:6 13:999 16:1.4 17:94.465 18:-41.8 19:4.864 20:5228.1 
79.799999999999741 1:45 2:10 4:1 9:1 10:1 11:1516 12:2 13:999 16:1.4 17:94.465 18:-41.8 19:4.864 20:5228.1 
79.799999999999741 1:46 2:3 4:4 5:1 9:1 10:2 11:1138 12:1 13:999 16:1.4 17:94.465 18:-41.8 19:4.864 20:5228.1 
79.799999999999741 1:36 2:10 4:6 6:1 9:1 10:2 11:1045 12:1 13:999 16:1.4 17:94.465 18:-41.8 19:4.864 20:5228.1 
79.799999999999741 1:26 2:4 3:1 4:4 6:1 9:1 10:2 11:605 12:1 13:999 16:1.4 17:94.465 18:-41.8 19:4.864 20:5228.1 
79.799999999999741 1:51 2:3 5:1 6:1 9:1 10:2 11:1254 12:10 13:999 16:1.4 17:94.465 18:-41.8 19:4.864 20:5228.1 
79.799999999999741 1:36 2:3 3:1 4:3 6:2 7:2 9:1 10:2 11:1224 12:7 13:999 16:1.4 17:94.465 18:-41.8 19:4.864 20:5228.1 
79.799999999999741 1:26 2:2 4:1 9:1 10:2 11:606 12:2 13:999 16:1.4 17:94.465 18:-41.8 19:4.864 20:5228.1 
79.799999999999741 1:32 2:2 4:6 9:1 10:2 11:135 12:3 13:999 16:1.4 17:94.465 18:-41.8 19:4.864 20:5228.1 
79.799999999999741 1:36 2:4 4:3 6:1 7:1 9:1 10:2 11:702 12:2 13:999 16:1.4 17:94.465 18:-41.8 19:4.864 20:5228.1 
79.799999999999741 1:34 2:6 4:6 6:1 9:1 10:3 11:773 12:1 13:999 16:1.4 17:94.465 18:-41.8 19:4.866 20:5228.1 
79.799999999999741 1:45 2:8 4:6 6:1 9:1 10:3 11:870 12:11 13:999 16:1.4 17:94.465 18:-41.8 19:4.866 20:5228.1 
79.799999999999741 1:50 2:6 4:5 6:1 9:1 10:3 11:1005 12:2 13:999 16:1.4 17:94.465 18:-41.8 19:4.866 20:5228.1 
79.799999999999741 1:47 2:3 4:3 6:1 9:1 10:3 11:955 12:4 13:999 16:1.4 17:94.465 18:-41.8 19:4.866 20:5228.1 
79.799999999999741 1:32 2:4 4:4 9:1 10:3 11:805 12:2 13:999 16:1.4 17:94.465 18:-41.8 19:4.866 20:5228.1 
79.799999999999741 1:27 2:3 3:1 4:3 7:1 9:1 10:3 11:869 12:2 13:999 16:1.4 17:94.465 18:-41.8 19:4.866 20:5228.1 
79.799999999999741 1:40 2:10 4:3 6:1 9:1 10:3 11:561 12:3 13:999 16:1.4 17:94.465 18:-41.8 19:4.866 20:5228.1 
79.799999999999741 1:38 2:10 4:6 9:1 10:3 11:989 12:3 13:999 16:1.4 17:94.465 18:-41.8 19:4.866 20:5228.1 
79.799999999999741 1:29 2:3 4:1 9:1 10:3 11:718 12:13 13:999 16:1.4 17:94.465 18:-41.8 19:4.866 20:5228.1 
79.799999999999741 1:53 2:4 4:4 5:1 6:1 9:1 10:3 11:939 12:6 13:999 16:1.4 17:94.465 18:-41.8 19:4.866 20:5228.1 
79.799999999999741 1:50 2:10 4:5 9:1 10:4 11:42 12:2 13:999 16:1.4 17:94.465 18:-41.8 19:4.967 20:5228.1 
79.799999999999741 1:35 2:3 3:1 4:5 7:1 9:1 10:4 11:1114 12:1 13:999 16:1.4 17:94.465 18:-41.8 19:4.967 20:5228.1 
79.799999999999741 1:36 2:3 4:3 5:1 6:1 9:1 10:4 11:1567 12:2 13:999 16:1.4 17:94.465 18:-41.8 19:4.967 20:5228.1 
79.799999999999741 1:42 2:3 4:3 6:1 9:1 10:4 11:516 12:5 13:999 16:1.4 17:94.465 18:-41.8 19:4.967 20:5228.1 
79.799999999999741 1:44 2:8 3:2 4:1 6:1 9:1 10:4 11:1041 12:13 13:999 16:1.4 17:94.465 18:-41.8 19:4.967 20:5228.1 
79.799999999999741 1:46 2:4 3:2 4:6 9:1 10:4 11:1288 12:3 13:999 16:1.4 17:94.465 18:-41.8 19:4.967 20:5228.1 
79.799999999999741 1:44 2:2 4:6 5:1 6:1 7:1 9:1 10:4 11:545 12:2 13:999 16:1.4 17:94.465 18:-41.8 19:4.967 20:5228.1 
79.799999999999741 1:40 2:2 4:6 6:1 9:1 10:4 11:606 12:5 13:999 16:1.4 17:94.465 18:-41.8 19:4.967 20:5228.1 
79.799999999999741 1:32 4:6 6:1 9:1 10:4 11:1291 12:3 13:999 16:1.4 17:94.465 18:-41.8 19:4.967 20:5228.1 
79.799999999999741 1:56 2:5 6:1 9:1 11:772 12:1 13:999 16:1.4 17:94.465 18:-41.8 19:4.961 20:5228.1 
79.799999999999741 1:34 2:2 4:1 9:1 11:540 12:1 13:999 16:1.4 17:94.465 18:-41.8 19:4.961 20:5228.1 
79.799999999999741 1:37 2:2 3:2 4:6 6:1 9:1 11:683 12:1 13:999 16:1.4 17:94.465 18:-41.8 19:4.961 20:5228.1 
79.799999999999741 1:58 2:6 4:5 5:1 6:1 9:1 11:1098 12:1 13:999 16:1.4 17:94.465 18:-41.8 19:4.961 20:5228.1 
79.799999999999741 1:26 2:11 3:1 4:1 9:1 11:589 12:1 13:999 16:1.4 17:94.465 18:-41.8 19:4.961 20:5228.1 
79.799999999999741 1:52 2:10 4:3 5:1 6:1 9:1 11:699 12:2 13:999 16:1.4 17:94.465 18:-41.8 19:4.961 20:5228.1 
79.799999999999741 1:33 2:2 4:1 9:1 10:2 11:916 12:1 13:999 16:1.4 17:94.465 18:-41.8 19:4.959 20:5228.1 
79.799999999999741 1:33 2:2 3:1 4:6 6:1 7:1 9:1 10:2 11:553 12:1 13:999 16:1.4 17:94.465 18:-41.8 19:4.959 20:5228.1 
79.799999999999741 1:41 2:1 3:2 4:3 9:1 10:3 11:753 12:1 13:999 16:1.4 17:94.465 18:-41.8 19:4.958 20:5228.1 
79.799999999999741 1:39 2:1 3:1 4:1 6:1 9:1 10:3 11:1178 12:3 13:999 16:1.4 17:94.465 18:-41.8 19:4.958 20:5228.1 
79.799999999999741 1:37 2:3 7:1 9:1 10:3 11:640 12:3 13:999 16:1.4 17:94.465 18:-41.8 19:4.958 20:5228.1 
79.799999999999741 1:30 2:4 3:1 4:4 6:2 7:2 9:1 10:3 11:773 12:4 13:999 16:1.4 17:94.465 18:-41.8 19:4.958 20:5228.1 
79.799999999999741 1:48 2:3 4:1 6:1 9:1 10:3 11:700 12:2 13:999 16:1.4 17:94.465 18:-41.8 19:4.958 20:5228.1 
79.799999999999741 1:38 2:2 4:6 9:1 11:757 12:2 13:999 16:1.4 17:94.465 18:-41.8 19:4.96 20:5228.1 
79.799999999999741 1:40 2:3 5:1 9:1 11:1238 12:2 13:999 16:1.4 17:94.465 18:-41.8 19:4.96 20:5228.1 
79.799999999999741 1:29 2:2 3:1 4:3 5:1 9:1 11:1298 12:2 13:999 16:1.4 17:94.465 18:-41.8 19:4.96 20:5228.1 
79.799999999999741 1:26 2:2 4:1 7:1 9:1 11:1021 12:1 13:999 16:1.4 17:94.465 18:-41.8 19:4.96 20:5228.1 
79.799999999999741 1:46 2:4 4:1 6:2 7:2 9:1 11:500 12:1 13:999 16:1.4 17:94.465 18:-41.8 19:4.96 20:5228.1 
79.799999999999741 1:36 2:3 9:1 10:1 11:881 12:1 13:999 16:1.4 17:94.465 18:-41.8 19:4.961 20:5228.1 
79.799999999999741 1:32 2:2 3:1 4:6 6:1 9:1 10:1 11:1162 12:2 13:999 16:1.4 17:94.465 18:-41.8 19:4.961 20:5228.1 
79.799999999999741 1:22 2:11 3:1 4:1 6:2 7:2 9:1 10:1 11:1199 12:2 13:999 16:1.4 17:94.465 18:-41.8 19:4.961 20:5228.1 
79.799999999999741 1:25 2:7 3:1 4:1 5:1 6:1 9:1 10:1 11:292 12:3 13:999 16:1.4 17:94.465 18:-41.8 19:4.961 20:5228.1 
79.799999999999741 1:53 2:3 4:3 7:1 9:1 10:1 11:668 12:8 13:999 16:1.4 17:94.465 18:-41.8 19:4.961 20:5228.1 
79.799999999999741 1:38 2:2 3:1 4:5 5:1 9:1 10:1 11:681 12:2 13:999 16:1.4 17:94.465 18:-41.8 19:4.961 20:5228.1 
79.799999999999741 1:37 2:4 4:4 9:1 10:1 11:854 12:3 13:999 16:1.4 17:94.465 18:-41.8 19:4.961 20:5228.1 
79.799999999999741 1:47 2:3 4:5 5:1 9:1 10:1 11:705 12:5 13:999 16:1.4 17:94.465 18:-41.8 19:4.961 20:5228.1 
79.799999999999741 1:50 2:6 5:1 9:1 10:1 11:847 12:3 13:999 16:1.4 17:94.465 18:-41.8 19:4.961 20:5228.1 
79.799999999999741 1:42 2:2 4:1 5:1 9:1 10:1 11:956 12:2 13:999 16:1.4 17:94.465 18:-41.8 19:4.961 20:5228.1 
79.799999999999741 1:35 2:7 3:2 6:1 7:1 9:1 10:1 11:637 12:3 13:999 16:1.4 17:94.465 18:-41.8 19:4.961 20:5228.1 
79.799999999999741 1:46 2:3 3:2 4:2 6:1 9:1 10:1 11:1208 12:3 13:999 16:1.4 17:94.465 18:-41.8 19:4.961 20:5228.1 
79.799999999999741 1:29 2:4 3:2 4:6 7:1 9:1 10:1 11:585 12:2 13:999 16:1.4 17:94.465 18:-41.8 19:4.961 20:5228.1 
79.799999999999741 1:30 2:11 3:1 4:6 6:1 9:1 10:2 11:1062 12:4 13:999 16:1.4 17:94.465 18:-41.8 19:4.962 20:5228.1 
79.799999999999741 1:25 2:3 3:1 4:3 9:1 10:2 11:680 12:2 13:999 16:1.4 17:94.465 18:-41.8 19:4.962 20:5228.1 
79.799999999999741 1:43 2:8 4:6 5:1 6:1 7:1 9:1 10:2 11:1487 12:1 13:999 16:1.4 17:94.465 18:-41.8 19:4.962 20:5228.1 
79.799999999999741 1:32 2:3 4:2 6:1 7:1 9:1 10:2 11:440 12:1 13:999 16:1.4 17:94.465 18:-41.8 19:4.962 20:5228.1 
79.799999999999741 1:33 2:1 6:2 7:2 9:1 10:2 11:577 12:4 13:999 16:1.4 17:94.465 18:-41.8 19:4.962 20:5228.1 
79.799999999999741 1:27 2:2 3:1 4:6 9:1 10:2 11:443 12:7 13:999 16:1.4 17:94.465 18:-41.8 19:4.962 20:5228.1 
79.799999999999741 1:41 2:2 4:6 6:1 7:1 9:1 10:2 11:802 12:3 13:999 16:1.4 17:94.465 18:-41.8 19:4.962 20:5228.1 
79.799999999999741 1:43 2:3 4:3 9:1 10:2 11:793 12:3 13:999 16:1.4 17:94.465 18:-41.8 19:4.962 20:5228.1 
79.799999999999741 1:60 2:2 4:6 5:1 9:1 10:2 11:521 12:11 13:999 16:1.4 17:94.465 18:-41.8 19:4.962 20:5228.1 
79.799999999999741 1:28 2:11 3:1 4:1 6:1 7:1 9:1 10:2 11:604 12:6 13:999 16:1.4 17:94.465 18:-41.8 19:4.962 20:5228.1 
79.799999999999741 1:40 2:3 3:2 4:3 9:1 10:3 11:575 12:1 13:999 16:1.4 17:94.465 18:-41.8 19:4.961 20:5228.1 
79.799999999999741 1:37 2:4 3:1 4:1 5:1 9:1 10:3 11:675 12:5 13:999 16:1.4 17:94.465 18:-41.8 19:4.961 20:5228.1 
79.799999999999741 1:47 2:6 3:2 4:6 9:1 10:3 11:593 12:1 13:999 16:1.4 17:94.465 18:-41.8 19:4.961 20:5228.1 
79.799999999999741 1:39 2:4 3:1 4:4 5:1 9:1 10:3 11:820 12:1 13:999 16:1.4 17:94.465 18:-41.8 19:4.961 20:5228.1 
79.799999999999741 1:48 2:2 3:1 4:6 6:1 9:1 10:3 11:1082 12:1 13:999 16:1.4 17:94.465 18:-41.8 19:4.961 20:5228.1 
79.799999999999741 1:34 2:3 4:3 6:1 9:1 10:3 11:335 12:2 13:999 16:1.4 17:94.465 18:-41.8 19:4.961 20:5228.1 
79.799999999999741 1:38 2:2 4:1 9:1 10:3 11:605 12:1 13:999 16:1.4 17:94.465 18:-41.8 19:4.961 20:5228.1 
79.799999999999741 1:38 2:2 4:1 6:1 9:1 10:3 11:1411 12:1 13:999 16:1.4 17:94.465 18:-41.8 19:4.961 20:5228.1 
79.799999999999741 1:34 2:1 4:2 9:1 10:3 11:722 12:1 13:999 16:1.4 17:94.465 18:-41.8 19:4.961 20:5228.1 
79.799999999999741 1:25 2:3 3:1 4:4 9:1 10:3 11:559 12:1 13:999 16:1.4 17:94.465 18:-41.8 19:4.961 20:5228.1 
38.710501908869951 1:26 2:4 3:1 4:6 9:1 10:3 11:2635 12:3 13:999 16:1.4 17:94.465 18:-41.8 19:4.961 20:5228.1 
79.799999999999741 1:39 2:10 4:6 6:1 9:1 10:4 11:513 12:2 13:999 16:1.4 17:94.465 18:-41.8 19:4.959 20:5228.1 
79.799999999999741 1:57 2:6 4:6 9:1 10:4 11:1276 12:1 13:999 16:1.4 17:94.465 18:-41.8 19:4.959 20:5228.1 
79.799999999999741 1:26 2:6 3:1 4:6 9:1 10:4 11:633 12:1 13:999 16:1.4 17:94.465 18:-41.8 19:4.959 20:5228.1 
79.799999999999741 1:44 2:1 4:1 6:1 9:1 10:4 11:618 12:4 13:999 16:1.4 17:94.465 18:-41.8 19:4.959 20:5228.1 
79.799999999999741 1:38 2:3 4:3 5:1 9:1 10:4 11:1478 12:5 13:999 16:1.4 17:94.465 18:-41.8 19:4.959 20:5228.1 
79.799999999999741 1:57 2:10 4:3 5:1 6:1 9:1 10:4 11:850 12:3 13:999 16:1.4 17:94.465 18:-41.8 19:4.959 20:5228.1 
79.799999999999741 1:43 2:4 4:3 5:1 6:1 7:1 9:1 10:4 11:818 12:2 13:999 16:1.4 17:94.465 18:-41.8 19:4.959 20:5228.1 
79.799999999999741 1:48 2:10 4:4 9:1 10:4 11:804 12:12 13:999 16:1.4 17:94.465 18:-41.8 19:4.959 20:5228.1 
79.799999999999741 1:30 2:1 3:1 4:1 6:2 7:2 9:1 10:4 11:709 12:9 13:999 16:1.4 17:94.465 18:-41.8 19:4.959 20:5228.1 
79.799999999999741 1:28 2:2 4:6 9:1 10:4 11:819 12:2 13:999 16:1.4 17:94.465 18:-41.8 19:4.959 20:5228.1 
79.799999999999741 1:58 2:1 4:1 6:1 9:1 10:1 11:790 12:3 13:999 16:1.4 17:94.465 18:-41.8 19:4.958 20:5228.1 
79.799999999999741 1:45 2:2 4:1 6:1 9:1 10:3 11:650 12:2 13:999 16:1.4 17:94.465 18:-41.8 19:4.955 20:5228.1 
79.799999999999741 1:50 2:2 4:1 9:1 10:4 11:513 12:3 13:999 16:1.4 17:94.465 18:-41.8 19:4.947 20:5228.1 
79.799999999999741 1:41 2:3 3:1 4:5 5:1 9:1 11:780 12:3 13:999 16:1.4 17:94.465 18:-41.8 19:4.947 20:5228.1 
79.799999999999741 1:41 2:10 4:6 6:1 7:1 9:2 10:1 11:381 12:4 13:999 16:1.4 17:93.918 18:-42.7 19:4.955 20:5228.1 
79.799999999999741 1:41 2:3 4:5 9:2 10:1 11:529 12:1 13:999 16:1.4 17:93.918 18:-42.7 19:4.955 20:5228.1 
79.799999999999741 1:54 2:5 4:1 6:1 7:1 9:2 10:1 11:1992 12:2 13:999 16:1.4 17:93.918 18:-42.7 19:4.955 20:5228.1 
79.799999999999741 1:27 2:10 3:1 4:6 6:1 9:2 10:1 11:420 12:2 13:999 16:1.4 17:93.918 18:-42.7 19:4.955 20:5228.1 
79.799999999999741 1:43 2:3 3:1 9:2 10:2 11:660 12:3 13:999 16:1.4 17:93.918 18:-42.7 19:4.956 20:5228.1 
79.799999999999741 1:30 2:8 4:6 6:1 7:1 9:2 10:2 11:957 12:3 13:999 16:1.4 17:93.918 18:-42.7 19:4.956 20:5228.1 
79.799999999999741 1:37 2:4 4:3 6:1 9:2 10:3 11:991 12:1 13:999 16:1.4 17:93.918 18:-42.7 19:4.966 20:5228.1 
79.799999999999741 1:41 2:1 3:1 4:1 5:1 7:1 9:2 10:3 11:504 12:1 13:999 16:1.4 17:93.918 18:-42.7 19:4.966 20:5228.1 
79.799999999999741 1:32 2:4 3:1 4:4 9:2 10:4 11:566 12:3 13:999 16:1.4 17:93.918 18:-42.7 19:4.959 20:5228.1 
79.799999999999741 1:30 2:1 3:1 4:1 6:1 9:2 10:4 11:1576 12:3 13:999 16:1.4 17:93.918 18:-42.7 19:4.959 20:5228.1 
79.799999999999741 1:41 2:6 4:6 6:1 8:1 9:2 10:4 11:1044 12:3 13:999 16:1.4 17:93.918 18:-42.7 19:4.959 20:5228.1 
79.799999999999741 1:52 2:3 4:3 8:1 9:2 11:1434 12:5 13:999 16:1.4 17:93.918 18:-42.7 19:4.96 20:5228.1 
79.799999999999741 1:32 2:3 4:2 9:2 11:176 12:6 13:999 16:1.4 17:93.918 18:-42.7 19:4.96 20:5228.1 
79.799999999999741 1:56 2:3 3:1 6:1 8:1 9:2 11:758 12:1 13:999 16:1.4 17:93.918 18:-42.7 19:4.96 20:5228.1 
79.799999999999741 1:30 2:1 4:1 6:1 8:1 9:2 11:559 12:4 13:999 16:1.4 17:93.918 18:-42.7 19:4.96 20:5228.1 
79.799999999999741 1:23 2:2 3:1 4:6 6:1 7:1 9:2 11:69 12:3 13:999 16:1.4 17:93.918 18:-42.7 19:4.96 20:5228.1 
79.799999999999741 1:28 2:3 4:3 6:1 8:1 9:2 11:497 12:1 13:999 16:1.4 17:93.918 18:-42.7 19:4.96 20:5228.1 
79.799999999999741 1:42 2:8 3:2 4:6 5:1 6:1 8:1 9:2 11:643 12:3 13:999 16:1.4 17:93.918 18:-42.7 19:4.96 20:5228.1 
79.799999999999741 1:60 2:3 4:3 5:1 6:2 7:2 8:1 9:2 11:575 12:1 13:999 16:1.4 17:93.918 18:-42.7 19:4.96 20:5228.1 
79.799999999999741 1:44 4:1 5:1 6:1 8:1 9:2 11:1200 12:1 13:999 16:1.4 17:93.918 18:-42.7 19:4.96 20:5228.1 
79.799999999999741 1:43 2:1 4:4 6:1 8:1 9:2 11:451 12:1 13:999 16:1.4 17:93.918 18:-42.7 19:4.96 20:5228.1 
79.799999999999741 1:53 2:10 3:1 4:3 8:1 9:2 11:933 12:1 13:999 16:1.4 17:93.918 18:-42.7 19:4.96 20:5228.1 
79.799999999999741 1:31 2:2 4:6 6:1 8:1 9:2 11:1467 12:1 13:999 16:1.4 17:93.918 18:-42.7 19:4.96 20:5228.1 
79.799999999999741 1:52 2:3 4:3 8:1 9:2 11:535 12:1 13:999 16:1.4 17:93.918 18:-42.7 19:4.96 20:5228.1 
79.799999999999741 1:50 2:10 4:6 6:1 8:1 9:2 11:1165 12:2 13:999 16:1.4 17:93.918 18:-42.7 19:4.96 20:5228.1 
79.799999999999741 1:37 2:4 3:1 4:6 8:1 9:2 11:756 12:3 13:999 16:1.4 17:93.918 18:-42.7 19:4.96 20:5228.1 
79.799999999999741 1:37 2:4 3:1 4:6 6:1 8:1 9:2 11:164 12:3 13:999 16:1.4 17:93.918 18:-42.7 19:4.96 20:5228.1 
79.799999999999741 1:32 2:3 3:1 4:1 6:1 8:1 9:2 10:1 11:523 12:3 13:999 16:1.4 17:93.918 18:-42.7 19:4.962 20:5228.1 
79.799999999999741 1:32 2:4 4:4 8:1 9:2 10:1 11:711 12:1 13:999 16:1.4 17:93.918 18:-42.7 19:4.962 20:5228.1 
79.799999999999741 1:36 2:4 3:1 4:5 6:1 8:1 9:2 10:1 11:1046 12:2 13:999 16:1.4 17:93.918 18:-42.7 19:4.962 20:5228.1 
79.799999999999741 1:28 2:2 3:1 4:5 8:1 9:2 10:1 11:574 12:2 13:999 16:1.4 17:93.918 18:-42.7 19:4.962 20:5228.1 
79.799999999999741 1:46 2:1 4:3 8:1 9:2 10:1 11:630 12:2 13:999 16:1.4 17:93.918 18:-42.7 19:4.962 20:5228.1 
79.799999999999741 1:32 2:2 3:1 4:6 8:1 9:2 10:1 11:1027 12:1 13:999 16:1.4 17:93.918 18:-42.7 19:4.962 20:5228.1 
79.799999999999741 1:26 2:4 4:4 6:1 8:1 9:2 10:1 11:136 12:1 13:999 16:1.4 17:93.918 18:-42.7 19:4.962 20:5228.1 
79.799999999999741 1:49 2:6 4:6 5:1 7:1 8:1 9:2 10:1 11:606 12:2 13:999 16:1.4 17:93.918 18:-42.7 19:4.962 20:5228.1 
79.799999999999741 1:57 2:5 4:4 5:1 7:1 8:1 9:2 10:1 11:1720 12:4 13:999 16:1.4 17:93.918 18:-42.7 19:4.962 20:5228.1 
79.799999999999741 1:49 2:6 4:6 6:1 9:2 10:1 11:336 12:4 13:999 16:1.4 17:93.918 18:-42.7 19:4.962 20:5228.1 
79.799999999999741 1:40 2:1 3:2 4:1 6:1 8:1 9:2 10:1 11:256 12:2 13:999 16:1.4 17:93.918 18:-42.7 19:4.962 20:5228.1 
79.799999999999741 1:24 2:11 3:1 4:1 5:1 8:1 9:2 10:1 11:1111 12:1 13:999 16:1.4 17:93.918 18:-42.7 19:4.962 20:5228.1 
79.799999999999741 1:32 2:2 4:3 9:2 10:1 11:320 12:3 13:999 16:1.4 17:93.918 18:-42.7 19:4.962 20:5228.1 
79.799999999999741 1:32 2:6 4:6 5:1 6:1 7:1 8:1 9:2 10:1 11:1011 12:1 13:999 16:1.4 17:93.918 18:-42.7 19:4.962 20:5228.1 
79.799999999999741 1:38 2:3 4:5 8:1 9:2 10:2 11:618 12:1 13:999 16:1.4 17:93.918 18:-42.7 19:4.962 20:5228.1 
79.799999999999741 1:29 2:2 3:1 4:1 6:1 8:1 9:2 10:2 11:1272 12:1 13:999 16:1.4 17:93.918 18:-42.7 19:4.962 20:5228.1 
79.799999999999741 1:43 7:1 8:1 9:2 10:2 11:697 12:1 13:999 16:1.4 17:93.918 18:-42.7 19:4.962 20:5228.1 
79.799999999999741 1:34 2:2 3:1 4:6 6:1 8:1 9:2 10:2 11:337 12:1 13:999 16:1.4 17:93.918 18:-42.7 19:4.962 20:5228.1 
79.799999999999741 1:25 3:1 4:1 8:1 9:2 10:2 11:1156 12:1 13:999 16:1.4 17:93.918 18:-42.7 19:4.962 20:5228.1 
79.799999999999741 1:33 2:2 3:1 4:6 6:1 8:1 9:2 10:2 11:494 12:1 13:999 16:1.4 17:93.918 18:-42.7 19:4.962 20:5228.1 
79.799999999999741 1:30 2:2 4:6 6:1 9:2 10:2 11:693 12:2 13:999 16:1.4 17:93.918 18:-42.7 19:4.962 20:5228.1 
79.799999999999741 1:27 2:2 4:6 9:2 10:2 11:672 12:6 13:999 16:1.4 17:93.918 18:-42.7 19:4.962 20:5228.1 
79.799999999999741 1:39 2:10 3:2 6:1 7:1 8:1 9:2 10:2 11:1317 12:2 13:999 16:1.4 17:93.918 18:-42.7 19:4.962 20:5228.1 
79.799999999999741 1:60 2:9 5:1 6:1 8:1 9:2 10:2 11:659 12:1 13:999 16:1.4 17:93.918 18:-42.7 19:4.962 20:5228.1 
79.799999999999741 1:29 2:10 4:4 8:1 9:2 10:2 11:736 12:4 13:999 16:1.4 17:93.918 18:-42.7 19:4.962 20:5228.1 
79.799999999999741 1:21 2:3 3:1 4:3 8:1 9:2 10:2 11:219 12:1 13:999 16:1.4 17:93.918 18:-42.7 19:4.962 20:5228.1 
79.799999999999741 1:27 2:3 3:1 6:1 8:1 9:2 10:2 11:676 12:5 13:999 16:1.4 17:93.918 18:-42.7 19:4.962 20:5228.1 
79.799999999999741 1:32 2:2 3:2 4:6 6:1 8:1 9:2 10:3 11:668 12:1 13:999 16:1.4 17:93.918 18:-42.7 19:4.963 20:5228.1 
79.799999999999741 1:50 2:6 4:6 6:1 8:1 9:2 10:3 11:1019 12:1 13:999 16:1.4 17:93.918 18:-42.7 19:4.963 20:5228.1 
79.799999999999741 1:34 2:4 3:1 4:6 6:1 7:1 8:1 9:2 10:3 11:1065 12:1 13:999 16:1.4 17:93.918 18:-42.7 19:4.963 20:5228.1 
79.799999999999741 1:32 2:3 3:2 4:3 8:1 9:2 10:3 11:624 12:1 13:999 16:1.4 17:93.918 18:-42.7 19:4.963 20:5228.1 
79.799999999999741 1:36 2:3 8:1 9:2 10:3 11:1102 12:1 13:999 16:1.4 17:93.918 18:-42.7 19:4.963 20:5228.1 
79.799999999999741 1:37 2:4 4:6 5:1 8:1 9:2 10:3 11:793 12:1 13:999 16:1.4 17:93.918 18:-42.7 19:4.963 20:5228.1 
79.799999999999741 1:41 2:3 4:3 6:1 8:1 9:2 10:3 11:473 12:1 13:999 16:1.4 17:93.918 18:-42.7 19:4.963 20:5228.1 
79.799999999999741 1:28 2:2 4:1 8:1 9:2 10:3 11:964 12:1 13:999 16:1.4 17:93.918 18:-42.7 19:4.963 20:5228.1 
79.799999999999741 1:27 2:4 4:4 6:1 8:1 9:2 10:3 11:347 12:1 13:999 16:1.4 17:93.918 18:-42.7 19:4.963 20:5228.1 
79.799999999999741 1:29 2:3 3:1 4:3 6:1 8:1 9:2 10:3 11:633 12:1 13:999 16:1.4 17:93.918 18:-42.7 19:4.963 20:5228.1 
79.799999999999741 1:31 2:3 3:1 6:1 8:1 9:2 10:3 11:133 12:1 13:999 16:1.4 17:93.918 18:-42.7 19:4.963 20:5228.1 
79.799999999999741 1:30 2:3 3:1 4:3 6:1 7:1 8:1 9:2 10:3 11:446 12:1 13:999 16:1.4 17:93.918 18:-42.7 19:4.963 20:5228.1 
79.799999999999741 1:49 4:4 6:1 9:2 10:3 11:645 12:2 13:999 16:1.4 17:93.918 18:-42.7 19:4.963 20:5228.1 
79.799999999999741 1:25 2:3 8:1 9:2 10:3 11:604 12:1 13:999 16:1.4 17:93.918 18:-42.7 19:4.963 20:5228.1 
79.799999999999741 1:30 2:8 4:6 8:1 9:2 10:3 11:573 12:6 13:999 16:1.4 17:93.918 18:-42.7 19:4.963 20:5228.1 
79.799999999999741 1:35 2:4 4:5 6:1 8:1 9:2 10:3 11:502 12:2 13:999 16:1.4 17:93.918 18:-42.7 19:4.963 20:5228.1 
79.799999999999741 1:44 2:3 4:3 6:1 8:1 9:2 10:3 11:839 12:1 13:999 16:1.4 17:93.918 18:-42.7 19:4.963 20:5228.1 
79.799999999999741 1:22 2:3 3:1 4:3 6:1 7:1 9:2 10:3 11:834 12:10 13:999 16:1.4 17:93.918 18:-42.7 19:4.963 20:5228.1 
79.799999999999741 1:34 2:3 3:1 4:3 5:1 6:1 8:1 9:2 10:3 11:562 12:1 13:999 16:1.4 17:93.918 18:-42.7 19:4.963 20:5228.1 
79.799999999999741 1:33 2:6 4:1 9:2 10:3 11:524 12:3 13:999 16:1.4 17:93.918 18:-42.7 19:4.963 20:5228.1 
79.799999999999741 1:51 3:2 4:1 6:1 7:1 8:1 9:2 10:3 11:460 12:1 13:999 16:1.4 17:93.918 18:-42.7 19:4.963 20:5228.1 
79.799999999999741 1:26 2:2 3:1 4:1 9:2 10:3 11:924 12:5 13:999 16:1.4 17:93.918 18:-42.7 19:4.963 20:5228.1 
79.799999999999741 1:34 2:4 4:4 5:1 7:1 8:1 9:2 10:4 11:431 12:1 13:999 16:1.4 17:93.918 18:-42.7 19:4.963 20:5228.1 
79.799999999999741 1:34 2:1 3:2 4:3 8:1 9:2 10:4 11:684 12:1 13:999 16:1.4 17:93.918 18:-42.7 19:4.963 20:5228.1 
79.799999999999741 1:43 2:3 3:2 6:1 8:1 9:2 10:4 11:1242 12:2 13:999 16:1.4 17:93.918 18:-42.7 19:4.963 20:5228.1 
79.799999999999741 1:35 2:2 3:1 4:3 6:1 8:1 9:2 10:4 11:431 12:3 13:999 16:1.4 17:93.918 18:-42.7 19:4.963 20:5228.1 
79.799999999999741 1:38 2:3 3:2 4:3 6:1 8:1 9:2 10:4 11:970 12:2 13:999 16:1.4 17:93.918 18:-42.7 19:4.963 20:5228.1 
79.799999999999741 1:29 2:1 4:3 6:1 8:1 9:2 10:4 11:1389 12:2 13:999 16:1.4 17:93.918 18:-42.7 19:4.963 20:5228.1 
79.799999999999741 1:40 2:4 3:1 4:4 6:1 7:1 8:1 9:2 10:4 11:919 12:2 13:999 16:1.4 17:93.918 18:-42.7 19:4.963 20:5228.1 
79.799999999999741 1:36 2:3 3:1 4:1 9:2 10:4 11:470 12:2 13:999 16:1.4 17:93.918 18:-42.7 19:4.963 20:5228.1 
79.799999999999741 1:30 2:2 4:6 8:1 9:2 10:4 11:1164 12:2 13:999 16:1.4 17:93.918 18:-42.7 19:4.963 20:5228.1 
79.799999999999741 1:31 2:2 4:1 6:1 8:1 9:2 10:4 11:595 12:2 13:999 16:1.4 17:93.918 18:-42.7 19:4.963 20:5228.1 
79.799999999999741 1:37 2:3 3:1 4:3 5:1 8:1 9:2 10:4 11:1081 12:2 13:999 16:1.4 17:93.918 18:-42.7 19:4.963 20:5228.1 
79.799999999999741 1:41 2:2 3:1 4:6 8:1 9:2 10:4 11:1180 12:2 13:999 16:1.4 17:93.918 18:-42.7 19:4.963 20:5228.1 
79.799999999999741 1:25 2:3 3:1 4:3 6:1 8:1 9:2 10:4 11:773 12:3 13:999 16:1.4 17:93.918 18:-42.7 19:4.963 20:5228.1 
79.799999999999741 1:25 2:4 3:1 4:4 6:1 8:1 9:2 10:4 11:1187 12:3 13:999 16:1.4 17:93.918 18:-42.7 19:4.963 20:5228.1 
79.799999999999741 1:31 2:1 4:1 8:1 9:2 11:650 12:4 13:999 16:1.4 17:93.918 18:-42.7 19:4.962 20:5228.1 
79.799999999999741 1:27 2:4 4:4 6:1 8:1 9:2 11:634 12:3 13:999 16:1.4 17:93.918 18:-42.7 19:4.962 20:5228.1 
79.799999999999741 1:35 2:2 3:1 4:6 6:1 8:1 9:2 11:673 12:8 13:999 16:1.4 17:93.918 18:-42.7 19:4.962 20:5228.1 
79.799999999999741 1:34 2:3 4:2 5:1 6:1 8:1 9:2 11:616 12:3 13:999 16:1.4 17:93.918 18:-42.7 19:4.962 20:5228.1 
79.799999999999741 1:48 2:6 4:6 6:1 8:1 9:2 11:768 12:2 13:999 16:1.4 17:93.918 18:-42.7 19:4.962 20:5228.1 
79.799999999999741 1:25 2:3 3:1 4:1 6:1 8:1 9:2 11:619 12:2 13:999 16:1.4 17:93.918 18:-42.7 19:4.962 20:5228.1 
79.799999999999741 1:32 2:1 4:1 8:1 9:2 11:1271 12:2 13:999 16:1.4 17:93.918 18:-42.7 19:4.962 20:5228.1 
79.799999999999741 1:48 2:3 3:2 4:1 5:1 7:1 9:2 11:716 12:3 13:999 16:1.4 17:93.918 18:-42.7 19:4.962 20:5228.1 
79.799999999999741 1:43 2:7 4:1 6:1 8:1 9:2 11:745 12:3 13:999 16:1.4 17:93.918 18:-42.7 19:4.962 20:5228.1 
79.799999999999741 1:35 2:3 3:1 4:3 7:1 8:1 9:2 10:1 11:416 12:3 13:999 16:1.4 17:93.918 18:-42.7 19:4.961 20:5228.1 
79.799999999999741 1:34 2:1 3:2 4:1 6:1 8:1 9:2 10:1 11:317 12:3 13:999 16:1.4 17:93.918 18:-42.7 19:4.961 20:5228.1 
79.799999999999741 1:34 2:10 4:1 5:1 8:1 9:2 10:1 11:924 12:4 13:999 16:1.4 17:93.918 18:-42.7 19:4.961 20:5228.1 
79.799999999999741 1:49 2:3 5:1 6:1 8:1 9:2 10:1 11:792 12:4 13:999 16:1.4 17:93.918 18:-42.7 19:4.961 20:5228.1 
79.799999999999741 1:28 2:2 4:1 5:1 6:1 7:1 8:1 9:2 10:1 11:722 12:3 13:999 16:1.4 17:93.918 18:-42.7 19:4.961 20:5228.1 
79.799999999999741 1:31 2:2 4:3 6:1 8:1 9:2 10:1 11:779 12:2 13:999 16:1.4 17:93.918 18:-42.7 19:4.961 20:5228.1 
79.799999999999741 1:31 2:2 3:1 4:6 8:1 9:2 10:1 11:555 12:2 13:999 16:1.4 17:93.918 18:-42.7 19:4.961 20:5228.1 
79.799999999999741 1:32 2:4 3:1 4:4 6:1 8:1 9:2 10:1 11:479 12:1 13:999 16:1.4 17:93.918 18:-42.7 19:4.961 20:5228.1 
79.799999999999741 1:35 2:3 3:2 4:3 7:1 8:1 9:2 10:1 11:1083 12:2 13:999 16:1.4 17:93.918 18:-42.7 19:4.961 20:5228.1 
79.799999999999741 1:38 2:2 3:2 4:6 8:1 9:2 10:1 11:419 12:8 13:999 16:1.4 17:93.918 18:-42.7 19:4.961 20:5228.1 
79.799999999999741 1:25 2:3 3:1 4:1 6:1 9:2 10:1 11:1142 12:4 13:999 16:1.4 17:93.918 18:-42.7 19:4.961 20:5228.1 
79.799999999999741 1:34 2:3 4:3 6:1 8:1 9:2 10:1 11:1412 12:4 13:999 16:1.4 17:93.918 18:-42.7 19:4.961 20:5228.1 
79.799999999999741 1:33 2:3 3:2 4:3 5:1 6:1 7:1 8:1 9:2 10:2 11:464 12:3 13:999 16:1.4 17:93.918 18:-42.7 19:4.957 20:5228.1 
79.799999999999741 1:30 2:8 3:1 4:6 8:1 9:2 10:2 11:1147 12:4 13:999 16:1.4 17:93.918 18:-42.7 19:4.957 20:5228.1 
79.799999999999741 1:49 2:3 4:2 5:1 8:1 9:2 10:2 11:771 12:1 13:999 16:1.4 17:93.918 18:-42.7 19:4.957 20:5228.1 
79.799999999999741 1:31 2:3 4:3 8:1 9:2 10:2 11:715 12:1 13:999 16:1.4 17:93.918 18:-42.7 19:4.957 20:5228.1 
79.799999999999741 1:30 2:2 4:6 6:1 8:1 9:2 10:2 11:1150 12:1 13:999 16:1.4 17:93.918 18:-42.7 19:4.957 20:5228.1 
79.799999999999741 1:37 2:1 3:2 4:3 6:1 8:1 9:2 10:2 11:684 12:1 13:999 16:1.4 17:93.918 18:-42.7 19:4.957 20:5228.1 
79.799999999999741 1:37 2:1 3:2 4:3 8:1 9:2 10:2 11:885 12:1 13:999 16:1.4 17:93.918 18:-42.7 19:4.957 20:5228.1 
79.799999999999741 1:55 4:6 6:1 8:1 9:2 10:2 11:705 12:1 13:999 16:1.4 17:93.918 18:-42.7 19:4.957 20:5228.1 
79.799999999999741 1:26 2:2 4:6 6:1 9:2 10:2 11:649 12:2 13:999 16:1.4 17:93.918 18:-42.7 19:4.957 20:5228.1 
79.799999999999741 1:21 2:2 3:1 4:1 6:1 8:1 9:2 10:2 11:680 12:1 13:999 16:1.4 17:93.918 18:-42.7 19:4.957 20:5228.1 
79.799999999999741 1:28 2:1 4:1 6:1 8:1 9:2 10:2 11:350 12:1 13:999 16:1.4 17:93.918 18:-42.7 19:4.957 20:5228.1 
79.799999999999741 1:30 2:3 4:3 6:1 8:1 9:2 10:2 11:547 12:2 13:999 16:1.4 17:93.918 18:-42.7 19:4.957 20:5228.1 
79.799999999999741 1:41 2:3 4:5 5:1 8:1 9:2 10:2 11:516 12:4 13:999 16:1.4 17:93.918 18:-42.7 19:4.957 20:5228.1 
79.799999999999741 1:31 2:2 3:1 4:3 8:1 9:2 10:2 11:1432 12:5 13:999 16:1.4 17:93.918 18:-42.7 19:4.957 20:5228.1 
79.799999999999741 1:37 2:10 3:2 4:1 5:1 6:1 8:1 9:2 10:2 11:538 12:2 13:999 16:1.4 17:93.918 18:-42.7 19:4.957 20:5228.1 
79.799999999999741 1:43 2:4 4:1 8:1 9:2 10:2 11:1389 12:7 13:999 16:1.4 17:93.918 18:-42.7 19:4.957 20:5228.1 
79.799999999999741 1:41 2:3 3:1 4:2 6:1 8:1 9:2 10:2 11:1056 12:2 13:999 16:1.4 17:93.918 18:-42.7 19:4.957 20:5228.1 
79.799999999999741 1:37 2:4 4:1 6:1 8:1 9:2 10:2 11:1339 12:3 13:999 16:1.4 17:93.918 18:-42.7 19:4.957 20:5228.1 
79.799999999999741 1:23 2:3 3:1 4:5 5:1 8:1 9:2 10:2 11:1473 12:6 13:999 16:1.4 17:93.918 18:-42.7 19:4.957 20:5228.1 
79.799999999999741 1:44 2:3 4:2 5:1 8:1 9:2 10:2 11:605 12:6 13:999 16:1.4 17:93.918 18:-42.7 19:4.957 20:5228.1 
79.799999999999741 1:41 2:4 4:4 6:1 7:1 8:1 9:2 10:3 11:539 12:1 13:999 16:1.4 17:93.918 18:-42.7 19:4.958 20:5228.1 
79.799999999999741 1:29 2:2 3:1 4:6 8:1 9:2 10:3 11:686 12:1 13:999 16:1.4 17:93.918 18:-42.7 19:4.958 20:5228.1 
79.799999999999741 1:49 2:4 3:2 4:1 6:1 8:1 9:2 10:3 11:1171 12:1 13:999 16:1.4 17:93.918 18:-42.7 19:4.958 20:5228.1 
79.799999999999741 1:27 2:3 3:1 4:3 6:1 8:1 9:2 10:3 11:818 12:1 13:999 16:1.4 17:93.918 18:-42.7 19:4.958 20:5228.1 
79.799999999999741 1:50 2:3 4:5 5:1 8:1 9:2 10:3 11:1183 12:1 13:999 16:1.4 17:93.918 18:-42.7 19:4.958 20:5228.1 
79.799999999999741 1:25 2:3 3:1 4:3 8:1 9:2 10:3 11:692 12:1 13:999 16:1.4 17:93.918 18:-42.7 19:4.958 20:5228.1 
79.799999999999741 1:27 2:11 3:1 4:6 6:1 8:1 9:2 10:3 11:393 12:1 13:999 16:1.4 17:93.918 18:-42.7 19:4.958 20:5228.1 
79.799999999999741 1:27 2:3 4:3 7:1 8:1 9:2 10:3 11:655 12:1 13:999 16:1.4 17:93.918 18:-42.7 19:4.958 20:5228.1 
79.799999999999741 1:33 2:1 3:2 4:1 8:1 9:2 10:3 11:654 12:1 13:999 16:1.4 17:93.918 18:-42.7 19:4.958 20:5228.1 
79.799999999999741 1:32 2:8 3:1 4:6 6:1 8:1 9:2 10:3 11:630 12:1 13:999 16:1.4 17:93.918 18:-42.7 19:4.958 20:5228.1 
79.799999999999741 1:50 2:4 4:4 8:1 9:2 10:3 11:683 12:2 13:999 16:1.4 17:93.918 18:-42.7 19:4.958 20:5228.1 
79.799999999999741 1:23 2:1 3:1 4:1 8:1 9:2 10:3 11:796 12:2 13:999 16:1.4 17:93.918 18:-42.7 19:4.958 20:5228.1 
79.799999999999741 1:23 2:6 3:1 4:6 6:1 7:1 8:1 9:2 10:3 11:804 12:2 13:999 16:1.4 17:93.918 18:-42.7 19:4.958 20:5228.1 
79.799999999999741 1:26 6:1 8:1 9:2 10:3 11:1151 12:1 13:999 16:1.4 17:93.918 18:-42.7 19:4.958 20:5228.1 
79.799999999999741 1:33 2:6 4:6 6:1 7:1 8:1 9:2 10:3 11:1390 12:2 13:999 16:1.4 17:93.918 18:-42.7 19:4.958 20:5228.1 
79.799999999999741 1:29 2:7 4:6 6:1 8:1 9:2 10:3 11:738 12:3 13:999 16:1.4 17:93.918 18:-42.7 19:4.958 20:5228.1 
79.799999999999741 1:24 2:3 3:1 4:3 8:1 9:2 10:3 11:538 12:3 13:999 16:1.4 17:93.918 18:-42.7 19:4.958 20:5228.1 
79.799999999999741 1:37 2:3 3:1 7:1 8:1 9:2 10:3 11:728 12:3 13:999 16:1.4 17:93.918 18:-42.7 19:4.958 20:5228.1 
79.799999999999741 1:33 2:2 4:6 8:1 9:2 10:3 11:1018 12:1 13:999 16:1.4 17:93.918 18:-42.7 19:4.958 20:5228.1 
79.799999999999741 1:32 2:6 3:1 4:6 8:1 9:2 10:3 11:654 12:1 13:999 16:1.4 17:93.918 18:-42.7 19:4.958 20:5228.1 
79.799999999999741 1:45 2:2 3:2 4:6 6:1 8:1 9:2 10:3 11:1673 12:2 13:999 16:1.4 17:93.918 18:-42.7 19:4.958 20:5228.1 
79.799999999999741 1:26 2:1 3:1 4:1 8:1 9:2 10:3 11:770 12:2 13:999 16:1.4 17:93.918 18:-42.7 19:4.958 20:5228.1 
79.799999999999741 1:30 2:3 4:3 5:1 8:1 9:2 10:3 11:903 12:4 13:999 16:1.4 17:93.918 18:-42.7 19:4.958 20:5228.1 
79.799999999999741 1:31 2:4 3:1 4:6 6:1 8:1 9:2 10:4 11:800 12:6 13:999 16:1.4 17:93.918 18:-42.7 19:4.957 20:5228.1 
79.799999999999741 1:30 2:2 4:6 8:1 9:2 10:4 11:483 12:1 13:999 16:1.4 17:93.918 18:-42.7 19:4.957 20:5228.1 
79.799999999999741 1:35 2:3 3:1 8:1 9:2 10:4 11:308 12:2 13:999 16:1.4 17:93.918 18:-42.7 19:4.957 20:5228.1 
79.799999999999741 1:45 2:2 3:2 4:6 8:1 9:2 10:4 11:508 12:1 13:999 16:1.4 17:93.918 18:-42.7 19:4.957 20:5228.1 
79.799999999999741 1:35 2:4 4:6 8:1 9:2 10:4 11:187 12:1 13:999 16:1.4 17:93.918 18:-42.7 19:4.957 20:5228.1 
79.799999999999741 1:25 2:2 3:1 4:6 8:1 9:2 10:4 11:835 12:1 13:999 16:1.4 17:93.918 18:-42.7 19:4.957 20:5228.1 
79.799999999999741 1:20 2:11 3:1 4:6 6:1 8:1 9:2 10:4 11:1503 12:11 13:999 16:1.4 17:93.918 18:-42.7 19:4.957 20:5228.1 
79.799999999999741 1:41 2:8 4:3 5:1 8:1 9:2 10:4 11:788 12:6 13:999 16:1.4 17:93.918 18:-42.7 19:4.957 20:5228.1 
79.799999999999741 1:38 2:1 4:1 8:1 9:2 10:4 11:905 12:3 13:999 16:1.4 17:93.918 18:-42.7 19:4.957 20:5228.1 
79.799999999999741 1:41 4:1 6:1 8:1 9:2 10:4 11:440 12:4 13:999 16:1.4 17:93.918 18:-42.7 19:4.957 20:5228.1 
79.799999999999741 1:29 2:10 4:4 8:1 9:2 10:4 11:462 12:2 13:999 16:1.4 17:93.918 18:-42.7 19:4.957 20:5228.1 
79.799999999999741 1:21 2:2 4:5 6:1 8:1 9:2 10:4 11:528 12:3 13:999 16:1.4 17:93.918 18:-42.7 19:4.957 20:5228.1 
79.799999999999741 1:26 2:2 3:2 4:3 8:1 9:2 11:489 12:3 13:999 16:1.4 17:93.918 18:-42.7 19:4.96 20:5228.1 
79.799999999999741 1:31 2:1 3:1 4:1 7:1 9:2 11:1425 12:2 13:999 16:1.4 17:93.918 18:-42.7 19:4.96 20:5228.1 
79.799999999999741 1:35 2:4 4:4 7:1 8:1 9:2 11:554 12:2 13:999 16:1.4 17:93.918 18:-42.7 19:4.96 20:5228.1 
79.799999999999741 1:25 2:2 3:1 4:3 8:1 9:2 11:66 12:1 13:999 16:1.4 17:93.918 18:-42.7 19:4.96 20:5228.1 
79.799999999999741 1:36 2:3 4:3 8:1 9:2 11:853 12:1 13:999 16:1.4 17:93.918 18:-42.7 19:4.96 20:5228.1 
79.799999999999741 1:38 2:3 3:1 4:3 7:1 8:1 9:2 11:730 12:8 13:999 16:1.4 17:93.918 18:-42.7 19:4.96 20:5228.1 
79.799999999999741 1:39 2:3 5:1 8:1 9:2 11:533 12:1 13:999 16:1.4 17:93.918 18:-42.7 19:4.96 20:5228.1 
79.799999999999741 1:47 2:1 3:2 4:3 5:1 8:1 9:2 11:678 12:1 13:999 16:1.4 17:93.918 18:-42.7 19:4.96 20:5228.1 
79.799999999999741 1:40 2:3 3:1 4:3 5:1 6:1 8:1 9:2 11:824 12:5 13:999 16:1.4 17:93.918 18:-42.7 19:4.96 20:5228.1 
79.799999999999741 1:31 2:1 3:1 4:1 8:1 9:2 11:881 12:4 13:999 16:1.4 17:93.918 18:-42.7 19:4.96 20:5228.1 
79.799999999999741 1:47 3:2 5:1 8:1 9:2 11:357 12:1 13:999 16:1.4 17:93.918 18:-42.7 19:4.96 20:5228.1 
79.799999999999741 1:30 2:2 3:1 4:1 6:1 9:2 11:742 12:4 13:999 16:1.4 17:93.918 18:-42.7 19:4.96 20:5228.1 
79.799999999999741 1:31 2:2 3:1 4:1 6:1 7:1 8:1 9:2 11:936 12:4 13:999 16:1.4 17:93.918 18:-42.7 19:4.96 20:5228.1 
79.799999999999741 1:39 2:4 3:1 4:4 8:1 9:2 11:690 12:3 13:999 16:1.4 17:93.918 18:-42.7 19:4.96 20:5228.1 
79.799999999999741 1:40 2:2 3:1 4:3 8:1 9:2 11:1089 12:1 13:999 16:1.4 17:93.918 18:-42.7 19:4.96 20:5228.1 
79.799999999999741 1:31 2:1 3:2 4:1 6:1 8:1 9:2 11:522 12:1 13:999 16:1.4 17:93.918 18:-42.7 19:4.96 20:5228.1 
79.799999999999741 1:48 2:2 3:2 4:6 7:1 8:1 9:2 11:564 12:5 13:999 16:1.4 17:93.918 18:-42.7 19:4.96 20:5228.1 
79.799999999999741 1:57 2:2 4:6 6:1 8:1 9:2 11:564 12:2 13:999 16:1.4 17:93.918 18:-42.7 19:4.96 20:5228.1 
79.799999999999741 1:39 2:2 4:6 6:1 8:1 9:2 11:929 12:15 13:999 16:1.4 17:93.918 18:-42.7 19:4.96 20:5228.1 
79.799999999999741 1:57 2:3 5:1 6:1 8:1 9:2 11:769 12:3 13:999 16:1.4 17:93.918 18:-42.7 19:4.96 20:5228.1 
79.799999999999741 1:25 3:1 4:3 6:1 8:1 9:2 11:898 12:5 13:999 16:1.4 17:93.918 18:-42.7 19:4.96 20:5228.1 
79.799999999999741 1:27 2:4 3:1 4:4 8:1 9:2 11:357 12:3 13:999 16:1.4 17:93.918 18:-42.7 19:4.96 20:5228.1 
79.799999999999741 1:35 2:2 3:2 4:1 6:2 7:2 8:1 9:2 10:1 11:637 12:2 13:999 16:1.4 17:93.918 18:-42.7 19:4.961 20:5228.1 
79.799999999999741 1:44 2:3 4:4 5:1 8:1 9:2 10:1 11:407 12:4 13:999 16:1.4 17:93.918 18:-42.7 19:4.961 20:5228.1 
79.799999999999741 1:59 2:5 4:2 6:1 8:1 9:2 10:1 11:807 12:1 13:999 16:1.4 17:93.918 18:-42.7 19:4.961 20:5228.1 
79.799999999999741 1:56 2:3 4:5 5:1 6:1 8:1 9:2 10:1 11:1017 12:1 13:999 16:1.4 17:93.918 18:-42.7 19:4.961 20:5228.1 
79.799999999999741 1:46 2:8 4:6 7:1 8:1 9:2 10:1 11:1220 12:12 13:999 16:1.4 17:93.918 18:-42.7 19:4.961 20:5228.1 
79.799999999999741 1:49 2:2 3:1 4:1 6:1 8:1 9:2 10:1 11:1281 12:1 13:999 16:1.4 17:93.918 18:-42.7 19:4.961 20:5228.1 
79.799999999999741 1:48 2:10 3:1 4:6 6:1 8:1 9:2 10:1 11:654 12:1 13:999 16:1.4 17:93.918 18:-42.7 19:4.961 20:5228.1 
79.799999999999741 1:57 2:6 4:6 8:1 9:2 10:1 11:632 12:1 13:999 16:1.4 17:93.918 18:-42.7 19:4.961 20:5228.1 
79.799999999999741 1:28 2:4 3:1 4:1 6:1 8:1 9:2 10:1 11:662 12:1 13:999 16:1.4 17:93.918 18:-42.7 19:4.961 20:5228.1 
79.799999999999741 1:52 2:5 3:2 4:4 8:1 9:2 10:1 11:867 12:2 13:999 16:1.4 17:93.918 18:-42.7 19:4.961 20:5228.1 
79.799999999999741 1:33 2:4 3:1 4:4 7:1 8:1 9:2 10:1 11:1408 12:2 13:999 16:1.4 17:93.918 18:-42.7 19:4.961 20:5228.1 
65.961535520398286 1:43 2:1 3:2 4:5 5:1 6:1 7:1 8:1 9:2 10:1 11:483 12:7 13:999 16:1.4 17:93.918 18:-42.7 19:4.961 20:5228.1 
79.799999999999741 1:30 2:2 3:1 4:6 6:1 8:1 9:2 10:1 11:608 12:3 13:999 16:1.4 17:93.918 18:-42.7 19:4.961 20:5228.1 
79.799999999999741 1:33 2:3 4:2 6:1 8:1 9:2 10:1 11:1206 12:2 13:999 16:1.4 17:93.918 18:-42.7 19:4.961 20:5228.1 
79.799999999999741 1:53 2:6 4:6 8:1 9:2 10:1 11:477 12:2 13:999 16:1.4 17:93.918 18:-42.7 19:4.961 20:5228.1 
79.799999999999741 1:48 3:2 6:1 8:1 9:2 10:1 11:727 12:2 13:999 16:1.4 17:93.918 18:-42.7 19:4.961 20:5228.1 
79.799999999999741 1:26 2:2 3:1 4:6 6:1 8:1 9:2 10:1 11:1287 12:5 13:999 16:1.4 17:93.918 18:-42.7 19:4.961 20:5228.1 
79.799999999999741 1:37 2:8 3:2 4:4 6:1 8:1 9:2 10:1 11:437 12:2 13:999 16:1.4 17:93.918 18:-42.7 19:4.961 20:5228.1 
79.799999999999741 1:35 2:1 3:1 4:1 5:1 6:1 7:1 9:2 10:1 11:1148 12:2 13:999 16:1.4 17:93.918 18:-42.7 19:4.961 20:5228.1 
79.799999999999741 1:57 2:4 3:2 4:4 8:1 9:2 10:1 11:624 12:2 13:999 16:1.4 17:93.918 18:-42.7 19:4.961 20:5228.1 
79.799999999999741 1:50 2:10 4:6 8:1 9:2 10:1 11:1226 12:2 13:999 16:1.4 17:93.918 18:-42.7 19:4.961 20:5228.1 
79.799999999999741 1:23 2:2 3:1 4:4 6:1 8:1 9:2 10:2 11:429 12:1 13:999 16:1.4 17:93.918 18:-42.7 19:4.963 20:5228.1 
79.799999999999741 1:30 2:2 3:1 4:1 6:1 8:1 9:2 10:2 11:730 12:1 13:999 16:1.4 17:93.918 18:-42.7 19:4.963 20:5228.1 
79.799999999999741 1:31 2:3 3:1 4:1 6:1 7:1 8:1 9:2 10:2 11:376 12:1 13:999 16:1.4 17:93.918 18:-42.7 19:4.963 20:5228.1 
79.799999999999741 1:29 2:4 3:1 4:6 6:1 7:1 8:1 9:2 10:2 11:1089 12:6 13:999 16:1.4 17:93.918 18:-42.7 19:4.963 20:5228.1 
79.799999999999741 1:43 2:2 3:2 4:6 8:1 9:2 10:2 11:471 12:2 13:999 16:1.4 17:93.918 18:-42.7 19:4.963 20:5228.1 
79.799999999999741 1:48 2:9 4:2 8:1 9:2 10:2 11:884 12:1 13:999 16:1.4 17:93.918 18:-42.7 19:4.963 20:5228.1 
79.799999999999741 1:30 2:3 3:1 4:2 5:1 6:1 8:1 9:2 10:2 11:375 12:8 13:999 16:1.4 17:93.918 18:-42.7 19:4.963 20:5228.1 
79.799999999999741 1:25 2:4 3:1 4:6 7:1 9:2 10:2 11:355 12:3 13:999 16:1.4 17:93.918 18:-42.7 19:4.963 20:5228.1 
79.799999999999741 1:34 2:4 4:4 8:1 9:2 10:2 11:511 12:3 13:999 16:1.4 17:93.918 18:-42.7 19:4.963 20:5228.1 
79.799999999999741 1:27 2:6 3:1 4:6 8:1 9:2 10:2 11:435 12:3 13:999 16:1.4 17:93.918 18:-42.7 19:4.963 20:5228.1 
79.799999999999741 1:26 2:2 3:1 4:6 7:1 8:1 9:2 10:2 11:979 12:3 13:999 16:1.4 17:93.918 18:-42.7 19:4.963 20:5228.1 
79.799999999999741 1:53 2:10 3:2 4:6 9:2 10:2 11:383 12:2 13:999 16:1.4 17:93.918 18:-42.7 19:4.963 20:5228.1 
79.799999999999741 1:26 2:1 3:1 4:1 6:2 7:2 9:2 10:2 11:588 12:1 13:999 16:1.4 17:93.918 18:-42.7 19:4.963 20:5228.1 
79.799999999999741 1:42 2:2 4:6 8:1 9:2 10:2 11:1331 12:3 13:999 16:1.4 17:93.918 18:-42.7 19:4.963 20:5228.1 
79.799999999999741 1:40 2:2 3:2 4:1 8:1 9:2 10:2 11:1776 12:3 13:999 16:1.4 17:93.918 18:-42.7 19:4.963 20:5228.1 
79.799999999999741 1:31 2:3 3:1 4:2 8:1 9:2 10:2 11:638 12:2 13:999 16:1.4 17:93.918 18:-42.7 19:4.963 20:5228.1 
79.799999999999741 1:37 2:3 4:3 6:1 8:1 9:2 10:2 11:1090 12:12 13:999 16:1.4 17:93.918 18:-42.7 19:4.963 20:5228.1 
79.799999999999741 1:29 2:4 3:1 4:6 7:1 9:2 10:2 11:1118 12:3 13:999 16:1.4 17:93.918 18:-42.7 19:4.963 20:5228.1 
79.799999999999741 1:23 2:2 3:1 4:4 8:1 9:2 10:2 11:580 12:2 13:999 16:1.4 17:93.918 18:-42.7 19:4.963 20:5228.1 
79.799999999999741 1:42 2:8 4:6 8:1 9:2 10:2 11:673 12:1 13:999 16:1.4 17:93.918 18:-42.7 19:4.963 20:5228.1 
79.799999999999741 1:56 2:5 4:4 6:1 8:1 9:2 10:2 11:1066 12:2 13:999 16:1.4 17:93.918 18:-42.7 19:4.963 20:5228.1 
79.799999999999741 1:26 2:3 4:2 8:1 9:2 10:2 11:609 12:2 13:999 16:1.4 17:93.918 18:-42.7 19:4.963 20:5228.1 
79.799999999999741 1:49 2:2 4:1 8:1 9:2 10:2 11:652 12:2 13:999 16:1.4 17:93.918 18:-42.7 19:4.963 20:5228.1 
79.799999999999741 1:23 2:1 3:1 4:1 6:2 7:2 8:1 9:2 10:2 11:1300 12:3 13:999 16:1.4 17:93.918 18:-42.7 19:4.963 20:5228.1 
79.799999999999741 1:50 2:2 3:1 4:6 6:2 7:2 8:1 9:2 10:2 11:623 12:3 13:999 16:1.4 17:93.918 18:-42.7 19:4.963 20:5228.1 
79.799999999999741 1:31 2:3 5:1 8:1 9:2 10:2 11:933 12:2 13:999 16:1.4 17:93.918 18:-42.7 19:4.963 20:5228.1 
79.799999999999741 1:58 2:4 4:5 5:1 8:1 9:2 10:2 11:799 12:4 13:999 16:1.4 17:93.918 18:-42.7 19:4.963 20:5228.1 
79.799999999999741 1:29 2:1 3:1 4:2 6:1 8:1 9:2 10:2 11:476 12:3 13:999 16:1.4 17:93.918 18:-42.7 19:4.963 20:5228.1 
79.799999999999741 1:26 2:2 4:1 8:1 9:2 10:3 11:544 12:1 13:999 16:1.4 17:93.918 18:-42.7 19:4.962 20:5228.1 
79.799999999999741 1:43 2:10 4:1 6:1 8:1 9:2 10:3 11:380 12:1 13:999 16:1.4 17:93.918 18:-42.7 19:4.962 20:5228.1 
79.799999999999741 1:44 2:2 4:6 6:1 8:1 9:2 10:3 11:604 12:1 13:999 16:1.4 17:93.918 18:-42.7 19:4.962 20:5228.1 
79.799999999999741 1:54 2:4 4:1 5:1 8:1 9:2 10:3 11:1756 12:1 13:999 16:1.4 17:93.918 18:-42.7 19:4.962 20:5228.1 
79.799999999999741 1:53 2:3 4:5 5:1 6:2 7:2 9:2 10:3 11:747 12:1 13:999 16:1.4 17:93.918 18:-42.7 19:4.962 20:5228.1 
79.799999999999741 1:53 2:3 4:5 7:1 8:1 9:2 10:3 11:821 12:1 13:999 16:1.4 17:93.918 18:-42.7 19:4.962 20:5228.1 
79.799999999999741 1:38 2:8 4:6 6:1 8:1 9:2 10:3 11:915 12:2 13:999 16:1.4 17:93.918 18:-42.7 19:4.962 20:5228.1 
79.799999999999741 1:40 2:1 4:3 5:1 6:1 8:1 9:2 10:3 11:1206 12:4 13:999 16:1.4 17:93.918 18:-42.7 19:4.962 20:5228.1 
79.799999999999741 1:47 2:4 3:2 4:1 7:1 8:1 9:2 10:3 11:1869 12:1 13:999 16:1.4 17:93.918 18:-42.7 19:4.962 20:5228.1 
79.799999999999741 1:50 2:6 4:4 6:2 7:2 8:1 9:2 10:3 11:230 12:2 13:999 16:1.4 17:93.918 18:-42.7 19:4.962 20:5228.1 
79.799999999999741 1:53 2:4 4:5 5:1 6:1 8:1 9:2 10:3 11:988 12:5 13:999 16:1.4 17:93.918 18:-42.7 19:4.962 20:5228.1 
79.799999999999741 1:54 2:7 4:6 6:1 8:1 9:2 10:3 11:773 12:2 13:999 16:1.4 17:93.918 18:-42.7 19:4.962 20:5228.1 
79.799999999999741 1:57 2:3 6:1 8:1 9:2 10:3 11:953 12:1 13:999 16:1.4 17:93.918 18:-42.7 19:4.962 20:5228.1 
79.799999999999741 1:43 2:2 4:1 6:1 8:1 9:2 10:3 11:1259 12:1 13:999 16:1.4 17:93.918 18:-42.7 19:4.962 20:5228.1 
79.799999999999741 1:53 2:10 4:6 6:1 7:1 8:1 9:2 10:3 11:736 12:2 13:999 16:1.4 17:93.918 18:-42.7 19:4.962 20:5228.1 
79.799999999999741 1:43 2:10 4:1 8:1 9:2 10:3 11:362 12:1 13:999 16:1.4 17:93.918 18:-42.7 19:4.962 20:5228.1 
79.799999999999741 1:44 2:2 4:6 6:1 8:1 9:2 10:3 11:947 12:6 13:999 16:1.4 17:93.918 18:-42.7 19:4.962 20:5228.1 
47.257691478219847 1:51 3:2 4:1 6:1 8:1 9:2 10:3 11:870 12:3 13:999 16:1.4 17:93.918 18:-42.7 19:4.962 20:5228.1 
79.799999999999741 1:28 2:3 6:1 8:1 9:2 10:3 11:1820 12:4 13:999 16:1.4 17:93.918 18:-42.7 19:4.962 20:5228.1 
79.799999999999741 1:57 2:7 4:6 6:1 8:1 9:2 10:3 11:1173 12:4 13:999 16:1.4 17:93.918 18:-42.7 19:4.962 20:5228.1 
79.799999999999741 1:56 2:7 4:5 9:2 10:3 11:626 12:5 13:999 16:1.4 17:93.918 18:-42.7 19:4.962 20:5228.1 
79.799999999999741 1:53 2:8 4:6 8:1 9:2 10:3 11:568 12:3 13:999 16:1.4 17:93.918 18:-42.7 19:4.962 20:5228.1 
79.799999999999741 1:26 2:4 3:1 4:6 9:2 10:3 11:447 12:4 13:999 16:1.4 17:93.918 18:-42.7 19:4.962 20:5228.1 
79.799999999999741 1:56 2:3 4:3 5:1 6:1 8:1 9:2 10:4 11:560 12:1 13:999 16:1.4 17:93.918 18:-42.7 19:4.962 20:5228.1 
79.799999999999741 1:45 2:2 4:4 8:1 9:2 10:4 11:1106 12:1 13:999 16:1.4 17:93.918 18:-42.7 19:4.962 20:5228.1 
79.799999999999741 1:45 2:2 3:2 4:1 6:1 8:1 9:2 10:4 11:800 12:2 13:999 16:1.4 17:93.918 18:-42.7 19:4.962 20:5228.1 
79.799999999999741 1:58 2:5 4:4 6:1 7:1 8:1 9:2 10:4 11:605 12:1 13:999 16:1.4 17:93.918 18:-42.7 19:4.962 20:5228.1 
79.799999999999741 1:55 2:7 4:1 6:1 7:1 8:1 9:2 10:4 11:730 12:1 13:999 16:1.4 17:93.918 18:-42.7 19:4.962 20:5228.1 
79.799999999999741 1:30 2:4 4:1 8:1 9:2 10:4 11:1161 12:26 13:999 16:1.4 17:93.918 18:-42.7 19:4.962 20:5228.1 
79.799999999999741 1:36 2:1 4:1 8:1 9:2 10:4 11:468 12:4 13:999 16:1.4 17:93.918 18:-42.7 19:4.962 20:5228.1 
79.799999999999741 1:46 2:4 4:4 6:2 7:2 8:1 9:2 10:4 11:1368 12:2 13:999 16:1.4 17:93.918 18:-42.7 19:4.962 20:5228.1 
79.799999999999741 1:33 2:1 4:1 6:1 8:1 9:2 10:4 11:396 12:1 13:999 16:1.4 17:93.918 18:-42.7 19:4.962 20:5228.1 
79.799999999999741 1:31 2:1 4:1 7:1 8:1 9:2 10:4 11:1319 12:2 13:999 16:1.4 17:93.918 18:-42.7 19:4.962 20:5228.1 
79.799999999999741 1:57 2:8 4:6 5:1 6:2 7:2 9:2 11:644 12:1 13:999 16:1.4 17:93.918 18:-42.7 19:4.962 20:5228.1 
79.799999999999741 1:43 2:1 4:2 5:1 8:1 9:2 11:547 12:3 13:999 16:1.4 17:93.918 18:-42.7 19:4.962 20:5228.1 
79.799999999999741 1:45 2:2 3:2 4:2 7:1 9:2 11:296 12:1 13:999 16:1.4 17:93.918 18:-42.7 19:4.962 20:5228.1 
79.799999999999741 1:40 2:8 4:5 5:1 9:2 11:1025 12:1 13:999 16:1.4 17:93.918 18:-42.7 19:4.962 20:5228.1 
79.799999999999741 1:51 2:2 3:2 4:6 6:1 8:1 9:2 11:1339 12:2 13:999 16:1.4 17:93.918 18:-42.7 19:4.962 20:5228.1 
79.799999999999741 1:54 2:2 3:2 4:1 8:1 9:2 11:493 12:5 13:999 16:1.4 17:93.918 18:-42.7 19:4.962 20:5228.1 
79.799999999999741 1:55 2:1 3:2 4:1 6:1 8:1 9:2 11:499 12:3 13:999 16:1.4 17:93.918 18:-42.7 19:4.962 20:5228.1 
79.799999999999741 1:56 2:3 3:2 4:2 5:1 9:2 11:1037 12:3 13:999 16:1.4 17:93.918 18:-42.7 19:4.962 20:5228.1 
79.799999999999741 1:47 2:4 4:3 6:2 7:2 8:1 9:2 10:1 11:1569 12:1 13:999 16:1.4 17:93.918 18:-42.7 19:4.961 20:5228.1 
79.799999999999741 1:59 2:5 3:2 4:6 5:1 6:1 8:1 9:2 10:1 11:466 12:1 13:999 16:1.4 17:93.918 18:-42.7 19:4.961 20:5228.1 
79.799999999999741 1:43 2:2 4:1 9:2 10:1 11:647 12:1 13:999 16:1.4 17:93.918 18:-42.7 19:4.961 20:5228.1 
79.799999999999741 1:58 2:2 4:1 5:1 6:1 8:1 9:2 10:1 11:103 12:1 13:999 16:1.4 17:93.918 18:-42.7 19:4.961 20:5228.1 
79.799999999999741 1:54 2:4 3:2 4:4 6:1 7:1 8:1 9:2 10:1 11:797 12:14 13:999 16:1.4 17:93.918 18:-42.7 19:4.961 20:5228.1 
79.799999999999741 1:35 2:2 4:4 6:1 7:1 8:1 9:2 10:1 11:1186 12:2 13:999 16:1.4 17:93.918 18:-42.7 19:4.961 20:5228.1 
79.799999999999741 1:40 2:2 3:1 4:1 6:1 8:1 9:2 10:1 11:635 12:3 13:999 16:1.4 17:93.918 18:-42.7 19:4.961 20:5228.1 
79.799999999999741 1:58 4:6 6:1 8:1 9:2 10:1 11:597 12:5 13:999 16:1.4 17:93.918 18:-42.7 19:4.961 20:5228.1 
79.799999999999741 1:59 3:2 4:6 8:1 9:2 10:1 11:367 12:1 13:999 16:1.4 17:93.918 18:-42.7 19:4.961 20:5228.1 
79.799999999999741 1:30 2:2 4:1 8:1 9:2 10:1 11:935 12:4 13:999 16:1.4 17:93.918 18:-42.7 19:4.961 20:5228.1 
79.799999999999741 1:55 5:1 9:2 10:1 11:1140 12:2 13:999 16:1.4 17:93.918 18:-42.7 19:4.961 20:5228.1 
79.799999999999741 1:44 4:6 5:1 7:1 8:1 9:2 10:1 11:468 12:2 13:999 16:1.4 17:93.918 18:-42.7 19:4.961 20:5228.1 
79.799999999999741 1:31 2:3 3:1 4:4 6:1 8:1 9:2 10:1 11:825 12:13 13:999 16:1.4 17:93.918 18:-42.7 19:4.961 20:5228.1 
79.799999999999741 1:45 2:2 4:6 8:1 9:2 10:2 11:520 12:4 13:999 16:1.4 17:93.918 18:-42.7 19:4.963 20:5228.1 
79.799999999999741 1:25 2:1 3:1 4:1 5:1 6:1 7:1 8:1 9:2 10:2 11:984 12:7 13:999 16:1.4 17:93.918 18:-42.7 19:4.963 20:5228.1 
79.799999999999741 1:38 2:2 3:1 4:6 6:1 8:1 9:2 10:2 11:834 12:1 13:999 16:1.4 17:93.918 18:-42.7 19:4.963 20:5228.1 
79.799999999999741 1:46 2:1 3:2 4:1 6:1 8:1 9:2 10:2 11:652 12:1 13:999 16:1.4 17:93.918 18:-42.7 19:4.963 20:5228.1 
79.799999999999741 1:28 2:8 4:6 6:1 8:1 9:2 10:2 11:695 12:1 13:999 16:1.4 17:93.918 18:-42.7 19:4.963 20:5228.1 
79.799999999999741 1:40 2:2 3:2 4:6 6:1 8:1 9:2 10:2 11:594 12:1 13:999 16:1.4 17:93.918 18:-42.7 19:4.963 20:5228.1 
79.799999999999741 1:33 2:11 4:1 8:1 9:2 10:2 11:622 12:2 13:999 16:1.4 17:93.918 18:-42.7 19:4.963 20:5228.1 
79.799999999999741 1:25 2:1 3:1 4:3 6:1 8:1 9:2 10:2 11:535 12:1 13:999 16:1.4 17:93.918 18:-42.7 19:4.963 20:5228.1 
79.799999999999741 1:34 2:4 3:1 4:4 6:1 8:1 9:2 10:2 11:1078 12:8 13:999 16:1.4 17:93.918 18:-42.7 19:4.963 20:5228.1 
79.799999999999741 1:35 2:1 4:1 6:1 8:1 9:2 10:2 11:698 12:2 13:999 16:1.4 17:93.918 18:-42.7 19:4.963 20:5228.1 
79.799999999999741 1:58 2:3 5:1 6:1 8:1 9:2 10:2 11:647 12:6 13:999 16:1.4 17:93.918 18:-42.7 19:4.963 20:5228.1 
79.799999999999741 1:35 2:3 4:3 8:1 9:2 10:2 11:1259 12:6 13:999 16:1.4 17:93.918 18:-42.7 19:4.963 20:5228.1 
79.799999999999741 1:36 2:7 4:6 8:1 9:2 10:3 11:616 12:2 13:999 16:1.4 17:93.918 18:-42.7 19:4.968 20:5228.1 
79.799999999999741 1:32 2:4 3:1 4:4 6:1 7:1 8:1 9:2 10:3 11:234 12:1 13:999 16:1.4 17:93.918 18:-42.7 19:4.968 20:5228.1 
26.683488077877232 1:39 2:1 4:1 6:1 8:1 9:2 10:3 11:543 12:29 13:999 16:1.4 17:93.918 18:-42.7 19:4.968 20:5228.1 
79.799999999999741 1:40 2:4 4:4 5:1 6:1 8:1 9:2 10:3 11:847 12:10 13:999 16:1.4 17:93.918 18:-42.7 19:4.968 20:5228.1 
79.799999999999741 1:45 2:6 4:6 8:1 9:2 10:3 11:843 12:1 13:999 16:1.4 17:93.918 18:-42.7 19:4.968 20:5228.1 
79.799999999999741 1:36 2:2 4:6 8:1 9:2 10:3 11:1739 12:5 13:999 16:1.4 17:93.918 18:-42.7 19:4.968 20:5228.1 
79.799999999999741 1:34 2:1 4:1 9:2 10:3 11:733 12:1 13:999 16:1.4 17:93.918 18:-42.7 19:4.968 20:5228.1 
79.799999999999741 1:36 2:2 3:1 4:6 6:1 8:1 9:2 10:3 11:744 12:8 13:999 16:1.4 17:93.918 18:-42.7 19:4.968 20:5228.1 
79.799999999999741 1:32 2:4 4:6 6:1 9:2 10:3 11:443 12:4 13:999 16:1.4 17:93.918 18:-42.7 19:4.968 20:5228.1 
79.799999999999741 1:36 2:2 3:1 4:6 6:1 8:1 9:2 10:3 11:536 12:7 13:999 16:1.4 17:93.918 18:-42.7 19:4.968 20:5228.1 
79.799999999999741 1:58 2:3 4:3 8:1 9:3 11:498 12:1 13:999 16:1.4 17:93.444 18:-36.1 19:4.97 20:5228.1 
79.799999999999741 1:38 2:4 4:4 8:1 9:3 11:606 12:3 13:999 16:1.4 17:93.444 18:-36.1 19:4.97 20:5228.1 
79.799999999999741 1:57 2:2 4:1 8:1 9:3 11:958 12:2 13:999 16:1.4 17:93.444 18:-36.1 19:4.97 20:5228.1 
79.799999999999741 1:33 2:4 3:2 4:4 8:1 9:3 11:686 12:2 13:999 16:1.4 17:93.444 18:-36.1 19:4.97 20:5228.1 
79.799999999999741 1:48 2:3 4:3 6:1 8:1 9:3 11:597 12:2 13:999 16:1.4 17:93.444 18:-36.1 19:4.97 20:5228.1 
79.799999999999741 1:30 2:2 3:1 4:6 6:1 8:1 9:3 11:857 12:2 13:999 16:1.4 17:93.444 18:-36.1 19:4.97 20:5228.1 
79.799999999999741 1:30 2:2 4:6 7:1 8:1 9:3 11:753 12:2 13:999 16:1.4 17:93.444 18:-36.1 19:4.97 20:5228.1 
79.799999999999741 1:35 2:2 3:1 4:6 6:1 8:1 9:3 10:1 11:448 12:1 13:999 16:1.4 17:93.444 18:-36.1 19:4.968 20:5228.1 
79.799999999999741 1:49 2:2 4:6 6:1 8:1 9:3 10:1 11:790 12:1 13:999 16:1.4 17:93.444 18:-36.1 19:4.968 20:5228.1 
79.799999999999741 1:46 2:3 4:3 6:1 7:1 8:1 9:3 10:1 11:704 12:2 13:999 16:1.4 17:93.444 18:-36.1 19:4.968 20:5228.1 
79.799999999999741 1:30 2:2 3:1 4:6 8:1 9:3 10:1 11:1110 12:2 13:999 16:1.4 17:93.444 18:-36.1 19:4.968 20:5228.1 
79.799999999999741 1:37 2:6 4:6 6:1 8:1 9:3 10:1 11:263 12:2 13:999 16:1.4 17:93.444 18:-36.1 19:4.968 20:5228.1 
79.799999999999741 1:50 2:2 4:6 6:1 8:1 9:3 10:1 11:608 12:2 13:999 16:1.4 17:93.444 18:-36.1 19:4.968 20:5228.1 
79.799999999999741 1:59 2:3 4:3 6:1 8:1 9:3 10:1 11:1197 12:2 13:999 16:1.4 17:93.444 18:-36.1 19:4.968 20:5228.1 
79.799999999999741 1:48 2:3 4:4 6:1 8:1 9:3 10:1 11:996 12:2 13:999 16:1.4 17:93.444 18:-36.1 19:4.968 20:5228.1 
79.799999999999741 1:44 2:2 4:6 5:1 6:1 7:1 8:1 9:3 10:2 11:376 12:2 13:999 16:1.4 17:93.444 18:-36.1 19:4.967 20:5228.1 
79.799999999999741 1:38 2:2 4:6 8:1 9:3 10:2 11:898 12:1 13:999 16:1.4 17:93.444 18:-36.1 19:4.967 20:5228.1 
79.799999999999741 1:50 2:2 3:2 4:1 5:1 7:1 8:1 9:3 10:2 11:359 12:1 13:999 16:1.4 17:93.444 18:-36.1 19:4.967 20:5228.1 
79.799999999999741 1:39 2:2 3:1 4:6 6:1 8:1 9:3 10:2 11:2191 12:1 13:999 16:1.4 17:93.444 18:-36.1 19:4.967 20:5228.1 
79.799999999999741 1:33 2:4 3:1 4:4 8:1 9:3 10:2 11:732 12:1 13:999 16:1.4 17:93.444 18:-36.1 19:4.967 20:5228.1 
79.799999999999741 1:31 2:4 3:1 4:6 6:1 8:1 9:3 10:2 11:411 12:1 13:999 16:1.4 17:93.444 18:-36.1 19:4.967 20:5228.1 
79.799999999999741 1:45 2:5 4:3 6:1 8:1 9:3 10:2 11:601 12:1 13:999 16:1.4 17:93.444 18:-36.1 19:4.967 20:5228.1 
79.799999999999741 1:31 2:2 3:1 4:6 6:1 8:1 9:3 10:2 11:432 12:2 13:999 16:1.4 17:93.444 18:-36.1 19:4.967 20:5228.1 
79.799999999999741 1:42 2:6 4:1 8:1 9:3 10:2 11:588 12:3 13:999 16:1.4 17:93.444 18:-36.1 19:4.967 20:5228.1 
79.799999999999741 1:54 2:5 4:1 8:1 9:3 10:2 11:543 12:4 13:999 16:1.4 17:93.444 18:-36.1 19:4.967 20:5228.1 
79.799999999999741 1:30 2:4 3:1 4:6 5:1 8:1 9:3 10:3 11:666 12:1 13:999 16:1.4 17:93.444 18:-36.1 19:4.968 20:5228.1 
79.799999999999741 1:31 2:2 3:1 4:6 6:1 7:1 8:1 9:3 10:3 11:1462 12:2 13:999 16:1.4 17:93.444 18:-36.1 19:4.968 20:5228.1 
79.799999999999741 1:33 2:2 4:6 6:1 7:1 8:1 9:3 10:3 11:1834 12:1 13:999 16:1.4 17:93.444 18:-36.1 19:4.968 20:5228.1 
79.799999999999741 1:47 2:6 4:1 8:1 9:3 10:3 11:3422 12:1 13:999 16:1.4 17:93.444 18:-36.1 19:4.968 20:5228.1 
79.799999999999741 1:57 2:4 4:1 8:1 9:3 10:3 11:1230 12:1 13:999 16:1.4 17:93.444 18:-36.1 19:4.968 20:5228.1 
79.799999999999741 1:34 2:2 3:1 4:6 6:1 8:1 9:3 10:3 11:1934 12:2 13:999 16:1.4 17:93.444 18:-36.1 19:4.968 20:5228.1 
4.4292376988233944 1:37 4:1 5:1 7:1 8:1 9:3 10:3 11:534 12:2 13:999 16:1.4 17:93.444 18:-36.1 19:4.968 20:5228.1 
79.799999999999741 1:46 2:4 4:4 5:1 6:1 8:1 9:3 10:3 11:721 12:5 13:999 16:1.4 17:93.444 18:-36.1 19:4.968 20:5228.1 
79.799999999999741 1:53 2:10 4:6 6:1 8:1 9:3 10:4 11:899 12:2 13:999 16:1.4 17:93.444 18:-36.1 19:4.966 20:5228.1 
79.799999999999741 1:49 2:1 4:1 5:1 6:1 8:1 9:3 10:4 11:889 12:2 13:999 16:1.4 17:93.444 18:-36.1 19:4.966 20:5228.1 
79.799999999999741 1:53 2:2 3:2 4:1 7:1 8:1 9:3 10:4 11:1567 12:3 13:999 16:1.4 17:93.444 18:-36.1 19:4.966 20:5228.1 
79.799999999999741 1:30 2:3 4:1 6:1 8:1 9:3 10:4 11:765 12:3 13:999 16:1.4 17:93.444 18:-36.1 19:4.966 20:5228.1 
79.799999999999741 1:58 2:4 4:4 6:1 9:3 11:697 12:5 13:999 16:1.4 17:93.444 18:-36.1 19:4.965 20:5228.1 
79.799999999999741 1:34 2:2 3:1 4:6 6:1 8:1 9:3 11:667 12:1 13:999 16:1.4 17:93.444 18:-36.1 19:4.965 20:5228.1 
79.799999999999741 1:31 2:6 3:1 4:6 8:1 9:3 11:1099 12:2 13:999 16:1.4 17:93.444 18:-36.1 19:4.965 20:5228.1 
79.799999999999741 1:47 2:2 3:1 4:6 8:1 9:3 11:549 12:1 13:999 16:1.4 17:93.444 18:-36.1 19:4.965 20:5228.1 
79.799999999999741 1:30 2:4 4:1 6:1 8:1 9:3 11:862 12:9 13:999 16:1.4 17:93.444 18:-36.1 19:4.965 20:5228.1 
79.799999999999741 1:38 2:2 3:1 4:6 6:1 7:1 8:1 9:3 11:1504 12:2 13:999 16:1.4 17:93.444 18:-36.1 19:4.965 20:5228.1 
79.799999999999741 1:35 2:4 4:6 6:1 8:1 9:3 10:1 11:614 12:1 13:999 16:1.4 17:93.444 18:-36.1 19:4.966 20:5228.1 
79.799999999999741 1:30 2:2 3:1 4:6 8:1 9:3 10:1 11:365 12:1 13:999 16:1.4 17:93.444 18:-36.1 19:4.966 20:5228.1 
79.799999999999741 1:35 2:4 4:1 6:1 8:1 9:3 10:1 11:603 12:1 13:999 16:1.4 17:93.444 18:-36.1 19:4.966 20:5228.1 
79.799999999999741 1:54 2:3 5:1 6:1 8:1 9:3 10:1 11:781 12:5 13:999 16:1.4 17:93.444 18:-36.1 19:4.966 20:5228.1 
79.799999999999741 1:53 2:6 4:6 8:1 9:3 10:1 11:864 12:3 13:999 16:1.4 17:93.444 18:-36.1 19:4.966 20:5228.1 
79.799999999999741 1:41 2:4 4:4 8:1 9:3 10:1 11:1476 12:2 13:999 16:1.4 17:93.444 18:-36.1 19:4.966 20:5228.1 
79.799999999999741 1:60 2:1 6:1 9:3 10:2 11:767 12:7 13:999 16:1.4 17:93.444 18:-36.1 19:4.965 20:5228.1 
79.799999999999741 1:54 2:1 6:1 7:1 8:1 9:3 10:2 11:900 12:1 13:999 16:1.4 17:93.444 18:-36.1 19:4.965 20:5228.1 
79.799999999999741 1:34 2:10 4:5 6:1 7:1 8:1 9:3 10:2 11:684 12:1 13:999 16:1.4 17:93.444 18:-36.1 19:4.965 20:5228.1 
79.799999999999741 1:52 2:2 3:2 4:6 8:1 9:3 10:2 11:559 12:2 13:999 16:1.4 17:93.444 18:-36.1 19:4.965 20:5228.1 
79.799999999999741 1:46 2:6 4:6 8:1 9:3 10:2 11:517 12:1 13:999 16:1.4 17:93.444 18:-36.1 19:4.965 20:5228.1 
79.799999999999741 1:35 2:4 3:1 4:4 6:1 8:1 9:3 10:2 11:536 12:3 13:999 16:1.4 17:93.444 18:-36.1 19:4.965 20:5228.1 
79.799999999999741 1:36 2:2 3:1 4:6 6:1 8:1 9:3 10:3 11:1217 12:2 13:999 16:1.4 17:93.444 18:-36.1 19:4.964 20:5228.1 
79.799999999999741 1:34 2:4 3:1 4:6 6:1 9:3 10:3 11:313 12:1 13:999 16:1.4 17:93.444 18:-36.1 19:4.964 20:5228.1 
79.799999999999741 1:42 2:4 3:1 4:6 6:1 8:1 9:3 10:3 11:935 12:1 13:999 16:1.4 17:93.444 18:-36.1 19:4.964 20:5228.1 
79.799999999999741 1:31 2:4 4:6 6:1 8:1 9:3 10:3 11:515 12:1 13:999 16:1.4 17:93.444 18:-36.1 19:4.964 20:5228.1 
57.060568756351017 1:47 2:2 4:1 6:1 7:1 8:1 9:3 10:3 11:3322 12:1 13:999 16:1.4 17:93.444 18:-36.1 19:4.964 20:5228.1 
79.799999999999741 1:31 2:4 3:1 4:4 8:1 9:3 10:3 11:449 12:1 13:999 16:1.4 17:93.444 18:-36.1 19:4.964 20:5228.1 
79.799999999999741 1:33 2:2 3:1 4:6 8:1 9:3 10:3 11:277 12:2 13:999 16:1.4 17:93.444 18:-36.1 19:4.964 20:5228.1 
79.799999999999741 1:51 2:6 4:6 6:1 8:1 9:3 10:3 11:386 12:1 13:999 16:1.4 17:93.444 18:-36.1 19:4.964 20:5228.1 
79.799999999999741 1:32 2:2 3:1 4:6 6:1 8:1 9:3 10:3 11:1871 12:2 13:999 16:1.4 17:93.444 18:-36.1 19:4.964 20:5228.1 
79.799999999999741 1:44 2:3 6:1 8:1 9:3 11:781 12:1 13:999 16:1.4 17:93.444 18:-36.1 19:4.963 20:5228.1 
79.799999999999741 1:34 2:2 3:1 4:6 5:1 8:1 9:3 11:1126 12:3 13:999 16:1.4 17:93.444 18:-36.1 19:4.963 20:5228.1 
79.799999999999741 1:41 2:4 4:4 6:1 8:1 9:3 11:984 12:1 13:999 16:1.4 17:93.444 18:-36.1 19:4.963 20:5228.1 
79.799999999999741 1:35 2:2 4:6 8:1 9:3 11:1364 12:2 13:999 16:1.4 17:93.444 18:-36.1 19:4.963 20:5228.1 
79.799999999999741 1:37 2:4 3:1 4:6 5:1 7:1 8:1 9:3 11:1559 12:5 13:999 16:1.4 17:93.444 18:-36.1 19:4.963 20:5228.1 
79.799999999999741 1:41 2:4 3:2 4:6 6:1 8:1 9:3 11:835 12:4 13:999 16:1.4 17:93.444 18:-36.1 19:4.963 20:5228.1 
79.799999999999741 1:53 2:8 4:6 5:1 6:1 8:1 9:3 11:693 12:6 13:999 16:1.4 17:93.444 18:-36.1 19:4.963 20:5228.1 
79.799999999999741 1:56 2:5 4:6 8:1 9:3 10:1 11:331 12:1 13:999 16:1.4 17:93.444 18:-36.1 19:4.963 20:5228.1 
79.799999999999741 1:42 2:6 4:1 6:1 8:1 9:3 10:1 11:671 12:1 13:999 16:1.4 17:93.444 18:-36.1 19:4.963 20:5228.1 
79.799999999999741 1:36 2:6 4:6 5:1 8:1 9:3 10:1 11:504 12:2 13:999 16:1.4 17:93.444 18:-36.1 19:4.963 20:5228.1 
79.799999999999741 1:33 2:4 3:1 4:4 7:1 8:1 9:3 10:1 11:501 12:1 13:999 16:1.4 17:93.444 18:-36.1 19:4.963 20:5228.1 
79.799999999999741 1:32 2:2 3:1 4:6 6:1 8:1 9:3 10:1 11:202 12:1 13:999 16:1.4 17:93.444 18:-36.1 19:4.963 20:5228.1 
79.799999999999741 1:33 2:4 4:4 6:1 8:1 9:3 10:1 11:452 12:1 13:999 16:1.4 17:93.444 18:-36.1 19:4.963 20:5228.1 
79.799999999999741 1:50 2:4 4:1 5:1 8:1 9:3 10:1 11:679 12:1 13:999 16:1.4 17:93.444 18:-36.1 19:4.963 20:5228.1 
79.799999999999741 1:32 2:4 4:6 8:1 9:3 10:1 11:224 12:1 13:999 16:1.4 17:93.444 18:-36.1 19:4.963 20:5228.1 
79.799999999999741 1:33 2:4 4:4 8:1 9:3 10:1 11:1241 12:2 13:999 16:1.4 17:93.444 18:-36.1 19:4.963 20:5228.1 
79.799999999999741 1:32 2:4 3:1 4:6 8:1 9:3 10:1 11:696 12:1 13:999 16:1.4 17:93.444 18:-36.1 19:4.963 20:5228.1 
79.799999999999741 1:31 2:6 4:6 8:1 9:3 10:1 11:551 12:2 13:999 16:1.4 17:93.444 18:-36.1 19:4.963 20:5228.1 
79.799999999999741 1:31 2:2 4:6 7:1 8:1 9:3 10:1 11:824 12:1 13:999 16:1.4 17:93.444 18:-36.1 19:4.963 20:5228.1 
79.799999999999741 1:50 2:2 4:2 6:1 8:1 9:3 10:1 11:264 12:1 13:999 16:1.4 17:93.444 18:-36.1 19:4.963 20:5228.1 
79.799999999999741 1:32 2:4 4:1 6:1 8:1 9:3 10:1 11:599 12:3 13:999 16:1.4 17:93.444 18:-36.1 19:4.963 20:5228.1 
79.799999999999741 1:36 2:4 3:1 4:1 6:1 7:1 8:1 9:3 10:1 11:629 12:7 13:999 16:1.4 17:93.444 18:-36.1 19:4.963 20:5228.1 
79.799999999999741 1:45 2:3 4:2 5:1 6:1 8:1 9:3 10:1 11:561 12:2 13:999 16:1.4 17:93.444 18:-36.1 19:4.963 20:5228.1 
79.799999999999741 1:40 2:2 3:2 4:6 5:1 6:1 8:1 9:3 10:1 11:1200 12:2 13:999 16:1.4 17:93.444 18:-36.1 19:4.963 20:5228.1 
79.799999999999741 1:36 2:4 3:1 4:6 6:2 7:2 8:1 9:3 10:2 11:889 12:2 13:999 16:1.4 17:93.444 18:-36.1 19:4.964 20:5228.1 
79.799999999999741 1:43 2:4 4:4 6:1 7:1 8:1 9:3 10:2 11:744 12:5 13:999 16:1.4 17:93.444 18:-36.1 19:4.964 20:5228.1 
79.799999999999741 1:56 2:2 4:6 6:1 8:1 9:3 10:2 11:471 12:5 13:999 16:1.4 17:93.444 18:-36.1 19:4.964 20:5228.1 
79.799999999999741 1:29 2:4 3:1 4:6 8:1 9:3 10:2 11:797 12:2 13:999 16:1.4 17:93.444 18:-36.1 19:4.964 20:5228.1 
79.799999999999741 1:39 8:1 9:3 10:2 11:975 12:2 13:999 16:1.4 17:93.444 18:-36.1 19:4.964 20:5228.1 
79.799999999999741 1:29 2:4 3:1 4:6 8:1 9:3 10:2 11:896 12:6 13:999 16:1.4 17:93.444 18:-36.1 19:4.964 20:5228.1 
79.799999999999741 1:30 2:4 4:6 6:1 7:1 8:1 9:3 10:2 11:678 12:4 13:999 16:1.4 17:93.444 18:-36.1 19:4.964 20:5228.1 
79.799999999999741 1:30 2:2 4:6 6:1 7:1 8:1 9:3 10:2 11:1464 12:2 13:999 16:1.4 17:93.444 18:-36.1 19:4.964 20:5228.1 
79.799999999999741 1:48 2:1 4:1 6:1 8:1 9:3 10:3 11:310 12:1 13:999 16:1.4 17:93.444 18:-36.1 19:4.963 20:5228.1 
79.799999999999741 1:48 2:1 4:1 5:1 8:1 9:3 10:3 11:776 12:1 13:999 16:1.4 17:93.444 18:-36.1 19:4.963 20:5228.1 
79.799999999999741 1:32 2:4 3:1 4:6 6:1 8:1 9:3 10:3 11:588 12:1 13:999 16:1.4 17:93.444 18:-36.1 19:4.963 20:5228.1 
79.799999999999741 1:48 2:3 4:3 5:1 8:1 9:3 10:3 11:1111 12:3 13:999 16:1.4 17:93.444 18:-36.1 19:4.963 20:5228.1 
79.799999999999741 1:41 2:4 4:4 7:1 8:1 9:3 10:3 11:898 12:2 13:999 16:1.4 17:93.444 18:-36.1 19:4.963 20:5228.1 
79.799999999999741 1:50 2:2 4:6 6:1 7:1 8:1 9:3 10:3 11:508 12:4 13:999 16:1.4 17:93.444 18:-36.1 19:4.963 20:5228.1 
79.799999999999741 1:32 2:4 4:6 6:1 8:1 9:3 10:3 11:719 12:4 13:999 16:1.4 17:93.444 18:-36.1 19:4.963 20:5228.1 
79.799999999999741 1:50 2:4 4:4 6:1 7:1 8:1 9:3 10:3 11:870 12:2 13:999 16:1.4 17:93.444 18:-36.1 19:4.963 20:5228.1 
79.799999999999741 1:50 2:2 4:5 6:1 8:1 9:3 10:3 11:794 12:1 13:999 16:1.4 17:93.444 18:-36.1 19:4.963 20:5228.1 
79.799999999999741 1:59 2:2 4:4 6:1 7:1 8:1 9:3 10:4 11:1241 12:1 13:999 16:1.4 17:93.444 18:-36.1 19:4.964 20:5228.1 
79.799999999999741 1:34 2:2 4:6 7:1 8:1 9:3 10:4 11:944 12:7 13:999 16:1.4 17:93.444 18:-36.1 19:4.964 20:5228.1 
79.799999999999741 1:59 2:4 3:2 4:4 6:1 8:1 9:3 10:4 11:492 12:5 13:999 16:1.4 17:93.444 18:-36.1 19:4.964 20:5228.1 
79.799999999999741 1:30 2:4 3:1 4:6 7:1 8:1 9:3 10:4 11:1197 12:6 13:999 16:1.4 17:93.444 18:-36.1 19:4.964 20:5228.1 
79.799999999999741 1:38 2:4 3:1 4:6 6:1 7:1 8:1 9:3 10:4 11:572 12:1 13:999 16:1.4 17:93.444 18:-36.1 19:4.964 20:5228.1 
79.799999999999741 1:32 2:4 4:4 5:1 6:1 8:1 9:3 10:4 11:1809 12:4 13:999 16:1.4 17:93.444 18:-36.1 19:4.964 20:5228.1 
79.799999999999741 1:48 2:2 4:6 6:1 8:1 9:3 10:4 11:651 12:9 13:999 16:1.4 17:93.444 18:-36.1 19:4.964 20:5228.1 
79.799999999999741 1:42 2:2 3:1 4:6 8:1 9:3 10:4 11:361 12:2 13:999 16:1.4 17:93.444 18:-36.1 19:4.964 20:5228.1 
79.799999999999741 1:30 2:2 3:1 4:6 5:1 8:1 9:3 10:4 11:714 12:3 13:999 16:1.4 17:93.444 18:-36.1 19:4.964 20:5228.1 
79.799999999999741 1:60 2:6 4:6 6:1 8:1 9:3 10:4 11:527 12:4 13:999 16:1.4 17:93.444 18:-36.1 19:4.964 20:5228.1 
79.799999999999741 1:51 2:1 4:5 8:1 9:3 10:4 11:547 12:3 13:999 16:1.4 17:93.444 18:-36.1 19:4.964 20:5228.1 
79.799999999999741 1:32 2:2 4:6 6:1 8:1 9:3 10:4 11:1366 12:1 13:999 16:1.4 17:93.444 18:-36.1 19:4.964 20:5228.1 
79.799999999999741 1:36 2:2 3:1 4:6 6:1 8:1 9:3 11:770 12:7 13:999 16:1.4 17:93.444 18:-36.1 19:4.965 20:5228.1 
79.799999999999741 1:42 2:6 4:6 5:1 6:1 7:1 8:1 9:3 10:1 11:634 12:1 13:999 16:1.4 17:93.444 18:-36.1 19:4.965 20:5228.1 
79.799999999999741 1:55 2:4 3:2 4:4 5:1 8:1 9:3 10:1 11:700 12:1 13:999 16:1.4 17:93.444 18:-36.1 19:4.965 20:5228.1 
79.799999999999741 1:43 2:4 4:4 5:1 8:1 9:3 10:1 11:471 12:4 13:999 16:1.4 17:93.444 18:-36.1 19:4.965 20:5228.1 
79.799999999999741 1:46 2:10 4:1 6:1 8:1 9:3 10:1 11:435 12:5 13:999 16:1.4 17:93.444 18:-36.1 19:4.965 20:5228.1 
79.799999999999741 1:54 2:4 4:4 5:1 6:1 8:1 9:3 10:2 11:511 12:3 13:999 16:1.4 17:93.444 18:-36.1 19:4.964 20:5228.1 
79.799999999999741 1:33 2:2 4:6 8:1 9:3 10:2 11:787 12:9 13:999 16:1.4 17:93.444 18:-36.1 19:4.964 20:5228.1 
79.799999999999741 1:31 2:2 4:6 6:1 8:1 9:3 10:3 11:1037 12:4 13:999 16:1.4 17:93.444 18:-36.1 19:4.962 20:5228.1 
79.799999999999741 1:42 2:6 4:6 6:1 8:1 9:3 10:3 11:715 12:4 13:999 16:1.4 17:93.444 18:-36.1 19:4.962 20:5228.1 
79.799999999999741 1:31 2:4 3:1 4:6 6:1 8:1 9:3 10:3 11:958 12:5 13:999 16:1.4 17:93.444 18:-36.1 19:4.962 20:5228.1 
79.799999999999741 1:58 2:2 3:2 4:6 6:1 9:3 10:3 11:688 12:6 13:999 16:1.4 17:93.444 18:-36.1 19:4.962 20:5228.1 
79.799999999999741 1:38 2:2 4:6 6:1 8:1 9:3 10:4 11:345 12:1 13:999 16:1.4 17:93.444 18:-36.1 19:4.963 20:5228.1 
79.799999999999741 1:39 2:4 4:6 5:1 8:1 9:3 10:4 11:1028 12:1 13:999 16:1.4 17:93.444 18:-36.1 19:4.963 20:5228.1 
79.799999999999741 1:32 2:2 3:1 4:6 6:1 7:1 8:1 9:3 10:4 11:709 12:7 13:999 16:1.4 17:93.444 18:-36.1 19:4.963 20:5228.1 
79.799999999999741 1:29 2:2 3:1 4:6 6:1 7:1 8:1 9:3 10:4 11:493 12:1 13:999 16:1.4 17:93.444 18:-36.1 19:4.963 20:5228.1 
7.2801060562059954 1:46 2:2 3:2 4:1 6:1 9:4 10:4 11:3253 12:1 13:999 16:-0.1 17:93.798 18:-40.4 19:5.045 20:5195.8 
79.799999999999741 1:35 2:10 4:6 6:1 7:1 9:4 11:2429 12:1 13:999 16:-0.1 17:93.798 18:-40.4 19:5 20:5195.8 
79.799999999999741 1:25 2:2 3:1 4:6 7:1 9:5 10:1 11:5 12:1 13:999 16:-0.1 17:93.2 18:-42 19:4.7 20:5195.8 
79.799999999999741 1:57 2:5 3:2 4:6 6:1 9:5 10:1 11:21 12:1 13:999 16:-0.1 17:93.2 18:-42 19:4.7 20:5195.8 
79.799999999999741 1:33 2:4 3:1 4:4 6:1 9:5 11:4918 12:1 13:999 16:-0.1 17:93.2 18:-42 19:4.406 20:5195.8 
79.799999999999741 1:34 2:2 3:1 4:1 8:1 9:5 11:303 12:1 13:999 14:1 15:1 16:-0.1 17:93.2 18:-42 19:4.191 20:5195.8 
79.799999999999741 1:46 2:6 4:6 8:1 9:5 11:595 12:1 13:999 16:-0.1 17:93.2 18:-42 19:4.191 20:5195.8 
79.799999999999741 1:39 2:6 3:1 4:3 6:1 8:1 9:5 11:125 12:1 13:999 16:-0.1 17:93.2 18:-42 19:4.191 20:5195.8 
79.799999999999741 1:29 2:8 3:1 4:6 7:1 9:5 11:378 12:1 13:999 16:-0.1 17:93.2 18:-42 19:4.191 20:5195.8 
79.799999999999741 1:41 2:2 3:2 4:6 6:1 8:1 9:5 11:479 12:1 13:999 16:-0.1 17:93.2 18:-42 19:4.191 20:5195.8 
79.799999999999741 1:50 2:2 4:6 8:1 9:5 11:58 12:1 13:999 16:-0.1 17:93.2 18:-42 19:4.191 20:5195.8 
79.799999999999741 1:49 2:4 4:4 6:1 8:1 9:5 11:259 12:1 13:999 16:-0.1 17:93.2 18:-42 19:4.191 20:5195.8 
79.799999999999741 1:51 2:6 4:6 6:1 8:1 9:5 11:1070 12:1 13:999 16:-0.1 17:93.2 18:-42 19:4.191 20:5195.8 
79.799999999999741 1:42 2:4 4:4 5:1 6:1 9:5 11:1606 12:1 13:999 16:-0.1 17:93.2 18:-42 19:4.191 20:5195.8 
79.799999999999741 1:52 2:6 3:2 4:6 6:1 8:1 9:5 11:534 12:1 13:999 16:-0.1 17:93.2 18:-42 19:4.191 20:5195.8 
79.799999999999741 1:33 2:4 3:1 4:6 8:1 9:5 11:69 12:1 13:999 16:-0.1 17:93.2 18:-42 19:4.191 20:5195.8 
79.799999999999741 1:36 2:8 3:1 4:6 8:1 9:5 11:406 12:1 13:999 16:-0.1 17:93.2 18:-42 19:4.191 20:5195.8 
79.799999999999741 1:45 2:10 4:1 8:1 9:5 11:623 12:1 13:999 14:1 15:1 16:-0.1 17:93.2 18:-42 19:4.191 20:5195.8 
79.799999999999741 1:38 2:2 3:1 4:3 6:1 8:1 9:5 11:1081 12:1 13:999 14:1 15:1 16:-0.1 17:93.2 18:-42 19:4.191 20:5195.8 
79.799999999999741 1:46 2:2 4:1 6:1 8:1 9:5 11:622 12:1 13:999 16:-0.1 17:93.2 18:-42 19:4.191 20:5195.8 
79.799999999999741 1:40 2:10 3:2 4:6 8:1 9:5 11:325 12:2 13:999 16:-0.1 17:93.2 18:-42 19:4.191 20:5195.8 
79.799999999999741 1:40 2:3 4:3 6:1 8:1 9:5 11:55 12:1 13:999 16:-0.1 17:93.2 18:-42 19:4.191 20:5195.8 
79.799999999999741 1:42 2:2 4:6 6:1 8:1 9:5 11:375 12:1 13:999 16:-0.1 17:93.2 18:-42 19:4.191 20:5195.8 
79.799999999999741 1:33 2:6 4:6 6:1 8:1 9:5 11:318 12:1 13:999 16:-0.1 17:93.2 18:-42 19:4.191 20:5195.8 
79.799999999999741 1:52 2:10 3:1 4:6 5:1 6:1 8:1 9:5 11:472 12:2 13:999 16:-0.1 17:93.2 18:-42 19:4.191 20:5195.8 
79.799999999999741 1:44 2:4 3:1 4:6 8:1 9:5 11:396 12:3 13:999 16:-0.1 17:93.2 18:-42 19:4.191 20:5195.8 
79.799999999999741 1:52 2:1 3:2 4:1 5:1 6:1 8:1 9:5 11:734 12:1 13:999 16:-0.1 17:93.2 18:-42 19:4.191 20:5195.8 
79.799999999999741 1:39 2:4 4:4 6:1 7:1 8:1 9:5 11:501 12:1 13:999 16:-0.1 17:93.2 18:-42 19:4.191 20:5195.8 
79.799999999999741 1:35 2:2 4:6 8:1 9:5 11:747 12:1 13:999 16:-0.1 17:93.2 18:-42 19:4.191 20:5195.8 
79.799999999999741 1:30 2:3 3:1 4:3 6:1 8:1 9:5 11:563 12:2 13:999 16:-0.1 17:93.2 18:-42 19:4.191 20:5195.8 
79.799999999999741 1:46 2:8 4:3 5:1 7:1 8:1 9:5 11:836 12:1 13:999 14:1 15:1 16:-0.1 17:93.2 18:-42 19:4.191 20:5195.8 
79.799999999999741 1:46 2:4 4:1 6:1 8:1 9:5 11:569 12:1 13:999 16:-0.1 17:93.2 18:-42 19:4.191 20:5195.8 
79.799999999999741 1:32 2:2 3:1 4:1 6:1 8:1 9:5 11:333 12:2 13:999 16:-0.1 17:93.2 18:-42 19:4.191 20:5195.8 
79.799999999999741 1:40 2:3 8:1 9:5 11:1121 12:2 13:999 16:-0.1 17:93.2 18:-42 19:4.191 20:5195.8 
79.799999999999741 1:36 2:4 3:1 4:4 8:1 9:5 11:85 12:2 13:999 16:-0.1 17:93.2 18:-42 19:4.191 20:5195.8 
23.709683541861487 1:36 2:2 4:6 6:1 9:5 11:1735 12:2 13:999 16:-0.1 17:93.2 18:-42 19:4.191 20:5195.8 
79.799999999999741 1:46 2:2 4:6 5:1 8:1 9:5 11:725 12:2 13:999 16:-0.1 17:93.2 18:-42 19:4.191 20:5195.8 
79.799999999999741 1:35 2:2 4:6 8:1 9:5 11:397 12:2 13:999 16:-0.1 17:93.2 18:-42 19:4.191 20:5195.8 
79.799999999999741 1:43 2:2 4:6 8:1 9:5 11:222 12:2 13:999 16:-0.1 17:93.2 18:-42 19:4.191 20:5195.8 
79.799999999999741 1:53 2:6 4:6 5:1 6:1 8:1 9:5 11:536 12:2 13:999 16:-0.1 17:93.2 18:-42 19:4.191 20:5195.8 
79.799999999999741 1:50 2:10 4:6 5:1 6:1 8:1 9:5 11:595 12:2 13:999 16:-0.1 17:93.2 18:-42 19:4.191 20:5195.8 
79.799999999999741 1:33 2:6 4:6 6:1 8:1 9:5 11:681 12:2 13:999 16:-0.1 17:93.2 18:-42 19:4.191 20:5195.8 
79.799999999999741 1:52 2:2 6:1 7:1 8:1 9:5 11:102 12:3 13:999 16:-0.1 17:93.2 18:-42 19:4.191 20:5195.8 
79.799999999999741 1:30 2:2 4:6 8:1 9:5 11:329 12:2 13:999 16:-0.1 17:93.2 18:-42 19:4.191 20:5195.8 
79.799999999999741 1:35 2:2 4:5 6:1 8:1 9:5 11:960 12:2 13:999 16:-0.1 17:93.2 18:-42 19:4.191 20:5195.8 
79.799999999999741 1:44 2:2 4:4 6:1 9:5 11:762 12:1 13:999 16:-0.1 17:93.2 18:-42 19:4.191 20:5195.8 
79.799999999999741 1:45 2:2 4:3 6:1 8:1 9:5 11:446 12:3 13:999 16:-0.1 17:93.2 18:-42 19:4.191 20:5195.8 
79.799999999999741 1:37 2:10 4:6 5:1 6:1 9:5 11:215 12:1 13:999 16:-0.1 17:93.2 18:-42 19:4.191 20:5195.8 
79.799999999999741 1:33 2:10 4:3 5:1 6:1 7:1 9:5 11:292 12:1 13:999 16:-0.1 17:93.2 18:-42 19:4.191 20:5195.8 
79.799999999999741 1:50 2:4 4:4 6:2 7:2 8:1 9:5 10:1 11:336 12:1 13:999 16:-0.1 17:93.2 18:-42 19:4.153 20:5195.8 
79.799999999999741 1:54 2:2 3:1 4:6 8:1 9:5 10:1 11:67 12:1 13:999 16:-0.1 17:93.2 18:-42 19:4.153 20:5195.8 
79.799999999999741 1:51 2:4 4:5 8:1 9:5 10:1 11:144 12:1 13:999 16:-0.1 17:93.2 18:-42 19:4.153 20:5195.8 
79.799999999999741 1:37 2:6 3:2 4:1 6:1 8:1 9:5 10:1 11:1268 12:2 13:999 16:-0.1 17:93.2 18:-42 19:4.153 20:5195.8 
79.799999999999741 1:29 2:2 3:1 4:6 6:1 8:1 9:5 10:1 11:636 12:1 13:999 16:-0.1 17:93.2 18:-42 19:4.153 20:5195.8 
79.799999999999741 1:39 2:6 3:1 4:1 5:1 8:1 9:5 10:1 11:714 12:1 13:999 14:1 15:1 16:-0.1 17:93.2 18:-42 19:4.153 20:5195.8 
79.799999999999741 1:37 2:4 4:4 6:1 8:1 9:5 10:1 11:850 12:2 13:999 16:-0.1 17:93.2 18:-42 19:4.153 20:5195.8 
79.799999999999741 1:30 2:7 4:1 7:1 8:1 9:5 10:1 11:155 12:1 13:999 16:-0.1 17:93.2 18:-42 19:4.153 20:5195.8 
79.799999999999741 1:37 2:3 3:2 4:2 6:1 7:1 8:1 9:5 10:1 11:963 12:1 13:999 14:1 15:1 16:-0.1 17:93.2 18:-42 19:4.153 20:5195.8 
79.799999999999741 1:35 2:6 4:1 6:1 8:1 9:5 10:1 11:417 12:1 13:999 16:-0.1 17:93.2 18:-42 19:4.153 20:5195.8 
79.799999999999741 1:54 2:4 4:6 8:1 9:5 10:1 11:432 12:2 13:999 16:-0.1 17:93.2 18:-42 19:4.153 20:5195.8 
79.799999999999741 1:32 2:7 4:6 8:1 9:5 10:1 11:329 12:1 13:999 16:-0.1 17:93.2 18:-42 19:4.153 20:5195.8 
79.799999999999741 1:32 2:2 3:1 4:6 8:1 9:5 10:1 11:398 12:2 13:999 16:-0.1 17:93.2 18:-42 19:4.153 20:5195.8 
79.799999999999741 1:53 2:6 4:6 8:1 9:5 10:1 11:756 12:1 13:999 16:-0.1 17:93.2 18:-42 19:4.153 20:5195.8 
79.799999999999741 1:37 2:2 4:6 8:1 9:5 10:1 11:475 12:1 13:999 16:-0.1 17:93.2 18:-42 19:4.153 20:5195.8 
79.799999999999741 1:30 2:10 3:1 4:6 6:1 7:1 8:1 9:5 10:1 11:309 12:1 13:999 16:-0.1 17:93.2 18:-42 19:4.153 20:5195.8 
79.799999999999741 1:30 2:2 3:2 4:6 6:1 7:1 8:1 9:5 10:1 11:384 12:2 13:999 16:-0.1 17:93.2 18:-42 19:4.153 20:5195.8 
79.799999999999741 1:47 2:6 4:6 8:1 9:5 10:1 11:139 12:2 13:999 16:-0.1 17:93.2 18:-42 19:4.153 20:5195.8 
79.799999999999741 1:53 2:8 3:2 4:6 8:1 9:5 10:1 11:597 12:2 13:999 16:-0.1 17:93.2 18:-42 19:4.153 20:5195.8 
79.799999999999741 1:47 2:6 4:6 8:1 9:5 10:1 11:141 12:3 13:999 16:-0.1 17:93.2 18:-42 19:4.153 20:5195.8 
79.799999999999741 1:45 2:6 4:6 8:1 9:5 10:1 11:633 12:2 13:999 16:-0.1 17:93.2 18:-42 19:4.153 20:5195.8 
79.799999999999741 1:50 8:1 9:5 10:1 11:878 12:2 13:999 16:-0.1 17:93.2 18:-42 19:4.153 20:5195.8 
79.799999999999741 1:37 2:6 4:6 8:1 9:5 10:1 11:658 12:3 13:999 14:1 15:1 16:-0.1 17:93.2 18:-42 19:4.153 20:5195.8 
79.799999999999741 1:56 2:5 3:2 4:6 6:1 8:1 9:5 10:1 11:972 12:2 13:999 16:-0.1 17:93.2 18:-42 19:4.153 20:5195.8 
79.799999999999741 1:54 2:4 4:6 8:1 9:5 10:1 11:810 12:2 13:999 16:-0.1 17:93.2 18:-42 19:4.153 20:5195.8 
79.799999999999741 1:29 2:2 3:2 4:1 6:1 8:1 9:5 10:1 11:920 12:2 13:999 16:-0.1 17:93.2 18:-42 19:4.153 20:5195.8 
79.799999999999741 1:36 2:3 4:3 6:1 8:1 9:5 10:1 11:893 12:2 13:999 16:-0.1 17:93.2 18:-42 19:4.153 20:5195.8 
79.799999999999741 1:51 2:2 4:3 7:1 8:1 9:5 10:1 11:515 12:3 13:999 16:-0.1 17:93.2 18:-42 19:4.153 20:5195.8 
79.799999999999741 1:30 2:1 4:1 6:1 8:1 9:5 10:1 11:493 12:1 13:999 16:-0.1 17:93.2 18:-42 19:4.153 20:5195.8 
79.799999999999741 1:39 2:7 4:3 5:1 6:1 8:1 9:5 10:1 11:467 12:1 13:999 16:-0.1 17:93.2 18:-42 19:4.153 20:5195.8 
79.799999999999741 1:33 2:4 3:1 4:1 6:1 9:5 10:1 11:1476 12:3 13:999 16:-0.1 17:93.2 18:-42 19:4.153 20:5195.8 
79.799999999999741 1:33 2:2 3:1 4:1 8:1 9:5 10:1 11:436 12:1 13:999 16:-0.1 17:93.2 18:-42 19:4.153 20:5195.8 
79.799999999999741 1:30 2:4 4:4 8:1 9:5 10:1 11:679 12:1 13:999 16:-0.1 17:93.2 18:-42 19:4.153 20:5195.8 
79.799999999999741 1:35 2:2 3:1 4:6 8:1 9:5 10:2 11:187 12:5 13:999 16:-0.1 17:93.2 18:-42 19:4.12 20:5195.8 
79.799999999999741 1:38 2:2 3:2 4:6 5:1 6:1 8:1 9:5 10:2 11:697 12:2 13:999 14:1 15:1 16:-0.1 17:93.2 18:-42 19:4.12 20:5195.8 
79.799999999999741 1:34 2:2 3:1 4:1 8:1 9:5 10:2 11:740 12:1 13:999 16:-0.1 17:93.2 18:-42 19:4.12 20:5195.8 
79.799999999999741 1:58 2:5 4:4 8:1 9:5 10:2 11:577 12:1 13:999 16:-0.1 17:93.2 18:-42 19:4.12 20:5195.8 
79.799999999999741 1:35 2:6 4:6 6:1 8:1 9:5 10:2 11:400 12:1 13:999 16:-0.1 17:93.2 18:-42 19:4.12 20:5195.8 
79.799999999999741 1:32 2:4 3:1 4:4 8:1 9:5 10:2 11:295 12:1 13:999 14:1 15:1 16:-0.1 17:93.2 18:-42 19:4.12 20:5195.8 
79.799999999999741 1:45 2:4 4:4 8:1 9:5 10:2 11:193 12:1 13:999 16:-0.1 17:93.2 18:-42 19:4.12 20:5195.8 
77.280284328302599 1:31 2:7 3:1 4:4 6:1 8:1 9:5 10:2 11:192 12:1 14:1 15:2 16:-0.1 17:93.2 18:-42 19:4.12 20:5195.8 
79.799999999999741 1:31 2:2 4:6 6:1 8:1 9:5 10:2 11:162 12:1 13:999 16:-0.1 17:93.2 18:-42 19:4.12 20:5195.8 
79.799999999999741 1:32 2:7 3:2 4:1 6:1 8:1 9:5 10:2 11:351 12:1 13:999 16:-0.1 17:93.2 18:-42 19:4.12 20:5195.8 
79.799999999999741 1:30 2:2 3:2 4:6 6:1 8:1 9:5 10:2 11:589 12:1 13:999 16:-0.1 17:93.2 18:-42 19:4.12 20:5195.8 
79.799999999999741 1:45 2:4 4:6 6:1 8:1 9:5 10:2 11:770 12:1 13:999 16:-0.1 17:93.2 18:-42 19:4.12 20:5195.8 
79.799999999999741 1:33 2:10 4:1 6:1 8:1 9:5 10:2 11:902 12:2 13:999 16:-0.1 17:93.2 18:-42 19:4.12 20:5195.8 
79.799999999999741 1:48 2:2 3:1 4:6 8:1 9:5 10:2 11:808 12:1 13:999 16:-0.1 17:93.2 18:-42 19:4.12 20:5195.8 
79.799999999999741 1:36 2:3 4:2 6:1 8:1 9:5 10:2 11:723 12:1 13:999 16:-0.1 17:93.2 18:-42 19:4.12 20:5195.8 
79.799999999999741 1:33 2:2 3:1 4:1 8:1 9:5 10:2 11:578 12:1 13:999 16:-0.1 17:93.2 18:-42 19:4.12 20:5195.8 
79.799999999999741 1:36 2:3 7:1 8:1 9:5 10:2 11:217 12:1 13:999 16:-0.1 17:93.2 18:-42 19:4.12 20:5195.8 
79.799999999999741 1:35 2:2 4:6 8:1 9:5 10:2 11:630 12:1 13:999 16:-0.1 17:93.2 18:-42 19:4.12 20:5195.8 
79.799999999999741 1:36 2:6 4:6 8:1 9:5 10:2 11:226 12:2 13:999 16:-0.1 17:93.2 18:-42 19:4.12 20:5195.8 
79.799999999999741 1:36 2:6 4:6 8:1 9:5 10:2 11:75 12:1 13:999 16:-0.1 17:93.2 18:-42 19:4.12 20:5195.8 
79.799999999999741 1:50 2:8 3:3 4:2 8:1 9:5 10:2 11:968 12:1 13:999 16:-0.1 17:93.2 18:-42 19:4.12 20:5195.8 
79.799999999999741 1:55 2:4 4:3 8:1 9:5 10:2 11:1548 12:1 13:999 16:-0.1 17:93.2 18:-42 19:4.12 20:5195.8 
79.799999999999741 1:47 2:6 5:1 8:1 9:5 10:2 11:755 12:1 13:999 16:-0.1 17:93.2 18:-42 19:4.12 20:5195.8 
79.799999999999741 1:40 2:4 4:4 6:1 8:1 9:5 10:2 11:1283 12:1 13:999 16:-0.1 17:93.2 18:-42 19:4.12 20:5195.8 
79.799999999999741 1:45 2:3 3:2 4:3 6:1 8:1 9:5 10:2 11:384 12:1 13:999 14:1 15:1 16:-0.1 17:93.2 18:-42 19:4.12 20:5195.8 
79.799999999999741 1:31 2:3 3:1 4:1 9:5 10:2 11:201 12:1 13:999 16:-0.1 17:93.2 18:-42 19:4.12 20:5195.8 
79.799999999999741 1:31 2:3 3:1 4:1 8:1 9:5 10:2 11:230 12:1 13:999 16:-0.1 17:93.2 18:-42 19:4.12 20:5195.8 
79.799999999999741 1:45 2:6 4:6 7:1 8:1 9:5 10:2 11:391 12:2 13:999 16:-0.1 17:93.2 18:-42 19:4.12 20:5195.8 
79.799999999999741 1:34 2:2 4:6 6:1 8:1 9:5 10:2 11:174 12:1 13:999 16:-0.1 17:93.2 18:-42 19:4.12 20:5195.8 
79.799999999999741 1:31 2:3 3:1 4:1 6:1 8:1 9:5 10:2 11:780 12:1 13:999 16:-0.1 17:93.2 18:-42 19:4.12 20:5195.8 
79.799999999999741 1:31 2:4 4:6 6:1 8:1 9:5 10:2 11:124 12:2 13:999 16:-0.1 17:93.2 18:-42 19:4.12 20:5195.8 
79.799999999999741 1:49 2:1 4:2 6:1 8:1 9:5 10:2 11:772 12:2 13:999 16:-0.1 17:93.2 18:-42 19:4.12 20:5195.8 
79.799999999999741 1:56 2:6 4:6 8:1 9:5 10:2 11:98 12:1 13:999 16:-0.1 17:93.2 18:-42 19:4.12 20:5195.8 
79.799999999999741 1:40 2:2 4:1 6:1 8:1 9:5 10:2 11:570 12:1 13:999 16:-0.1 17:93.2 18:-42 19:4.12 20:5195.8 
79.799999999999741 1:41 2:2 4:6 6:1 8:1 9:5 10:2 11:54 12:1 13:999 14:1 15:1 16:-0.1 17:93.2 18:-42 19:4.12 20:5195.8 
79.799999999999741 1:38 2:3 4:3 8:1 9:5 10:2 11:1065 12:1 13:999 16:-0.1 17:93.2 18:-42 19:4.12 20:5195.8 
79.799999999999741 1:56 2:10 4:6 6:1 8:1 9:5 10:2 11:501 12:2 13:999 16:-0.1 17:93.2 18:-42 19:4.12 20:5195.8 
79.799999999999741 1:39 2:7 4:3 6:1 8:1 9:5 10:2 11:640 12:1 13:999 14:1 15:1 16:-0.1 17:93.2 18:-42 19:4.12 20:5195.8 
79.799999999999741 1:32 2:6 3:1 4:6 7:1 8:1 9:5 10:2 11:541 12:1 13:999 16:-0.1 17:93.2 18:-42 19:4.12 20:5195.8 
79.799999999999741 1:53 2:3 3:2 4:3 8:1 9:5 10:2 11:625 12:1 13:999 16:-0.1 17:93.2 18:-42 19:4.12 20:5195.8 
79.799999999999741 1:35 2:2 4:4 8:1 9:5 10:2 11:616 12:2 13:999 16:-0.1 17:93.2 18:-42 19:4.12 20:5195.8 
79.799999999999741 1:43 2:2 4:6 8:1 9:5 10:2 11:748 12:2 13:999 16:-0.1 17:93.2 18:-42 19:4.12 20:5195.8 
79.799999999999741 1:37 2:1 4:1 6:1 7:1 8:1 9:5 10:2 11:584 12:2 13:999 16:-0.1 17:93.2 18:-42 19:4.12 20:5195.8 
79.799999999999741 1:32 2:1 3:2 4:1 8:1 9:5 10:2 11:744 12:2 13:999 16:-0.1 17:93.2 18:-42 19:4.12 20:5195.8 
79.799999999999741 1:32 2:2 3:1 4:6 8:1 9:5 10:2 11:1307 12:3 13:999 14:1 15:1 16:-0.1 17:93.2 18:-42 19:4.12 20:5195.8 
