svm_type c_svc
kernel_type polynomial
degree 4
gamma 70.200000000000287
coef0 0
nr_class 2
total_sv 83
rho -1.0002403627456014
label 0 1
nr_sv 36 47
SV
6.3839052973493898e-09 2:0.33333333 3:0.22222222 
1.3384205958830206e-08 2:0.33333333 21:0.6 
8.8905338632331809e-10 2:0.33333333 3:0.22222222 9:0.36363636 21:0.6 
6.1156452853294733e-10 1:0.6 3:0.22222222 9:0.090909091 22:0.16666667 
4.0625328643761647e-09 3:0.22222222 9:0.27272727 22:0.16666667 
3.8443605249767908e-11 1:0.6 9:0.36363636 21:0.6 22:0.16666667 
3.5440689030078797e-10 1:0.6 2:0.33333333 21:0.6 
5.7829522636378691e-09 3:0.22222222 9:0.090909091 20:0.125 22:0.16666667 
1.8086485835512765e-10 1:0.6 2:0.33333333 9:0.36363636 21:0.6 
4.3674152274138469e-11 1:0.6 2:0.33333333 9:0.27272727 21:0.6 
2.4967223588289899e-10 1:0.6 2:0.33333333 3:0.22222222 9:0.27272727 22:0.16666667 
3.1788293059901036e-08 3:0.22222222 9:0.27272727 20:0.125 22:0.16666667 
8.7249154846583864e-11 1:0.6 3:0.22222222 9:0.27272727 22:0.16666667 
2.255199051067564e-10 2:0.66666667 3:0.22222222 4:1 5:0.625 7:1 9:0.54545455 11:0.5 20:0.125 21:0.6 22:0.5 
2.1513162659135864e-09 2:0.66666667 3:0.22222222 4:1 5:0.625 9:0.090909091 11:0.5 20:0.125 21:0.6 22:0.5 
1.5130923295294823e-09 2:0.66666667 3:0.22222222 4:1 5:0.625 9:0.090909091 11:0.5 21:0.6 22:0.5 
3.5942391819059461e-11 3:0.22222222 4:1 5:0.625 7:1 9:0.54545455 11:0.5 20:0.125 21:0.6 22:0.5 
3.5859678809515008e-10 2:0.66666667 3:0.22222222 4:1 5:0.625 7:1 9:0.090909091 11:0.5 20:0.125 21:0.6 22:0.5 
1.0811659415247927e-11 1:0.6 2:0.66666667 3:0.11111111 4:1 5:0.5 8:1 9:0.18181818 11:0.5 12:0.66666667 13:1 14:0.25 15:0.125 19:0.5 20:0.375 21:0.6 22:0.16666667 
2.0592575064633604e-09 1:0.2 3:0.66666667 5:0.375 8:1 9:0.18181818 11:0.5 18:0.5 20:0.625 21:0.6 22:0.33333333 
9.3473810112115353e-11 2:0.33333333 3:0.33333333 4:1 5:0.5 8:1 9:0.45454545 11:0.5 12:0.66666667 13:1 14:0.25 15:0.125 19:0.5 20:0.375 21:0.6 22:0.66666667 
2.8644120047617806e-10 1:0.2 2:0.33333333 3:0.22222222 5:0.375 7:1 9:0.36363636 11:0.5 20:0.5 21:1 22:1 
1.7611430576737757e-10 2:0.66666667 3:0.11111111 4:1 5:0.5 8:1 9:0.18181818 11:0.5 12:0.66666667 13:1 14:0.25 15:0.125 19:0.5 20:0.375 21:0.6 22:0.16666667 
4.5835716673712261e-09 1:0.2 3:0.22222222 5:0.375 8:1 9:0.18181818 11:0.5 18:0.5 20:0.625 21:0.6 22:0.33333333 
2.4083803329399066e-11 2:0.33333333 4:1 5:0.375 9:0.36363636 11:1 12:0.66666667 13:0.66666667 15:0.75 19:0.25 20:0.5 21:0.6 22:0.5 
2.5504864264497879e-09 3:0.22222222 5:0.5 8:1 9:0.27272727 10:1 11:0.5 20:0.375 22:0.16666667 
8.4856430889404498e-11 2:0.33333333 3:0.33333333 4:1 5:0.5 8:1 9:0.18181818 11:0.5 12:0.66666667 13:1 14:0.25 15:0.125 19:0.5 20:0.375 21:0.6 22:0.66666667 
4.197006470256632e-10 1:0.2 2:0.33333333 3:0.22222222 5:0.375 8:1 9:0.18181818 11:0.5 18:0.5 20:0.625 21:0.6 22:0.33333333 
2.2229974433762855e-11 1:1 2:0.33333333 3:0.22222222 5:0.375 7:1 9:0.36363636 11:0.5 20:0.5 21:1 22:1 
5.7718450077048072e-12 2:0.33333333 4:1 5:0.5 9:0.72727273 10:1 11:1 15:0.125 19:0.25 20:0.5 21:0.6 22:0.5 
1.9738024994872946e-10 3:0.22222222 5:0.5 8:1 9:0.27272727 10:1 11:0.5 20:0.375 21:0.6 22:0.16666667 
4.6993555942310762e-12 2:0.33333333 4:1 5:0.5 9:0.72727273 10:1 11:1 13:1 15:0.125 19:0.25 20:0.5 21:0.6 22:0.5 
3.4560299657548622e-11 1:0.8 2:0.66666667 4:1 5:0.375 9:0.36363636 11:1 12:0.66666667 13:0.66666667 15:0.75 19:0.25 20:0.5 21:0.6 22:0.5 
2.1438019666690542e-11 4:1 5:0.5 9:0.72727273 10:1 11:1 15:0.125 19:0.25 20:0.5 21:0.6 22:1 
3.8742900576140648e-11 1:0.6 4:1 5:0.5 9:0.72727273 10:1 11:1 15:0.125 19:0.25 20:0.5 21:0.6 22:1 
1.1363976150130463e-11 4:1 5:0.5 9:0.72727273 10:1 11:1 13:1 15:0.125 19:0.25 20:0.5 21:0.6 22:1 
-1.3030917007734851e-08 3:0.11111111 5:0.125 8:1 11:0.25 20:0.125 21:0.2 22:0.16666667 
-1.0406233563873913e-10 3:0.11111111 5:0.125 7:1 9:0.090909091 10:1 11:0.5 20:0.125 21:0.6 22:0.5 
-5.8201212444514943e-11 1:0.4 2:0.66666667 3:0.33333333 4:1 5:0.375 9:0.27272727 20:0.125 21:0.6 
-3.6927916255373321e-09 1:0.2 3:0.11111111 5:0.125 8:1 9:0.090909091 11:0.25 20:0.125 21:0.2 22:0.16666667 
-1.3221240251810523e-10 2:0.66666667 3:0.22222222 5:0.25 7:1 9:0.090909091 10:1 11:0.5 20:0.125 21:0.6 22:0.5 
-1.0616723073582522e-11 1:0.4 2:0.66666667 3:0.33333333 4:1 5:0.375 9:0.18181818 20:0.125 21:0.6 
-1.1162330216895338e-09 2:0.66666667 3:0.33333333 4:1 5:0.375 20:0.125 21:0.6 
-1.4752690611138791e-09 2:0.66666667 3:0.33333333 4:1 5:0.375 9:0.090909091 21:0.6 
-6.1449465327811372e-09 2:0.66666667 4:1 5:0.375 21:0.6 
-3.5899239172770016e-10 3:0.11111111 5:0.25 7:1 9:0.090909091 10:1 11:0.5 20:0.25 21:0.6 22:0.5 
-1.2899018018367654e-08 3:0.11111111 5:0.125 8:1 11:0.25 22:0.16666667 
-1.9960003310647744e-11 2:0.66666667 4:1 5:0.375 9:0.27272727 21:0.6 
-1.0653858353038385e-09 2:0.66666667 4:1 5:0.375 9:0.090909091 21:0.6 
-3.4035537223698442e-11 1:0.6 3:0.11111111 5:0.25 7:1 9:0.090909091 10:1 11:0.5 20:0.25 21:0.6 22:0.5 
-9.2666847298906644e-09 3:0.11111111 5:0.125 8:1 9:0.090909091 11:0.25 20:0.125 22:0.16666667 
-6.5708901888294721e-10 3:0.11111111 5:0.25 7:1 9:0.090909091 10:1 11:0.5 20:0.125 21:0.6 22:0.5 
-2.013007774603846e-08 3:0.11111111 5:0.125 8:1 11:0.25 20:0.125 22:0.16666667 
-3.6321025245618088e-09 1:0.2 3:0.11111111 5:0.125 8:1 11:0.25 20:0.125 21:0.2 22:0.16666667 
-4.9816046251787155e-10 2:0.66666667 4:1 5:0.375 9:0.18181818 21:0.6 
-4.0477889770952233e-12 4:1 5:0.375 7:1 8:1 9:0.45454545 10:1 13:0.33333333 19:0.25 20:0.125 22:0.16666667 
-4.0003215556167516e-12 4:1 5:0.375 7:1 8:1 9:0.45454545 10:1 19:0.25 20:0.125 22:0.16666667 
-7.3993027768499958e-11 4:1 5:0.375 7:1 8:1 9:0.45454545 10:1 12:0.33333333 13:0.33333333 19:0.25 20:0.125 22:0.16666667 
-8.1268304573329491e-12 1:0.6 3:0.22222222 5:0.25 7:1 9:0.090909091 10:1 11:0.5 20:0.25 21:0.6 22:0.5 
-8.8098669593801883e-12 3:0.22222222 4:1 5:0.375 7:1 8:1 9:0.45454545 10:1 12:0.33333333 13:0.33333333 19:0.25 20:0.125 22:0.16666667 
-1.0944309760283238e-12 2:0.33333333 5:0.375 8:1 9:0.36363636 10:1 11:0.5 14:0.25 20:0.125 21:0.6 22:0.5 
-8.1114199645573205e-11 2:0.33333333 5:0.375 8:1 9:0.54545455 10:1 11:0.5 14:0.125 20:0.125 21:0.6 22:0.5 
-1.5286527568110807e-10 2:0.33333333 5:0.375 8:1 9:0.36363636 10:1 11:0.5 20:0.125 21:0.6 22:0.5 
-4.3203655882003075e-10 2:0.33333333 5:0.375 8:1 9:0.54545455 10:1 11:0.5 20:0.125 21:0.6 22:0.5 
-4.9064726501012522e-11 2:0.33333333 5:0.375 8:1 9:0.36363636 10:1 11:0.5 14:0.125 20:0.125 21:0.6 22:0.5 
-1.8054550102659452e-11 2:0.66666667 3:0.88888889 4:1 5:0.375 7:1 9:0.36363636 11:0.5 15:0.5 19:0.25 20:0.5 21:0.6 22:1 
-1.083757522016437e-11 1:0.6 2:0.33333333 3:0.44444444 5:0.375 8:1 9:0.36363636 11:1 14:0.625 18:0.5 19:0.25 20:0.5 21:1 22:0.83333333 
-5.8969513217943403e-11 1:0.6 2:0.33333333 5:0.375 8:1 9:0.36363636 11:1 18:0.5 19:0.25 20:0.5 21:1 22:0.83333333 
-8.4882020961271642e-11 2:0.66666667 4:1 5:0.375 7:1 9:0.36363636 11:0.5 12:0.33333333 15:0.5 19:0.25 20:0.5 21:0.6 22:1 
-3.6733720643057389e-11 2:0.66666667 3:0.88888889 4:1 5:0.375 7:1 9:0.36363636 11:0.5 12:0.33333333 15:0.5 19:0.25 20:0.5 21:0.6 22:1 
-2.1510364691555158e-10 1:0.8 2:0.33333333 3:0.44444444 5:0.375 8:1 9:0.36363636 11:1 18:0.5 19:0.25 20:0.5 21:1 22:0.83333333 
-3.079366950378421e-10 2:0.33333333 4:1 5:0.375 7:1 9:0.36363636 11:0.5 15:0.5 19:0.25 20:0.5 21:0.6 22:1 
-1.5383049568962751e-11 1:0.6 2:0.66666667 3:0.88888889 4:1 5:0.375 7:1 9:0.36363636 11:0.5 12:0.33333333 15:0.5 19:0.25 20:0.5 21:0.6 22:1 
-1.7287604187440739e-12 1:0.8 2:0.33333333 3:0.44444444 5:0.375 8:1 9:0.36363636 11:1 14:0.625 18:0.5 19:0.25 20:0.5 21:1 22:0.83333333 
-1.7888776023558159e-11 1:0.6 2:0.33333333 5:0.375 8:1 9:0.36363636 11:1 14:0.625 18:0.5 19:0.25 20:0.5 21:1 22:0.83333333 
-1.7486413318769226e-11 1:0.6 2:0.66666667 3:0.88888889 4:1 5:0.375 7:1 9:0.36363636 11:0.5 15:0.5 19:0.25 20:0.5 21:0.6 22:1 
-2.342256815095215e-10 1:0.6 5:0.375 8:1 9:0.36363636 11:1 18:0.5 19:0.25 20:0.5 21:1 22:0.83333333 
-1.0068650824268483e-09 2:0.33333333 3:0.22222222 4:1 5:0.375 9:0.27272727 11:1 13:0.33333333 19:0.75 20:0.375 21:0.6 22:0.5 
-6.9178784399585245e-12 2:0.33333333 4:1 5:0.375 7:1 9:0.36363636 11:0.5 12:0.33333333 15:0.5 19:0.25 20:0.5 21:0.6 22:1 
-5.8466879615189015e-11 2:0.66666667 3:0.22222222 4:1 5:0.375 7:1 8:1 9:0.36363636 11:1 12:0.66666667 13:1 18:0.5 20:0.5 21:0.2 22:0.16666667 
-1.5057561741619198e-09 3:0.88888889 5:0.375 8:1 9:0.36363636 11:0.5 18:0.5 20:0.5 21:0.6 22:0.66666667 
-2.5428787539316619e-11 1:0.8 2:0.66666667 3:0.22222222 4:1 5:0.375 7:1 8:1 9:0.27272727 11:1 12:0.66666667 13:1 18:0.5 20:0.5 21:0.2 22:0.16666667 
-1.6955918390453264e-12 4:1 5:0.375 6:1 8:1 9:0.090909091 11:1 14:0.75 15:0.875 17:0.33333333 20:0.875 21:1 22:1 
